{"settings": {"LAST_DATE_IN_TRAIN_SET": "2020-11-30", "LAST_DATE_IN_VAL_SET": "2022-12-31", "FILTER_SIZE_UNEMPLOYMENT": 600, "SIMILARITY_REGULARIZATION_UNEMPLOYMENT": 0.5, "SIMILARITY_REGULARIZATION_SIR": 1.0, "env": {"economic_reward_crra_eta": 2, "start_date": "2020-03-22", "infection_too_sick_to_work_rate": 0.1, "pop_between_age_18_65": 0.6, "risk_free_interest_rate": 0.03}}, "BETA_DELAY": 19, "BETA_SLOPES": [-0.002083149146316841, -0.01371560729632028, -0.011424436209217176, -0.00021417674846646492, -0.006933490155728566, -0.016302651313909445, -0.021976940880546216, -0.015027611667733825, -0.02049632436729215, -0.0012684443956520169, -0.01048973104445181, -0.017194032124246396, -0.012501268771611864, -0.01143836972759926, -0.013060538603737563, -0.0067212150885846535, -0.01688288807282084, -0.00732788326384196, -0.01555251108305955, -0.018558939137308463, -0.010197800016497182, -0.026008323704885424, -0.01839844459165451, -0.00901908210276596, -0.009912989484092105, -0.012184418132402267, -0.010865738701655978, -0.00824883961890689, -0.015658776412508412, -0.007343924746645179, -0.025687336392182365, -0.018997538481654343, -0.02173458408903677, -0.009723754643385055, -0.01522632535061064, -0.014219802862404556, -0.009837136107620213, -0.013702791710576777, -0.01233515106776793, -0.017495098568829186, -0.0038581898438220952, 0.0, -0.005059806903521021, -0.008279652819068657, -0.00976148524190814, -0.013599986086457131, -0.006700989222300901, -0.00854383474889656, -0.01016606020999418, -0.007783745678307378, -0.00854767718434908], "BETA_INTERCEPTS": [0.0909339937130691, 0.15934908172512985, 0.14090346558341932, 0.0874313754405788, 0.12764208829535384, 0.16684521264029478, 0.2224932557519612, 0.17695271150734787, 0.21019375363558337, 0.08716936932597127, 0.1336906559126855, 0.20973853610439594, 0.15080833147783596, 0.14648534415297923, 0.14984655491595586, 0.110537697420092, 0.17482465641796435, 0.12619046011972584, 0.1647262699056331, 0.21555096854713704, 0.14377434718511678, 0.24829878480348588, 0.1892414331867255, 0.13387981001991417, 0.13184909826792304, 0.14018526342268908, 0.14661205866940122, 0.12405630739766456, 0.1708853272245163, 0.12083263910858046, 0.22682830516334695, 0.22726318123971645, 0.22862860647497482, 0.14018468286560404, 0.15135048973036935, 0.1697137890161659, 0.12073008155368109, 0.15871040433133266, 0.15150244306880184, 0.20317395740311867, 0.10065229276353373, 0.09157731666281237, 0.11147735108794629, 0.1302431516220282, 0.1279698798877931, 0.1390724799874019, 0.11496817083316735, 0.12430599998655567, 0.14262011441012512, 0.11751381777354367, 0.13140679079992296], "POLICY_START_DATE": "2020-01-01", "FILTER_LEN": 600, "CONV_LAMBDAS": [27.112804412841797, 63.101619720458984, 129.30047607421875, 264.5372009277344, 542.0955200195312], "UNEMPLOYMENT_BIAS": [3.2644407749176025, 4.499558448791504, 4.405306339263916, 3.675039529800415, 4.485451698303223, 2.597811222076416, 3.804372549057007, 3.298781394958496, 4.498260974884033, 4.313902854919434, 2.5441839694976807, 2.062028169631958, 2.966096878051758, 4.369351863861084, 3.5694878101348877, 2.9486043453216553, 2.676105499267578, 2.461022138595581, 4.120146751403809, 2.268890619277954, 3.485408067703247, 3.459002733230591, 3.8489294052124023, 3.3741257190704346, 4.410013675689697, 3.5909318923950195, 3.035351037979126, 2.301021099090576, 4.815134048461914, 3.268981456756592, 4.128771781921387, 4.608757495880127, 4.180273056030273, 3.757425308227539, 1.3590128421783447, 3.825359582901001, 3.4297034740448, 3.1892499923706055, 4.190118312835693, 3.8612453937530518, 3.1079514026641846, 2.0673468112945557, 3.6371912956237793, 3.0362472534179688, 1.8598976135253906, 1.0856651067733765, 3.4572150707244873, 3.7739949226379395, 4.572010517120361, 2.9398598670959473, 3.8302032947540283], "GROUPED_CONVOLUTIONAL_FILTER_WEIGHTS": [[[-1.5381072759628296]], [[0.03518480062484741]], [[0.4868597984313965]], [[0.9615733027458191]], [[0.7191093564033508]], [[-1.646291971206665]], [[-0.3520190715789795]], [[0.27697500586509705]], [[0.7213228940963745]], [[0.8754758238792419]], [[-0.5829390287399292]], [[-0.5866233706474304]], [[1.171216607093811]], [[0.1334325075149536]], [[0.9334802031517029]], [[-0.8147411942481995]], [[-0.23818959295749664]], [[0.6439414620399475]], [[0.8158510327339172]], [[0.20904068648815155]], [[-2.4364023208618164]], [[-0.34894073009490967]], [[1.0290406942367554]], [[0.7745112180709839]], [[0.8722492456436157]], [[-1.02119779586792]], [[-0.8921096920967102]], [[0.8290900588035583]], [[1.2804806232452393]], [[0.3225904107093811]], [[-1.3058580160140991]], [[-0.6622840166091919]], [[-0.098210409283638]], [[0.3545372784137726]], [[1.3487868309020996]], [[-1.2782868146896362]], [[-0.38591498136520386]], [[1.0310564041137695]], [[0.47991958260536194]], [[0.6089175939559937]], [[-0.4588111937046051]], [[-0.14673075079917908]], [[0.10670210421085358]], [[0.30685296654701233]], [[0.6950969099998474]], [[-1.6454795598983765]], [[-0.38156256079673767]], [[0.8845990896224976]], [[0.3235710561275482]], [[0.9453861117362976]], [[-0.9282717704772949]], [[-0.26669785380363464]], [[0.6081099510192871]], [[0.8991905450820923]], [[0.602202832698822]], [[-2.5392117500305176]], [[0.5912202596664429]], [[1.4443248510360718]], [[0.5406839847564697]], [[1.4279738664627075]], [[-1.4723976850509644]], [[0.10776498168706894]], [[0.9137475490570068]], [[0.4638856053352356]], [[0.3008790612220764]], [[-1.8115553855895996]], [[-0.017747249454259872]], [[0.6278270483016968]], [[0.7205513119697571]], [[1.079419732093811]], [[-1.6414127349853516]], [[0.12403053790330887]], [[0.7561838626861572]], [[0.8033722043037415]], [[0.7151143550872803]], [[-1.521743893623352]], [[-0.24178674817085266]], [[0.9024394154548645]], [[0.6003429889678955]], [[0.607164740562439]], [[-0.7767605781555176]], [[-0.5765241980552673]], [[1.037075161933899]], [[1.0505414009094238]], [[0.060080088675022125]], [[-1.084113597869873]], [[0.9098694920539856]], [[0.40347445011138916]], [[0.6275801062583923]], [[0.3975348472595215]], [[-0.9897715449333191]], [[-0.2094396948814392]], [[0.14355193078517914]], [[0.677280604839325]], [[1.107565999031067]], [[-0.689568281173706]], [[0.14295050501823425]], [[0.9317634105682373]], [[-0.16981090605258942]], [[0.3947163224220276]], [[-0.633543848991394]], [[-0.4591009318828583]], [[0.004247088450938463]], [[0.46936580538749695]], [[0.6912800073623657]], [[-1.6963378190994263]], [[-0.1669127345085144]], [[0.3072480857372284]], [[1.5088858604431152]], [[0.8712571263313293]], [[-2.346038341522217]], [[0.07424910366535187]], [[0.8144088983535767]], [[0.6049172878265381]], [[1.5272825956344604]], [[-2.0348546504974365]], [[0.021474244073033333]], [[0.9549813270568848]], [[0.03284844011068344]], [[0.7494450807571411]], [[-0.498940110206604]], [[0.5264636278152466]], [[0.2741641104221344]], [[0.14677172899246216]], [[1.1039663553237915]], [[-1.3840962648391724]], [[0.19757747650146484]], [[0.41761159896850586]], [[0.6940317153930664]], [[0.5206567049026489]], [[-1.3886266946792603]], [[0.4042099714279175]], [[0.5311310291290283]], [[0.41670024394989014]], [[0.5128811001777649]], [[-0.9265215992927551]], [[0.1969114989042282]], [[0.6526641249656677]], [[0.5899558663368225]], [[-0.0038911066949367523]], [[-0.9244884848594666]], [[-0.011817972175776958]], [[1.774195671081543]], [[1.6210224628448486]], [[0.9672853946685791]], [[-1.0400735139846802]], [[0.04432712122797966]], [[0.4471646845340729]], [[0.5851042866706848]], [[0.8091071844100952]], [[-2.011744737625122]], [[-0.7198845148086548]], [[1.4011286497116089]], [[0.2410494089126587]], [[1.391195297241211]], [[-0.6860828995704651]], [[0.05911286920309067]], [[-0.3640427887439728]], [[0.48075127601623535]], [[0.6429585218429565]], [[-1.4951443672180176]], [[-0.7098492383956909]], [[0.7936306595802307]], [[0.9337323904037476]], [[0.7627229690551758]], [[-1.487891435623169]], [[0.03951767832040787]], [[1.2378078699111938]], [[0.5753207206726074]], [[0.2380708009004593]], [[-1.194623351097107]], [[-0.5127854943275452]], [[0.3309312164783478]], [[0.8019360899925232]], [[1.1931778192520142]], [[-2.019990921020508]], [[-0.2921220064163208]], [[1.5464192628860474]], [[0.0012960107997059822]], [[0.9635125994682312]], [[-1.3684619665145874]], [[-0.9458691477775574]], [[0.5373914837837219]], [[1.670386552810669]], [[0.3311416506767273]], [[-1.544970154762268]], [[0.4637913405895233]], [[-0.07119438052177429]], [[0.5687058568000793]], [[1.1820924282073975]], [[-1.1427825689315796]], [[-0.8663089871406555]], [[0.7702398300170898]], [[0.9247336983680725]], [[0.8856251239776611]], [[-1.3295233249664307]], [[0.0800308957695961]], [[0.3353556990623474]], [[1.0919380187988281]], [[0.6609266400337219]], [[-1.6419810056686401]], [[-0.2201298624277115]], [[0.7450174689292908]], [[1.096428394317627]], [[0.27184587717056274]], [[-1.5253098011016846]], [[-0.48771631717681885]], [[0.3660440146923065]], [[0.768070638179779]], [[0.9765804409980774]], [[-1.5383647680282593]], [[0.44882315397262573]], [[0.29352250695228577]], [[1.1638432741165161]], [[0.47496461868286133]], [[-0.9963358640670776]], [[-0.18509544432163239]], [[0.016588034108281136]], [[0.883866548538208]], [[1.0366897583007812]], [[-1.946478009223938]], [[0.2421145737171173]], [[0.918025553226471]], [[0.6935984492301941]], [[0.4189097583293915]], [[-1.6172369718551636]], [[-0.223074808716774]], [[1.0202181339263916]], [[0.6744292974472046]], [[0.6490517854690552]], [[-1.3068995475769043]], [[0.19418911635875702]], [[0.13231991231441498]], [[0.8969539403915405]], [[0.4900968372821808]], [[-1.7061426639556885]], [[-0.23850591480731964]], [[1.3688857555389404]], [[0.7093831300735474]], [[0.6083550453186035]], [[-1.6798498630523682]], [[-0.09602390229701996]], [[1.2074580192565918]], [[0.9792026281356812]], [[0.11251238733530045]], [[-1.939814805984497]], [[-0.4171271324157715]], [[0.9949477910995483]], [[0.6030478477478027]], [[0.9439883232116699]], [[-1.3522380590438843]], [[-0.3412982225418091]], [[0.3463100492954254]], [[0.30019715428352356]], [[0.49400794506073]]], "VALUE_OF_LIFE": 10000000, "INFERRED_WEIGHTAGE_ON_AGENT_HEALTH_INDEX": [0.489, 0.777, 0.535, 0.465, 0.667, 0.67, 0.633, 0.5650000000000001, 0.657, 0.527, 0.657, 0.721, 0.551, 0.617, 0.55, 0.464, 0.541, 0.661, 0.601, 0.514, 0.686, 0.521, 0.581, 0.719, 0.537, 0.638, 0.464, 0.459, 0.5690000000000001, 0.677, 0.56, 0.547, 0.654, 0.773, 0.451, 0.544, 0.631, 0.77, 0.612, 0.584, 0.533, 0.0, 0.585, 0.606, 0.594, 0.9580000000000001, 0.716, 0.741, 0.641, 0.623, 0.769], "INFERRED_WEIGHTAGE_ON_PLANNER_HEALTH_INDEX": 0.614, "MAX_MARGINAL_AGENT_ECONOMIC_INDEX": [0.00271843234077096, 0.0026818104088306427, 0.0026905855629593134, 0.002721623983234167, 0.002689269371330738, 0.0026791796553879976, 0.0026659895665943623, 0.002678664168342948, 0.0026704822666943073, 0.0027192626148462296, 0.0026907434221357107, 0.0026785708032548428, 0.0026849100831896067, 0.0026846840046346188, 0.002685507759451866, 0.002704633865505457, 0.00268037267960608, 0.0026989614125341177, 0.0026776765007525682, 0.0026745093055069447, 0.002685046289116144, 0.0026677590794861317, 0.0026747973170131445, 0.0026903750840574503, 0.0026908954605460167, 0.0026905809063464403, 0.002687694039195776, 0.002699284814298153, 0.0026829419657588005, 0.0026992950588464737, 0.002667848952114582, 0.0026686766650527716, 0.0026666901540011168, 0.0026895327027887106, 0.0026893657632172108, 0.0026792967692017555, 0.0026989146135747433, 0.0026833200827240944, 0.002684083068743348, 0.0026738375891000032, 0.0027113177347928286, 0.0027180337347090244, 0.0027027116157114506, 0.0026926673017442226, 0.002697243355214596, 0.002691799309104681, 0.0027004594448953867, 0.002693128539249301, 0.002689461223781109, 0.0026991136837750673, 0.0026951951440423727], "MAX_MARGINAL_PLANNER_ECONOMIC_INDEX": 0.002642660401761532, "MAX_MARGINAL_AGENT_HEALTH_INDEX": [-4.4086016714572906e-05, -5.750641321355943e-06, -7.682991054025479e-06, -0.0005615509580820799, -1.5970294043654576e-05, -6.288631993811578e-05, -7.975315384101123e-05, -2.2300129785435274e-05, -4.179787720204331e-05, -9.949867671821266e-05, -2.0031071471748874e-05, -5.820424121338874e-06, -8.877601430867799e-06, -2.6851701477426104e-05, -2.753615081019234e-05, -5.523757408809615e-06, -8.239522685471456e-06, -1.4350479432323482e-05, -8.649365918245167e-05, -1.328999951510923e-05, -1.768991569406353e-05, -7.282703882083297e-05, -6.326298898784444e-05, -6.237847628653981e-06, -1.630675069463905e-05, -8.071036972978618e-06, -5.191857326281024e-06, -4.130508841626579e-06, -1.711633740342222e-05, -8.543420335627161e-06, -0.00015637106844224036, -1.5236924809869379e-05, -0.0003507742949295789, -5.2592095016734675e-06, -3.1992249205359258e-06, -1.3521903383661993e-05, -8.516524758306332e-06, -6.24272570348694e-06, -1.8389473552815616e-05, -5.82038082939107e-05, -1.6634307030471973e-05, -0.0012810364132747054, -1.4966561138862744e-05, -8.762105608184356e-06, -2.1212974843365373e-06, -1.592203989275731e-05, -8.773499757808167e-06, -4.0096419979818165e-05, -2.428060724923853e-06, -1.4257415386964567e-05, -4.5975008333698497e-07], "MAX_MARGINAL_PLANNER_HEALTH_INDEX": -5.780741048511118e-05, "MIN_MARGINAL_AGENT_ECONOMIC_INDEX": [0.002263973467051983, 0.0023296885192394257, 0.002313394332304597, 0.0024626811500638723, 0.0022146080154925585, 0.002340058097615838, 0.0023140250705182552, 0.002382080303505063, 0.002476050052791834, 0.002315117046236992, 0.0023179021663963795, 0.0019025871297344565, 0.0024792414624243975, 0.0021634348668158054, 0.002263284521177411, 0.002364848740398884, 0.002432588953524828, 0.0024209036491811275, 0.0022360265720635653, 0.002572999568656087, 0.002482391893863678, 0.00208331854082644, 0.001979886321350932, 0.002445224206894636, 0.0022842262405902147, 0.0024086677003651857, 0.002449590479955077, 0.002569470088928938, 0.0014868020080029964, 0.0023270784877240658, 0.002106012776494026, 0.0025081222411245108, 0.0022531384602189064, 0.0024284454993903637, 0.0022009850945323706, 0.0023073521442711353, 0.0022889371030032635, 0.002246591029688716, 0.0022146916016936302, 0.002263653790578246, 0.002388542518019676, 0.0022797968704253435, 0.0022985858377069235, 0.0022370675578713417, 0.002392779104411602, 0.0023326429072767496, 0.0024041931610554457, 0.0022567701525986195, 0.0023853520397096872, 0.0022505661472678185, 0.0025506848469376564], "MIN_MARGINAL_PLANNER_ECONOMIC_INDEX": 0.0022162413224577904, "MIN_MARGINAL_AGENT_HEALTH_INDEX": [-0.0013540363870561123, -0.005039616953581572, -0.004591855686157942, -0.0008087687892839313, -0.004274887032806873, -0.00496435584500432, -0.005699673667550087, -0.00523294135928154, -0.005685679614543915, -0.0009366958402097225, -0.004227520432323217, -0.005471556913107634, -0.004728467669337988, -0.0047582462430000305, -0.004735893569886684, -0.003180699422955513, -0.005112865008413792, -0.004048760049045086, -0.005070085637271404, -0.005526611115783453, -0.004641456995159388, -0.005799968261271715, -0.005406493321061134, -0.0043482184410095215, -0.004322577267885208, -0.004476238042116165, -0.0046653952449560165, -0.0038901010993868113, -0.005264007020741701, -0.003852804424241185, -0.005727116018533707, -0.0058451308868825436, -0.0057477145455777645, -0.004568853415548801, -0.004540532361716032, -0.0051747215911746025, -0.0037346503231674433, -0.004907978232949972, -0.004854992497712374, -0.0055821058340370655, -0.002506093354895711, -0.0012810364132747054, -0.003447851864621043, -0.004214636515825987, -0.003961791284382343, -0.00419774791225791, -0.0035662383306771517, -0.004009527154266834, -0.00469818664714694, -0.0036430438049137592, -0.004264651332050562], "MIN_MARGINAL_PLANNER_HEALTH_INDEX": -0.004264676012098789}