{"settings": {"LAST_DATE_IN_TRAIN_SET": "2020-11-30", "LAST_DATE_IN_VAL_SET": "2022-12-31", "FILTER_SIZE_UNEMPLOYMENT": 600, "SIMILARITY_REGULARIZATION_UNEMPLOYMENT": 0.5, "SIMILARITY_REGULARIZATION_SIR": 1.0, "env": {"economic_reward_crra_eta": 2, "start_date": "2020-03-22", "infection_too_sick_to_work_rate": 0.1, "pop_between_age_18_65": 0.6, "risk_free_interest_rate": 0.03}}, "BETA_DELAY": 19, "BETA_SLOPES": [-0.002083149146316841, -0.01371560729632028, -0.011424436209217176, -0.00021417674846646492, -0.006933490155728566, -0.016302651313909445, -0.021976940880546216, -0.015027611667733825, -0.02049632436729215, -0.0012684443956520169, -0.01048973104445181, -0.017194032124246396, -0.012501268771611864, -0.01143836972759926, -0.013060538603737563, -0.0067212150885846535, -0.01688288807282084, -0.00732788326384196, -0.01555251108305955, -0.018558939137308463, -0.010197800016497182, -0.026008323704885424, -0.01839844459165451, -0.00901908210276596, -0.009912989484092105, -0.012184418132402267, -0.010865738701655978, -0.00824883961890689, -0.015658776412508412, -0.007343924746645179, -0.025687336392182365, -0.018997538481654343, -0.02173458408903677, -0.009723754643385055, -0.01522632535061064, -0.014219802862404556, -0.009837136107620213, -0.013702791710576777, -0.01233515106776793, -0.017495098568829186, -0.0038581898438220952, 0.0, -0.005059806903521021, -0.008279652819068657, -0.00976148524190814, -0.013599986086457131, -0.006700989222300901, -0.00854383474889656, -0.01016606020999418, -0.007783745678307378, -0.00854767718434908], "BETA_INTERCEPTS": [0.0909339937130691, 0.15934908172512985, 0.14090346558341932, 0.0874313754405788, 0.12764208829535384, 0.16684521264029478, 0.2224932557519612, 0.17695271150734787, 0.21019375363558337, 0.08716936932597127, 0.1336906559126855, 0.20973853610439594, 0.15080833147783596, 0.14648534415297923, 0.14984655491595586, 0.110537697420092, 0.17482465641796435, 0.12619046011972584, 0.1647262699056331, 0.21555096854713704, 0.14377434718511678, 0.24829878480348588, 0.1892414331867255, 0.13387981001991417, 0.13184909826792304, 0.14018526342268908, 0.14661205866940122, 0.12405630739766456, 0.1708853272245163, 0.12083263910858046, 0.22682830516334695, 0.22726318123971645, 0.22862860647497482, 0.14018468286560404, 0.15135048973036935, 0.1697137890161659, 0.12073008155368109, 0.15871040433133266, 0.15150244306880184, 0.20317395740311867, 0.10065229276353373, 0.09157731666281237, 0.11147735108794629, 0.1302431516220282, 0.1279698798877931, 0.1390724799874019, 0.11496817083316735, 0.12430599998655567, 0.14262011441012512, 0.11751381777354367, 0.13140679079992296], "POLICY_START_DATE": "2020-01-01", "FILTER_LEN": 600, "CONV_LAMBDAS": [25.269685745239258, 63.191795349121094, 129.2672882080078, 264.12811279296875, 541.7494506835938], "UNEMPLOYMENT_BIAS": [2.919447898864746, 4.40283203125, 4.192021369934082, 3.519658088684082, 4.2296552658081055, 3.192798376083374, 3.9699909687042236, 3.1786277294158936, 4.5657243728637695, 4.175573825836182, 3.4342844486236572, 3.8123133182525635, 1.9443241357803345, 4.18092155456543, 2.996704578399658, 2.291154623031616, 2.606532573699951, 2.9315145015716553, 4.252327919006348, 2.1090497970581055, 3.3239505290985107, 3.4978997707366943, 3.8992273807525635, 2.584045886993408, 4.37099027633667, 3.281740427017212, 2.7171099185943604, 2.3345255851745605, 4.788115978240967, 3.3777143955230713, 4.100216388702393, 4.274713516235352, 4.066958427429199, 3.160510778427124, 1.5646055936813354, 3.5622756481170654, 2.9051287174224854, 2.885514259338379, 3.8102786540985107, 3.6159491539001465, 2.839998483657837, 1.9508310556411743, 2.9418506622314453, 3.1287190914154053, 1.907218337059021, 1.9019490480422974, 3.407857656478882, 3.791921854019165, 4.12239408493042, 3.216761589050293, 3.879319429397583], "GROUPED_CONVOLUTIONAL_FILTER_WEIGHTS": [[[-1.634745478630066]], [[-0.14964835345745087]], [[0.6586862802505493]], [[0.9190376996994019]], [[0.8208877444267273]], [[-1.4746239185333252]], [[-0.6170069575309753]], [[0.5298364758491516]], [[0.4089723229408264]], [[1.0447824001312256]], [[-1.0725950002670288]], [[0.20700682699680328]], [[0.5237773060798645]], [[0.06767141073942184]], [[1.2282063961029053]], [[-0.46336689591407776]], [[-0.34517690539360046]], [[0.5383469462394714]], [[0.2759284973144531]], [[0.7589487433433533]], [[-1.6963692903518677]], [[-0.5802587270736694]], [[0.5633938908576965]], [[0.41104063391685486]], [[1.4497641324996948]], [[-1.9435336589813232]], [[0.22320635616779327]], [[0.6127376556396484]], [[0.8641328811645508]], [[0.36552658677101135]], [[-1.3140722513198853]], [[-0.8925724625587463]], [[-0.3644424080848694]], [[1.527312994003296]], [[0.5593768954277039]], [[-1.3359127044677734]], [[-0.24684230983257294]], [[0.941621720790863]], [[0.23301514983177185]], [[0.8413822650909424]], [[-0.14528553187847137]], [[-0.11845161020755768]], [[-0.22360605001449585]], [[0.15984252095222473]], [[0.9416955709457397]], [[-1.8365192413330078]], [[-0.7331346869468689]], [[0.9187467098236084]], [[1.3797118663787842]], [[0.18891239166259766]], [[-1.335784673690796]], [[0.20083525776863098]], [[0.728733479976654]], [[0.587657630443573]], [[0.4319731295108795]], [[-1.7466241121292114]], [[0.4013812839984894]], [[1.0563902854919434]], [[1.5754488706588745]], [[0.3788106143474579]], [[-1.1561371088027954]], [[-0.31637042760849]], [[0.6601603031158447]], [[0.3964141309261322]], [[0.8422252535820007]], [[-1.5078003406524658]], [[-0.06147397309541702]], [[-0.04927010461688042]], [[1.2666019201278687]], [[1.0256800651550293]], [[-2.22747802734375]], [[0.010485552251338959]], [[1.5348517894744873]], [[0.08045604825019836]], [[1.1067585945129395]], [[-1.1221426725387573]], [[-0.4090046286582947]], [[0.22218917310237885]], [[0.41033869981765747]], [[1.4088456630706787]], [[-1.461838960647583]], [[0.8677670359611511]], [[0.3054703176021576]], [[0.06606100499629974]], [[0.925093412399292]], [[-1.0642731189727783]], [[0.4609835147857666]], [[1.3835431337356567]], [[-0.1813516914844513]], [[0.5206899642944336]], [[-1.2591421604156494]], [[-0.3651169240474701]], [[0.7561075687408447]], [[0.3617168068885803]], [[1.0462318658828735]], [[-1.002593755722046]], [[0.5750264525413513]], [[0.5314774513244629]], [[-0.013670791871845722]], [[0.41763418912887573]], [[-0.6054758429527283]], [[-0.35697072744369507]], [[-0.22112233936786652]], [[0.4539491832256317]], [[0.8301748633384705]], [[-1.5015770196914673]], [[-0.7846406102180481]], [[0.685906171798706]], [[1.790261149406433]], [[0.5858321189880371]], [[-1.6478183269500732]], [[-0.23851710557937622]], [[0.9137113094329834]], [[0.2578792870044708]], [[1.6837483644485474]], [[-1.3380602598190308]], [[-0.5199347734451294]], [[0.36826780438423157]], [[0.5406436920166016]], [[0.9273715615272522]], [[-0.9945358037948608]], [[0.9237644672393799]], [[-0.06267182528972626]], [[0.7139342427253723]], [[0.7792101502418518]], [[-1.190925121307373]], [[-0.33588099479675293]], [[0.6900073289871216]], [[0.7759005427360535]], [[0.5085344314575195]], [[-0.954778790473938]], [[-0.09342890977859497]], [[0.2792149782180786]], [[1.0352039337158203]], [[0.32627418637275696]], [[-0.9050687551498413]], [[0.4635795056819916]], [[0.234594464302063]], [[0.4654369354248047]], [[0.23346886038780212]], [[-1.6855169534683228]], [[0.8604255318641663]], [[1.754831075668335]], [[0.8775455355644226]], [[1.391478419303894]], [[-1.307826280593872]], [[-0.052856601774692535]], [[0.7356405258178711]], [[0.7694149613380432]], [[0.5119644999504089]], [[-2.589538097381592]], [[-0.04656311497092247]], [[0.8616864681243896]], [[0.49296697974205017]], [[1.3262782096862793]], [[-0.5019100904464722]], [[0.05997129902243614]], [[-0.3775236904621124]], [[-0.05800758674740791]], [[1.1248669624328613]], [[-2.310798168182373]], [[0.1673896312713623]], [[0.44704312086105347]], [[0.8231118321418762]], [[0.8686503171920776]], [[-1.423353910446167]], [[-0.16424846649169922]], [[1.6021934747695923]], [[-0.17800164222717285]], [[0.8270936012268066]], [[-1.2446426153182983]], [[-0.36001676321029663]], [[0.25139203667640686]], [[0.6759913563728333]], [[1.2121206521987915]], [[-2.0501434803009033]], [[0.5532119274139404]], [[0.2658480405807495]], [[-0.004046850372105837]], [[1.4727708101272583]], [[-1.3964552879333496]], [[-0.8731861114501953]], [[0.4009494483470917]], [[1.0367320775985718]], [[1.0829023122787476]], [[-1.7598227262496948]], [[-0.22883808612823486]], [[0.6363529562950134]], [[1.1683038473129272]], [[0.608271062374115]], [[-1.3260831832885742]], [[-0.7635245323181152]], [[0.5106743574142456]], [[1.2295531034469604]], [[0.8726031184196472]], [[-1.8956124782562256]], [[0.30114829540252686]], [[0.4484078884124756]], [[0.8026579022407532]], [[0.8785821795463562]], [[-1.297706127166748]], [[-0.3708031177520752]], [[0.518588125705719]], [[0.5693480968475342]], [[0.9237292408943176]], [[-1.3873331546783447]], [[-0.755885899066925]], [[0.3170737326145172]], [[0.7384383082389832]], [[1.1675513982772827]], [[-1.4761637449264526]], [[-0.2356937676668167]], [[0.7756903767585754]], [[1.2637629508972168]], [[0.5029587745666504]], [[-1.423003077507019]], [[-0.13822828233242035]], [[0.5050749182701111]], [[0.6299532055854797]], [[0.9731425642967224]], [[-1.8946787118911743]], [[0.4706640839576721]], [[0.34934765100479126]], [[0.961536169052124]], [[0.4145214855670929]], [[-1.4750280380249023]], [[0.07760898768901825]], [[0.8217301964759827]], [[0.14354467391967773]], [[0.8770087361335754]], [[-0.8160338401794434]], [[-0.4047374725341797]], [[0.32661178708076477]], [[0.813165009021759]], [[0.5967411398887634]], [[-1.3502676486968994]], [[-0.5647336840629578]], [[1.2849971055984497]], [[1.1455575227737427]], [[0.30504998564720154]], [[-1.0341471433639526]], [[-0.19689960777759552]], [[0.8740983605384827]], [[-0.2704353928565979]], [[1.3959877490997314]], [[-2.1990530490875244]], [[0.05766288563609123]], [[0.6020225286483765]], [[0.857772707939148]], [[0.7212111353874207]], [[-1.3807718753814697]], [[-0.1997702568769455]], [[0.17228281497955322]], [[0.28654754161834717]], [[0.5473343133926392]]], "VALUE_OF_LIFE": 10000000, "INFERRED_WEIGHTAGE_ON_AGENT_HEALTH_INDEX": [0.546, 0.636, 0.526, 0.47400000000000003, 0.609, 0.615, 0.663, 0.5680000000000001, 0.656, 0.577, 0.645, 0.781, 0.624, 0.587, 0.62, 0.5740000000000001, 0.558, 0.635, 0.599, 0.629, 0.686, 0.606, 0.863, 0.738, 0.532, 0.674, 0.492, 0.5710000000000001, 0.656, 0.667, 0.588, 0.504, 0.587, 0.712, 0.62, 0.542, 0.5690000000000001, 0.729, 0.605, 0.5730000000000001, 0.489, 0.444, 0.5, 0.587, 0.666, 0.9570000000000001, 0.705, 0.642, 0.5, 0.638, 0.78], "INFERRED_WEIGHTAGE_ON_PLANNER_HEALTH_INDEX": 0.601, "MAX_MARGINAL_AGENT_ECONOMIC_INDEX": [1.3335199356079102, 1.480212926864624, 1.4188170433044434, 1.7284595966339111, 1.364757776260376, 1.5367774963378906, 1.565624713897705, 1.562147855758667, 1.792067289352417, 1.4265882968902588, 1.4312515258789062, 1.238430380821228, 1.6326483488082886, 1.3431452512741089, 1.3161922693252563, 1.4146966934204102, 1.5128201246261597, 1.566078782081604, 1.5194320678710938, 2.2313551902770996, 1.7019519805908203, 1.2711577415466309, 1.2479900121688843, 1.680408000946045, 1.4804985523223877, 1.4980825185775757, 1.6494468450546265, 2.0315163135528564, 1.143384575843811, 1.4216560125350952, 1.3142683506011963, 1.8755675554275513, 1.3608677387237549, 1.4725075960159302, 1.3198893070220947, 1.4187506437301636, 1.3717519044876099, 1.3878275156021118, 1.328514814376831, 1.40562105178833, 1.3613474369049072, 1.3752435445785522, 1.4356722831726074, 1.5006452798843384, 1.4871160984039307, 1.6906136274337769, 1.5780491828918457, 1.4223648309707642, 1.4539728164672852, 1.3526625633239746, 2.161930561065674], "MAX_MARGINAL_PLANNER_ECONOMIC_INDEX": 1.3353004455566406, "MAX_MARGINAL_AGENT_HEALTH_INDEX": [1.018333077430725, 1.077370524406433, 1.0091294050216675, 1.030806541442871, 1.009384036064148, 1.012405276298523, 1.030308723449707, 1.0121010541915894, 1.0186657905578613, 1.0312256813049316, 1.0144668817520142, 1.0091661214828491, 1.010786533355713, 1.0129965543746948, 1.0135526657104492, 1.0091227293014526, 1.0097416639328003, 1.0112910270690918, 1.0313222408294678, 1.009522795677185, 1.0108532905578613, 1.0234533548355103, 1.020938754081726, 1.0074892044067383, 1.0117073059082031, 1.0085270404815674, 1.026659369468689, 1.007744550704956, 1.0109400749206543, 1.0086150169372559, 1.0509963035583496, 1.0113399028778076, 1.1139812469482422, 1.0076225996017456, 1.0075368881225586, 1.00934898853302, 1.0094051361083984, 1.0090227127075195, 1.010541319847107, 1.0214812755584717, 1.0176156759262085, 1.0506720542907715, 1.0920166969299316, 1.0111538171768188, 1.0093464851379395, 1.0123062133789062, 1.0096462965011597, 1.0269320011138916, 1.0065009593963623, 1.0120354890823364, 1.0069446563720703], "MAX_MARGINAL_PLANNER_HEALTH_INDEX": 1.0213710069656372, "MIN_MARGINAL_AGENT_ECONOMIC_INDEX": [-2.8761894702911377, -4.144593715667725, -3.5864925384521484, -6.590273857116699, -2.983523368835449, -4.511784076690674, -4.6020073890686035, -4.66849946975708, -6.914056777954102, -3.703261137008667, -3.6651480197906494, -1.9079780578613281, -5.585042476654053, -2.7068965435028076, -2.502408742904663, -3.5865747928619385, -4.434049606323242, -4.99658727645874, -4.33821964263916, -10.98481273651123, -6.250762939453125, -2.0227320194244385, -1.839385747909546, -5.912837028503418, -4.071103096008301, -4.27296781539917, -5.817880153656006, -9.318105697631836, -0.9314318895339966, -3.5642614364624023, -2.370482921600342, -7.550698757171631, -2.83788800239563, -3.971247911453247, -2.6760599613189697, -3.4268364906311035, -3.136683464050293, -3.260375738143921, -2.6738836765289307, -3.3543498516082764, -3.0971426963806152, -3.227144956588745, -3.744814395904541, -4.318019866943359, -4.255204677581787, -5.994088649749756, -5.1226115226745605, -3.514594316482544, -3.927208185195923, -2.951510190963745, -10.796002388000488], "MIN_MARGINAL_PLANNER_ECONOMIC_INDEX": -3.662031888961792, "MIN_MARGINAL_AGENT_HEALTH_INDEX": [0.651483952999115, 0.34737905859947205, 0.7213869690895081, 0.565831184387207, 0.7235912084579468, 0.7269905209541321, 0.7453126907348633, 0.7268337607383728, 0.7340402007102966, 0.5962541699409485, 0.7232022881507874, 0.7148703932762146, 0.7153133749961853, 0.7278031706809998, 0.727839469909668, 0.7100761532783508, 0.7225736379623413, 0.7205841541290283, 0.7463312745094299, 0.7238526940345764, 0.7252810001373291, 0.7385312914848328, 0.7361993193626404, 0.7220080494880676, 0.7240527272224426, 0.7427630424499512, 0.5878027677536011, 0.7191111445426941, 0.7249952554702759, 0.7211514711380005, 0.7662221789360046, 0.726105809211731, 0.8292167782783508, 0.7220212817192078, 0.7193950414657593, 0.7240822911262512, 0.7212277054786682, 0.7195256948471069, 0.7251743078231812, 0.7368206977844238, 0.6634830832481384, 0.3279055058956146, 0.4475683867931366, 0.7113379240036011, 0.6918309330940247, 0.7230546474456787, 0.717792809009552, 0.7228689193725586, 0.720837414264679, 0.7162153124809265, 0.710088312625885], "MIN_MARGINAL_PLANNER_HEALTH_INDEX": 0.7260177731513977}