{"settings": {"LAST_DATE_IN_TRAIN_SET": "2020-11-30", "LAST_DATE_IN_VAL_SET": "2022-12-31", "FILTER_SIZE_UNEMPLOYMENT": 600, "SIMILARITY_REGULARIZATION_UNEMPLOYMENT": 0.5, "SIMILARITY_REGULARIZATION_SIR": 1.0, "env": {"economic_reward_crra_eta": 2, "start_date": "2020-03-22", "infection_too_sick_to_work_rate": 0.1, "pop_between_age_18_65": 0.6, "risk_free_interest_rate": 0.03}}, "BETA_DELAY": 19, "BETA_SLOPES": [-0.002083149146316841, -0.01371560729632028, -0.011424436209217176, -0.00021417674846646492, -0.006933490155728566, -0.016302651313909445, -0.021976940880546216, -0.015027611667733825, -0.02049632436729215, -0.0012684443956520169, -0.01048973104445181, -0.017194032124246396, -0.012501268771611864, -0.01143836972759926, -0.013060538603737563, -0.0067212150885846535, -0.01688288807282084, -0.00732788326384196, -0.01555251108305955, -0.018558939137308463, -0.010197800016497182, -0.026008323704885424, -0.01839844459165451, -0.00901908210276596, -0.009912989484092105, -0.012184418132402267, -0.010865738701655978, -0.00824883961890689, -0.015658776412508412, -0.007343924746645179, -0.025687336392182365, -0.018997538481654343, -0.02173458408903677, -0.009723754643385055, -0.01522632535061064, -0.014219802862404556, -0.009837136107620213, -0.013702791710576777, -0.01233515106776793, -0.017495098568829186, -0.0038581898438220952, 0.0, -0.005059806903521021, -0.008279652819068657, -0.00976148524190814, -0.013599986086457131, -0.006700989222300901, -0.00854383474889656, -0.01016606020999418, -0.007783745678307378, -0.00854767718434908], "BETA_INTERCEPTS": [0.0909339937130691, 0.15934908172512985, 0.14090346558341932, 0.0874313754405788, 0.12764208829535384, 0.16684521264029478, 0.2224932557519612, 0.17695271150734787, 0.21019375363558337, 0.08716936932597127, 0.1336906559126855, 0.20973853610439594, 0.15080833147783596, 0.14648534415297923, 0.14984655491595586, 0.110537697420092, 0.17482465641796435, 0.12619046011972584, 0.1647262699056331, 0.21555096854713704, 0.14377434718511678, 0.24829878480348588, 0.1892414331867255, 0.13387981001991417, 0.13184909826792304, 0.14018526342268908, 0.14661205866940122, 0.12405630739766456, 0.1708853272245163, 0.12083263910858046, 0.22682830516334695, 0.22726318123971645, 0.22862860647497482, 0.14018468286560404, 0.15135048973036935, 0.1697137890161659, 0.12073008155368109, 0.15871040433133266, 0.15150244306880184, 0.20317395740311867, 0.10065229276353373, 0.09157731666281237, 0.11147735108794629, 0.1302431516220282, 0.1279698798877931, 0.1390724799874019, 0.11496817083316735, 0.12430599998655567, 0.14262011441012512, 0.11751381777354367, 0.13140679079992296], "POLICY_START_DATE": "2020-01-01", "FILTER_LEN": 600, "CONV_LAMBDAS": [27.566669464111328, 62.83538055419922, 129.28953552246094, 264.2809143066406, 541.8284912109375], "UNEMPLOYMENT_BIAS": [2.3535752296447754, 4.414400577545166, 3.73480486869812, 3.3274199962615967, 4.1367926597595215, 2.9667375087738037, 3.2045912742614746, 2.694780111312866, 4.450031280517578, 3.865722179412842, 2.546229362487793, 3.7842113971710205, 2.0720818042755127, 4.362576484680176, 3.342989921569824, 2.730816602706909, 2.257171869277954, 3.173090696334839, 4.288033485412598, 2.4443747997283936, 3.0951945781707764, 3.7976670265197754, 2.604012966156006, 3.4026079177856445, 4.497129917144775, 3.1272499561309814, 2.5348739624023438, 2.2775111198425293, 4.823653697967529, 2.2233378887176514, 3.1350200176239014, 4.34525728225708, 2.549412727355957, 2.71854567527771, 1.758577823638916, 3.4382081031799316, 3.298834800720215, 3.4769389629364014, 4.295591354370117, 4.013767719268799, 3.241192102432251, 2.0314741134643555, 3.770911455154419, 3.837977886199951, 1.6476974487304688, 2.5228166580200195, 2.5451605319976807, 2.878443956375122, 4.2432169914245605, 2.2110705375671387, 4.023809432983398], "GROUPED_CONVOLUTIONAL_FILTER_WEIGHTS": [[[-1.702449917793274]], [[-0.24624894559383392]], [[0.5858104228973389]], [[1.1494113206863403]], [[0.9229174852371216]], [[-1.4976869821548462]], [[-0.5184282660484314]], [[0.1900336742401123]], [[1.0461422204971313]], [[0.7061119675636292]], [[-0.9752269387245178]], [[-0.12963902950286865]], [[0.49213144183158875]], [[0.5269880294799805]], [[1.1207455396652222]], [[-0.6609269380569458]], [[0.14678186178207397]], [[-0.016148816794157028]], [[0.4140555262565613]], [[0.8986138701438904]], [[-1.9794665575027466]], [[-0.8147633075714111]], [[0.6021433472633362]], [[1.5621418952941895]], [[0.647770881652832]], [[-1.6621043682098389]], [[0.541458249092102]], [[0.29924747347831726]], [[-0.06530436128377914]], [[1.260638952255249]], [[-1.5325144529342651]], [[-1.161607027053833]], [[0.19211769104003906]], [[1.2233644723892212]], [[0.7945408821105957]], [[-1.1777437925338745]], [[-0.5250763893127441]], [[0.922363817691803]], [[0.5858022570610046]], [[0.7508021593093872]], [[-0.28812286257743835]], [[-0.16945110261440277]], [[-0.18419146537780762]], [[0.5248653292655945]], [[0.6810500025749207]], [[-1.6805803775787354]], [[-0.045774541795253754]], [[0.15363717079162598]], [[0.5387489795684814]], [[1.193084716796875]], [[-1.4990583658218384]], [[0.33627834916114807]], [[0.5689052939414978]], [[0.5037479400634766]], [[0.8345608115196228]], [[-1.7044792175292969]], [[0.5478659272193909]], [[1.4624534845352173]], [[0.17761541903018951]], [[1.2643685340881348]], [[-1.2014588117599487]], [[-0.4398576617240906]], [[0.9595104455947876]], [[0.45580121874809265]], [[0.650484025478363]], [[-1.2646498680114746]], [[-0.23357266187667847]], [[0.5951851606369019]], [[0.1913376748561859]], [[1.5304584503173828]], [[-2.173671007156372]], [[0.39207735657691956]], [[0.5327003598213196]], [[1.2859776020050049]], [[0.5092723965644836]], [[-1.3621147871017456]], [[-0.35533279180526733]], [[0.7114813923835754]], [[0.6165627837181091]], [[0.8021798133850098]], [[-1.4285393953323364]], [[0.206756129860878]], [[0.8785631656646729]], [[0.6125122904777527]], [[0.47670644521713257]], [[-0.7034381031990051]], [[0.3330984115600586]], [[1.1060668230056763]], [[0.25202709436416626]], [[0.27603310346603394]], [[-0.7165736556053162]], [[0.024122651666402817]], [[-0.22156868875026703]], [[0.31785571575164795]], [[1.4489825963974]], [[-1.2323477268218994]], [[0.7312506437301636]], [[0.23838338255882263]], [[0.9706729650497437]], [[-0.29710066318511963]], [[-0.2546299695968628]], [[-0.8685505986213684]], [[0.39011049270629883]], [[-0.2815815210342407]], [[1.2598037719726562]], [[-1.0418790578842163]], [[-1.094516396522522]], [[0.9097985029220581]], [[1.6013814210891724]], [[0.5902294516563416]], [[-2.401566982269287]], [[-0.7041336894035339]], [[1.5222434997558594]], [[1.08396577835083]], [[1.267237901687622]], [[-1.7293754816055298]], [[0.018468458205461502]], [[0.5165009498596191]], [[0.2244357466697693]], [[0.7946926951408386]], [[-0.6387037634849548]], [[-0.016447104513645172]], [[0.9202074408531189]], [[0.674666702747345]], [[0.4754320979118347]], [[-1.1451416015625]], [[-0.49096986651420593]], [[1.1398195028305054]], [[0.1268836259841919]], [[0.8882654905319214]], [[-0.8492246866226196]], [[-0.11500674486160278]], [[0.5768901109695435]], [[0.2352929562330246]], [[0.859870970249176]], [[-0.8447933197021484]], [[0.3077085018157959]], [[0.40259599685668945]], [[0.4456062316894531]], [[0.22509828209877014]], [[-0.7280485033988953]], [[0.19827553629875183]], [[1.6362636089324951]], [[1.0672855377197266]], [[1.3918204307556152]], [[-0.7732390761375427]], [[-0.1924780011177063]], [[0.17886142432689667]], [[0.384054958820343]], [[1.4330060482025146]], [[-2.26452898979187]], [[-0.5243844389915466]], [[0.6686056852340698]], [[1.213189721107483]], [[1.2339028120040894]], [[-0.1597474217414856]], [[-0.8068151473999023]], [[-0.006818763911724091]], [[0.8636164665222168]], [[0.38330134749412537]], [[-1.684119462966919]], [[-0.44049474596977234]], [[0.2900337278842926]], [[1.1331621408462524]], [[1.152481198310852]], [[-2.1529674530029297]], [[0.4778834879398346]], [[1.2481269836425781]], [[0.5733895897865295]], [[0.43207308650016785]], [[-0.9206015467643738]], [[-0.5891963839530945]], [[0.32291799783706665]], [[0.6911597847938538]], [[1.1299325227737427]], [[-1.512613296508789]], [[-0.24075043201446533]], [[0.7339611053466797]], [[0.2718832194805145]], [[1.2157204151153564]], [[-1.8221523761749268]], [[-0.19120268523693085]], [[0.16017749905586243]], [[1.3076187372207642]], [[0.7085424065589905]], [[-1.2292472124099731]], [[-0.07779909670352936]], [[0.30338191986083984]], [[0.6447898149490356]], [[0.9766161441802979]], [[-1.68790864944458]], [[-0.644672691822052]], [[1.2078607082366943]], [[0.7855908274650574]], [[0.7365013360977173]], [[-1.5878729820251465]], [[-0.21215981245040894]], [[1.1548489332199097]], [[0.61319500207901]], [[0.6910943984985352]], [[-1.3177553415298462]], [[-0.5979169011116028]], [[1.142359972000122]], [[0.4146156311035156]], [[0.6618993878364563]], [[-1.6723603010177612]], [[-0.6525094509124756]], [[0.5967592000961304]], [[0.8353630304336548]], [[0.9074060916900635]], [[-0.9624869227409363]], [[-0.44013893604278564]], [[1.196204423904419]], [[0.37243226170539856]], [[0.7947842478752136]], [[-1.2702794075012207]], [[-0.2112932652235031]], [[0.8997957110404968]], [[0.18199779093265533]], [[0.9571362137794495]], [[-1.3634560108184814]], [[-0.23694676160812378]], [[0.898991048336029]], [[0.6778737902641296]], [[0.5964260697364807]], [[-1.843536615371704]], [[0.24505189061164856]], [[0.7487137317657471]], [[1.140386700630188]], [[-0.02512703649699688]], [[-0.8759452700614929]], [[-0.25067010521888733]], [[0.21881385147571564]], [[0.21501176059246063]], [[1.3423837423324585]], [[-1.4417256116867065]], [[-0.6169223189353943]], [[1.5305711030960083]], [[0.8678406476974487]], [[0.6672052145004272]], [[-1.182236671447754]], [[-0.41764479875564575]], [[0.9726760387420654]], [[0.7109811305999756]], [[0.605187714099884]], [[-1.3759037256240845]], [[-0.8023768663406372]], [[0.4385170042514801]], [[1.0867294073104858]], [[1.129498839378357]], [[-1.37458336353302]], [[-0.3812353014945984]], [[0.39114442467689514]], [[0.5460251569747925]], [[0.2419993281364441]]], "VALUE_OF_LIFE": 10000000, "INFERRED_WEIGHTAGE_ON_AGENT_HEALTH_INDEX": [0.485, 0.752, 0.535, 0.449, 0.626, 0.647, 0.588, 0.528, 0.624, 0.497, 0.639, 0.6890000000000001, 0.555, 0.581, 0.535, 0.515, 0.537, 0.627, 0.5730000000000001, 0.494, 0.653, 0.47900000000000004, 0.546, 0.685, 0.534, 0.645, 0.468, 0.551, 0.541, 0.655, 0.529, 0.498, 0.613, 0.743, 0.486, 0.514, 0.647, 0.736, 0.582, 0.539, 0.534, 0.5640000000000001, 0.556, 0.5760000000000001, 0.629, 0.966, 0.6980000000000001, 0.705, 0.617, 0.601, 0.8160000000000001], "INFERRED_WEIGHTAGE_ON_PLANNER_HEALTH_INDEX": 0.579, "MAX_MARGINAL_AGENT_ECONOMIC_INDEX": [0.002637904603034258, 0.0026008535642176867, 0.0026076948270201683, 0.002642054809257388, 0.0026089733000844717, 0.002598596503958106, 0.002589752897620201, 0.0025985012762248516, 0.0025910004042088985, 0.0026404664386063814, 0.0026085979770869017, 0.0025951999705284834, 0.0026037031784653664, 0.002603569533675909, 0.002603664994239807, 0.0026214311365038157, 0.0025991094298660755, 0.002613502088934183, 0.002597761107608676, 0.002593346405774355, 0.0026042757090181112, 0.002588937757536769, 0.0025967732071876526, 0.0026083849370479584, 0.002608144422993064, 0.0026081050746142864, 0.0026055702473968267, 0.0026147954631596804, 0.002599733881652355, 0.0026161500718444586, 0.0025909440591931343, 0.0025895899161696434, 0.002591078169643879, 0.0026069756131619215, 0.0026066156569868326, 0.002599578583613038, 0.002615884877741337, 0.002601433312520385, 0.0026023343671113253, 0.0025931764394044876, 0.002628296846523881, 0.00263794488273561, 0.002618968952447176, 0.0026091639883816242, 0.0026139309629797935, 0.002608450362458825, 0.0026177370455116034, 0.002612093463540077, 0.00260598910972476, 0.0026173859369009733, 0.0026108454912900925], "MAX_MARGINAL_PLANNER_ECONOMIC_INDEX": 0.002494111191481352, "MAX_MARGINAL_AGENT_HEALTH_INDEX": [-2.1512465536943637e-05, -2.8464569368225057e-06, -3.762887217817479e-06, -0.0002771482977550477, -7.867239219194744e-06, -3.138002648483962e-05, -3.911492967745289e-05, -1.0937336810457055e-05, -2.0703082554973662e-05, -4.896955215372145e-05, -9.930759915732779e-06, -2.974977633130038e-06, -4.332327989686746e-06, -1.3310090253071394e-05, -1.359591624350287e-05, -2.7277428671368398e-06, -4.054746568726841e-06, -7.204491794254864e-06, -4.301004810258746e-05, -6.608850526390597e-06, -8.708898349141236e-06, -3.632427615229972e-05, -3.067409488721751e-05, -3.0939872885937802e-06, -8.096921192191076e-06, -3.968196779169375e-06, -2.5511726562399417e-06, -2.046856707238476e-06, -8.486758815706708e-06, -4.157813236815855e-06, -7.6149488450028e-05, -7.517491212638561e-06, -0.0001688995980657637, -2.559390850365162e-06, -1.5970281310728751e-06, -6.657028279732913e-06, -4.212203748465981e-06, -3.1107774702832103e-06, -9.134058927884325e-06, -2.893415148719214e-05, -8.266057193395682e-06, -0.00063498062081635, -7.43753616916365e-06, -4.40660051026498e-06, -1.047763362294063e-06, -8.09312223282177e-06, -4.279575477994513e-06, -1.9562336092349142e-05, -1.1965239536948502e-06, -6.9778911893081386e-06, -2.2871941496305226e-07], "MAX_MARGINAL_PLANNER_HEALTH_INDEX": -2.8512769858934917e-05, "MIN_MARGINAL_AGENT_ECONOMIC_INDEX": [0.0006826246390119195, 0.0008203971083275974, 0.0007348014623858035, 0.0008504856959916651, 0.0007092591258697212, 0.0008142165606841445, 0.0007946122204884887, 0.0008229161030612886, 0.0009189482661895454, 0.0007540287915617228, 0.0008081768755801022, 0.0006119022145867348, 0.0008660823805257678, 0.0006653902237303555, 0.0007626270526088774, 0.0008141806465573609, 0.000865439884364605, 0.0009434160310775042, 0.0007319625583477318, 0.0010329597862437367, 0.0008870762540027499, 0.0006718606455251575, 0.0005014199414290488, 0.0008993378141894937, 0.0008270534453913569, 0.0008432422182522714, 0.0008643274777568877, 0.000993794878013432, 0.00019462585623841733, 0.0007133812760002911, 0.000573871424421668, 0.0009499888401478529, 0.0006557749002240598, 0.0008444811101071537, 0.0007565406267531216, 0.0007547276327386498, 0.0007654872606508434, 0.0007784216431900859, 0.000758648500777781, 0.0007908115512691438, 0.0008605128969065845, 0.0007619996322318912, 0.0008001414826139808, 0.0008161887526512146, 0.0008436538628302515, 0.0009283800609409809, 0.0007705577299930155, 0.0007231102790683508, 0.0008158083073794842, 0.0006804007571190596, 0.0010065678507089615], "MIN_MARGINAL_PLANNER_ECONOMIC_INDEX": 0.0005193706601858139, "MIN_MARGINAL_AGENT_HEALTH_INDEX": [-0.0006607018294744194, -0.0024945156183093786, -0.002248945878818631, -0.0003989191318396479, -0.002105879131704569, -0.0024771951138973236, -0.002795404987409711, -0.002566552022472024, -0.0028161974623799324, -0.00046092242700979114, -0.002095869043841958, -0.00279666087590158, -0.002307519782334566, -0.0023586091119796038, -0.0023383174557238817, -0.0015707614365965128, -0.002516088541597128, -0.002032633638009429, -0.0025211649481207132, -0.002748273080214858, -0.00228503136895597, -0.002892873715609312, -0.002621427644044161, -0.0021567274816334248, -0.002146323909983039, -0.002200777642428875, -0.0022924807853996754, -0.0019277202663943172, -0.002610040595754981, -0.0018750405870378017, -0.002788987709209323, -0.0028838308062404394, -0.002767555881291628, -0.002223426243290305, -0.0022665979340672493, -0.0025475919246673584, -0.0018471269868314266, -0.0024456691462546587, -0.0024114777334034443, -0.0027749629225581884, -0.0012453587260097265, -0.0006349762552417815, -0.0017133881337940693, -0.002119604032486677, -0.001956828637048602, -0.002133704023435712, -0.0017395535251125693, -0.001956178341060877, -0.0023152190260589123, -0.0017829862190410495, -0.002121601952239871], "MIN_MARGINAL_PLANNER_HEALTH_INDEX": -0.0021029235795140266}