{"settings": {"LAST_DATE_IN_TRAIN_SET": "2020-11-30", "LAST_DATE_IN_VAL_SET": "2022-12-31", "FILTER_SIZE_UNEMPLOYMENT": 600, "SIMILARITY_REGULARIZATION_UNEMPLOYMENT": 0.5, "SIMILARITY_REGULARIZATION_SIR": 1.0, "env": {"economic_reward_crra_eta": 2, "start_date": "2020-03-22", "infection_too_sick_to_work_rate": 0.1, "pop_between_age_18_65": 0.6, "risk_free_interest_rate": 0.03}}, "BETA_DELAY": 19, "BETA_SLOPES": [-0.002083149146316841, -0.01371560729632028, -0.011424436209217176, -0.00021417674846646492, -0.006933490155728566, -0.016302651313909445, -0.021976940880546216, -0.015027611667733825, -0.02049632436729215, -0.0012684443956520169, -0.01048973104445181, -0.017194032124246396, -0.012501268771611864, -0.01143836972759926, -0.013060538603737563, -0.0067212150885846535, -0.01688288807282084, -0.00732788326384196, -0.01555251108305955, -0.018558939137308463, -0.010197800016497182, -0.026008323704885424, -0.01839844459165451, -0.00901908210276596, -0.009912989484092105, -0.012184418132402267, -0.010865738701655978, -0.00824883961890689, -0.015658776412508412, -0.007343924746645179, -0.025687336392182365, -0.018997538481654343, -0.02173458408903677, -0.009723754643385055, -0.01522632535061064, -0.014219802862404556, -0.009837136107620213, -0.013702791710576777, -0.01233515106776793, -0.017495098568829186, -0.0038581898438220952, 0.0, -0.005059806903521021, -0.008279652819068657, -0.00976148524190814, -0.013599986086457131, -0.006700989222300901, -0.00854383474889656, -0.01016606020999418, -0.007783745678307378, -0.00854767718434908], "BETA_INTERCEPTS": [0.0909339937130691, 0.15934908172512985, 0.14090346558341932, 0.0874313754405788, 0.12764208829535384, 0.16684521264029478, 0.2224932557519612, 0.17695271150734787, 0.21019375363558337, 0.08716936932597127, 0.1336906559126855, 0.20973853610439594, 0.15080833147783596, 0.14648534415297923, 0.14984655491595586, 0.110537697420092, 0.17482465641796435, 0.12619046011972584, 0.1647262699056331, 0.21555096854713704, 0.14377434718511678, 0.24829878480348588, 0.1892414331867255, 0.13387981001991417, 0.13184909826792304, 0.14018526342268908, 0.14661205866940122, 0.12405630739766456, 0.1708853272245163, 0.12083263910858046, 0.22682830516334695, 0.22726318123971645, 0.22862860647497482, 0.14018468286560404, 0.15135048973036935, 0.1697137890161659, 0.12073008155368109, 0.15871040433133266, 0.15150244306880184, 0.20317395740311867, 0.10065229276353373, 0.09157731666281237, 0.11147735108794629, 0.1302431516220282, 0.1279698798877931, 0.1390724799874019, 0.11496817083316735, 0.12430599998655567, 0.14262011441012512, 0.11751381777354367, 0.13140679079992296], "POLICY_START_DATE": "2020-01-01", "FILTER_LEN": 600, "CONV_LAMBDAS": [26.877300262451172, 63.129276275634766, 129.2706756591797, 264.1410217285156, 541.6488037109375], "UNEMPLOYMENT_BIAS": [2.8202450275421143, 4.284249782562256, 3.819337844848633, 3.791715383529663, 4.2916646003723145, 2.301427125930786, 2.8532581329345703, 3.6414918899536133, 4.71494197845459, 4.103985786437988, 2.7076528072357178, 3.5127315521240234, 2.3409109115600586, 4.518054008483887, 3.0951199531555176, 2.877948045730591, 2.164018154144287, 2.9078292846679688, 4.268570899963379, 2.6699883937835693, 3.0196144580841064, 2.812019109725952, 3.2224326133728027, 2.704848051071167, 4.666995525360107, 3.2883059978485107, 2.3379979133605957, 2.3141658306121826, 4.793907165527344, 2.532566785812378, 4.03495979309082, 4.429134368896484, 4.000182151794434, 2.8301491737365723, 1.5627235174179077, 2.9893932342529297, 2.843576431274414, 3.5428569316864014, 4.038893222808838, 3.695061683654785, 2.8164479732513428, 2.007673978805542, 3.5884079933166504, 3.3306710720062256, 1.7565571069717407, 2.5545296669006348, 3.6764731407165527, 3.526977300643921, 3.978266954421997, 2.5124053955078125, 3.861875057220459], "GROUPED_CONVOLUTIONAL_FILTER_WEIGHTS": [[[-1.643049716949463]], [[-0.37358686327934265]], [[1.2989996671676636]], [[0.2948409914970398]], [[1.0808552503585815]], [[-1.1741570234298706]], [[-1.045393705368042]], [[0.24988803267478943]], [[1.4665477275848389]], [[0.4861142337322235]], [[-1.0659815073013306]], [[0.04793240875005722]], [[0.384746253490448]], [[0.5201667547225952]], [[1.1129493713378906]], [[-0.8732688426971436]], [[0.05685191974043846]], [[0.3797905445098877]], [[0.6959765553474426]], [[0.34261584281921387]], [[-2.152580499649048]], [[0.12366991490125656]], [[0.38297078013420105]], [[0.07743246108293533]], [[1.6578856706619263]], [[-1.5226998329162598]], [[-0.03600165247917175]], [[0.3750365078449249]], [[0.7102024555206299]], [[0.9043663740158081]], [[-0.9470028281211853]], [[-1.3680905103683472]], [[-0.11701855063438416]], [[1.1252861022949219]], [[1.1094986200332642]], [[-1.4918310642242432]], [[0.375213086605072]], [[0.2696366608142853]], [[0.6156652569770813]], [[0.6501718759536743]], [[-0.18241864442825317]], [[-0.15530423820018768]], [[-0.08422193676233292]], [[0.11624250560998917]], [[0.8828456997871399]], [[-2.041348934173584]], [[-0.1157415509223938]], [[0.5055149793624878]], [[0.9997267127037048]], [[0.6068359017372131]], [[-1.5979763269424438]], [[0.3687395751476288]], [[0.6491611003875732]], [[0.5685335993766785]], [[0.6856551170349121]], [[-0.8735894560813904]], [[0.28221365809440613]], [[0.5309723019599915]], [[0.4058016836643219]], [[1.6289796829223633]], [[-1.431649088859558]], [[0.16326946020126343]], [[0.31788209080696106]], [[0.9326050281524658]], [[0.38346827030181885]], [[-1.2127324342727661]], [[-0.24861758947372437]], [[0.029830733314156532]], [[1.5149295330047607]], [[0.7217549681663513]], [[-1.8369325399398804]], [[0.2608758211135864]], [[0.6370159387588501]], [[0.7454706430435181]], [[0.9340968132019043]], [[-1.3671051263809204]], [[-0.3433922529220581]], [[0.6504875421524048]], [[0.871894896030426]], [[0.5636102557182312]], [[-0.9744724035263062]], [[-0.24657022953033447]], [[0.9062201976776123]], [[0.7495996356010437]], [[0.4533781111240387]], [[-0.7919588685035706]], [[0.38340675830841064]], [[0.909313976764679]], [[0.4516577124595642]], [[0.2811362147331238]], [[-0.9843451380729675]], [[-0.06283719092607498]], [[-0.3142813742160797]], [[1.3457759618759155]], [[0.7257919907569885]], [[-1.1972541809082031]], [[0.3854861855506897]], [[1.0628451108932495]], [[0.10800638794898987]], [[-0.003964835312217474]], [[-0.5019679665565491]], [[-0.43127843737602234]], [[-0.04288856312632561]], [[-0.09425734728574753]], [[1.2613688707351685]], [[-2.4278171062469482]], [[0.3360423147678375]], [[0.6942876577377319]], [[0.46718332171440125]], [[1.606236457824707]], [[-2.157505989074707]], [[-0.3757745921611786]], [[0.6548418402671814]], [[1.7032792568206787]], [[0.9596003293991089]], [[-1.4994622468948364]], [[-0.30613404512405396]], [[0.2667948305606842]], [[0.690109133720398]], [[0.7961044907569885]], [[-0.9780540466308594]], [[0.3849652409553528]], [[0.831037163734436]], [[0.6721704006195068]], [[0.38688966631889343]], [[-1.3559094667434692]], [[0.246121346950531]], [[0.29332324862480164]], [[0.393954873085022]], [[0.8949809074401855]], [[-1.148362636566162]], [[-0.11035473644733429]], [[0.7057201862335205]], [[0.3711020052433014]], [[0.7670354843139648]], [[-0.9023292660713196]], [[0.2982054650783539]], [[0.5104168057441711]], [[0.4169374108314514]], [[0.17908194661140442]], [[-0.692328929901123]], [[0.12092874199151993]], [[1.983951210975647]], [[0.6071521043777466]], [[1.5902338027954102]], [[-0.9481725692749023]], [[-0.4568620026111603]], [[0.6135863661766052]], [[0.8469139337539673]], [[0.8233464956283569]], [[-2.5520706176757812]], [[-0.3934495747089386]], [[1.1351817846298218]], [[0.6550547480583191]], [[1.1956578493118286]], [[-0.8056465983390808]], [[0.10938876122236252]], [[-0.3374728560447693]], [[0.4621295928955078]], [[0.6759965419769287]], [[-1.9454118013381958]], [[-0.5804959535598755]], [[0.6750563383102417]], [[1.6518163681030273]], [[0.29202815890312195]], [[-1.1250625848770142]], [[-0.020404089242219925]], [[0.46958184242248535]], [[1.0954067707061768]], [[0.4369722604751587]], [[-1.2389984130859375]], [[-0.3566204011440277]], [[0.14487221837043762]], [[0.9094559550285339]], [[1.095450520515442]], [[-2.014979124069214]], [[-0.2952103018760681]], [[0.8399144411087036]], [[0.9182766675949097]], [[0.8158374428749084]], [[-1.829512357711792]], [[0.07526810467243195]], [[-0.2601262927055359]], [[0.8158321976661682]], [[1.4249621629714966]], [[-1.7261090278625488]], [[0.32996952533721924]], [[0.3434683680534363]], [[0.6537750959396362]], [[0.856049656867981]], [[-1.6966214179992676]], [[-0.22558200359344482]], [[0.3842776417732239]], [[1.094582438468933]], [[0.8821979761123657]], [[-2.1198740005493164]], [[0.24473676085472107]], [[0.8298816084861755]], [[0.973648726940155]], [[0.567363440990448]], [[-1.3839439153671265]], [[-0.1378195881843567]], [[0.0713723674416542]], [[1.1821672916412354]], [[0.6291576623916626]], [[-1.6484551429748535]], [[-0.544231653213501]], [[0.3342588543891907]], [[0.9400189518928528]], [[0.9395924210548401]], [[-1.6596108675003052]], [[0.04287796840071678]], [[1.285215139389038]], [[0.1695409119129181]], [[0.8910719156265259]], [[-1.4935293197631836]], [[0.28355172276496887]], [[-0.13310226798057556]], [[1.2092273235321045]], [[0.6978361010551453]], [[-1.9071873426437378]], [[0.17050598561763763]], [[0.8769586682319641]], [[0.70521080493927]], [[0.4882809519767761]], [[-1.9781582355499268]], [[0.32887423038482666]], [[1.1923496723175049]], [[0.22027701139450073]], [[0.4504331946372986]], [[-1.0720664262771606]], [[-0.15205365419387817]], [[0.34208545088768005]], [[0.8440935015678406]], [[0.4534224569797516]], [[-1.5592037439346313]], [[-0.17228388786315918]], [[1.126448154449463]], [[0.48720717430114746]], [[0.9191167950630188]], [[-0.9497440457344055]], [[-0.2604580819606781]], [[0.2649453282356262]], [[1.0009554624557495]], [[0.7582526206970215]], [[-1.928180456161499]], [[-0.6729636788368225]], [[1.1931511163711548]], [[0.5887393355369568]], [[1.0401278734207153]], [[-1.2373827695846558]], [[-0.4120791256427765]], [[0.2694498598575592]], [[0.44419240951538086]], [[0.43401995301246643]]], "VALUE_OF_LIFE": 10000000, "INFERRED_WEIGHTAGE_ON_AGENT_HEALTH_INDEX": [0.488, 0.754, 0.538, 0.451, 0.624, 0.65, 0.589, 0.528, 0.625, 0.498, 0.641, 0.687, 0.557, 0.581, 0.536, 0.52, 0.54, 0.628, 0.5730000000000001, 0.496, 0.654, 0.47700000000000004, 0.546, 0.687, 0.537, 0.648, 0.47000000000000003, 0.553, 0.542, 0.657, 0.529, 0.499, 0.609, 0.743, 0.49, 0.516, 0.649, 0.737, 0.582, 0.538, 0.535, 0.5660000000000001, 0.558, 0.578, 0.633, 0.965, 0.7000000000000001, 0.7030000000000001, 0.618, 0.603, 0.8180000000000001], "INFERRED_WEIGHTAGE_ON_PLANNER_HEALTH_INDEX": 0.579, "MAX_MARGINAL_AGENT_ECONOMIC_INDEX": [0.00264967349357903, 0.002613019198179245, 0.00261961598880589, 0.0026537247467786074, 0.0026209321804344654, 0.0026112112682312727, 0.0026026079431176186, 0.0026094531640410423, 0.002602724125608802, 0.0026520269457250834, 0.002620422514155507, 0.0026075616478919983, 0.0026154674123972654, 0.0026154806837439537, 0.002616137033328414, 0.002633241470903158, 0.0026112792547792196, 0.0026257019490003586, 0.0026097088120877743, 0.002605099231004715, 0.002616223180666566, 0.0026015527546405792, 0.0026083537377417088, 0.0026210530195385218, 0.0026199412532150745, 0.002619887236505747, 0.0026175628881901503, 0.0026266826316714287, 0.0026117649395018816, 0.0026278106961399317, 0.0026016479823738337, 0.002601331565529108, 0.002600939478725195, 0.0026192006189376116, 0.0026186848990619183, 0.0026115570217370987, 0.0026280726306140423, 0.0026132327038794756, 0.002614583820104599, 0.0026053243782371283, 0.0026404063683003187, 0.0026497787330299616, 0.0026307690422981977, 0.002621478633955121, 0.0026255203410983086, 0.0026203342713415623, 0.002628935733810067, 0.0026233470998704433, 0.002618236467242241, 0.0026288419030606747, 0.0026230080984532833], "MAX_MARGINAL_PLANNER_ECONOMIC_INDEX": 0.002518849680200219, "MAX_MARGINAL_AGENT_HEALTH_INDEX": [-2.164939905924257e-05, -2.8343847588985227e-06, -3.761532070711837e-06, -0.0002789408608805388, -7.87454246164998e-06, -3.095545980613679e-05, -3.8798396417405456e-05, -1.1102426469733473e-05, -2.076442979159765e-05, -4.908841219730675e-05, -9.940351446857676e-06, -2.9549307782872347e-06, -4.3445829760457855e-06, -1.3322754966793582e-05, -1.3510507415048778e-05, -2.72971033155045e-06, -4.040524345327867e-06, -7.157122126955073e-06, -4.291400182410143e-05, -6.622694399993634e-06, -8.680836799612734e-06, -3.562340498319827e-05, -3.0954011890571564e-05, -3.050098712265026e-06, -8.106815585051663e-06, -3.972118975070771e-06, -2.5375741188327083e-06, -2.0443192170205293e-06, -8.466179679089691e-06, -4.1725984374352265e-06, -7.724381430307403e-05, -7.514821390941506e-06, -0.00017300396575592458, -2.5596241357561667e-06, -1.58861757881823e-06, -6.5915587583731394e-06, -4.170378360868199e-06, -3.108595592493657e-06, -9.074530680663884e-06, -2.8714213840430602e-05, -8.18849184724968e-06, -0.0006335232174023986, -7.39923143555643e-06, -4.3584532249951735e-06, -1.0477712066858658e-06, -8.082416570687201e-06, -4.35839501733426e-06, -1.975257691810839e-05, -1.1885535968758631e-06, -7.001722224231344e-06, -2.2762239382245752e-07], "MAX_MARGINAL_PLANNER_HEALTH_INDEX": -2.8512769858934917e-05, "MIN_MARGINAL_AGENT_ECONOMIC_INDEX": [-2.3851074729464017e-05, 6.503010081360117e-05, -1.5134826753637753e-05, 0.00017245751223526895, -8.836944471113384e-05, 3.474852201179601e-05, -7.155100774980383e-06, 0.00011970596824539825, 0.00017313174612354487, 5.762422370025888e-05, 7.836526492610574e-05, -0.00021454799571074545, 0.0001424072979716584, -4.922498555970378e-05, -2.4453560399706475e-05, 8.837752102408558e-05, 0.00010891153942793608, 0.00018278438074048609, 1.0495972674107179e-05, 0.00030140060698613524, 0.00012438560952432454, -0.00020353107538539916, -0.00021787703735753894, 9.978123125620186e-05, 0.00010080280480906367, 9.196194150717929e-05, 0.00010761800513137132, 0.0002587690541986376, -0.0005806629196740687, 1.932616942212917e-05, -0.00011533116776263341, 0.00019406572391744703, 2.404490442131646e-05, 8.00323614384979e-05, -2.057757774309721e-05, -5.26980420545442e-06, -8.65061956574209e-05, 4.233155050314963e-05, -3.7021756725152954e-05, 2.7305795811116695e-05, 6.205016688909382e-05, -7.018774340394884e-06, 3.862335506710224e-05, 2.8008562367176637e-05, 0.00011176492262165993, 0.0001745915797073394, 0.0001398483000230044, -1.0336614650441334e-05, 2.2268428438110277e-05, -2.825956471497193e-05, 0.0002402531827101484], "MIN_MARGINAL_PLANNER_ECONOMIC_INDEX": -0.0002773493470158428, "MIN_MARGINAL_AGENT_HEALTH_INDEX": [-0.0006649071583524346, -0.0024839327670633793, -0.0022481358610093594, -0.00040149904089048505, -0.00210783863440156, -0.0024436782114207745, -0.002772783162072301, -0.00260528945364058, -0.0028245397843420506, -0.00046204112004488707, -0.0020978928077965975, -0.002777818590402603, -0.002314050681889057, -0.0023608526680618525, -0.002323628170415759, -0.0015718941576778889, -0.0025072635617107153, -0.002019269857555628, -0.0025155330076813698, -0.00275403237901628, -0.0022776692640036345, -0.0028370602522045374, -0.0026453500613570213, -0.0021261346992105246, -0.002148946514353156, -0.002202955074608326, -0.0022802622988820076, -0.0019253342179581523, -0.0026037113275378942, -0.0018817067611962557, -0.0028290688060224056, -0.0028828061185777187, -0.0028348073828965425, -0.0022236285731196404, -0.002254662336781621, -0.0025225344579666853, -0.0018287879647687078, -0.0024439548142254353, -0.0023957639932632446, -0.0027538705617189407, -0.001233670744113624, -0.0006335188518278301, -0.0017045647837221622, -0.002096443669870496, -0.0019568423740565777, -0.0021308811847120523, -0.0017715924186632037, -0.0019751989748328924, -0.0022997960913926363, -0.0017890739254653454, -0.0021114300470799208], "MIN_MARGINAL_PLANNER_HEALTH_INDEX": -0.0021029235795140266}