{"settings": {"LAST_DATE_IN_TRAIN_SET": "2020-11-30", "LAST_DATE_IN_VAL_SET": "2022-12-31", "FILTER_SIZE_UNEMPLOYMENT": 600, "SIMILARITY_REGULARIZATION_UNEMPLOYMENT": 0.5, "SIMILARITY_REGULARIZATION_SIR": 1.0, "env": {"economic_reward_crra_eta": 2, "start_date": "2020-03-22", "infection_too_sick_to_work_rate": 0.1, "pop_between_age_18_65": 0.6, "risk_free_interest_rate": 0.03}}, "BETA_DELAY": 19, "BETA_SLOPES": [-0.002083149146316841, -0.01371560729632028, -0.011424436209217176, -0.00021417674846646492, -0.006933490155728566, -0.016302651313909445, -0.021976940880546216, -0.015027611667733825, -0.02049632436729215, -0.0012684443956520169, -0.01048973104445181, -0.017194032124246396, -0.012501268771611864, -0.01143836972759926, -0.013060538603737563, -0.0067212150885846535, -0.01688288807282084, -0.00732788326384196, -0.01555251108305955, -0.018558939137308463, -0.010197800016497182, -0.026008323704885424, -0.01839844459165451, -0.00901908210276596, -0.009912989484092105, -0.012184418132402267, -0.010865738701655978, -0.00824883961890689, -0.015658776412508412, -0.007343924746645179, -0.025687336392182365, -0.018997538481654343, -0.02173458408903677, -0.009723754643385055, -0.01522632535061064, -0.014219802862404556, -0.009837136107620213, -0.013702791710576777, -0.01233515106776793, -0.017495098568829186, -0.0038581898438220952, 0.0, -0.005059806903521021, -0.008279652819068657, -0.00976148524190814, -0.013599986086457131, -0.006700989222300901, -0.00854383474889656, -0.01016606020999418, -0.007783745678307378, -0.00854767718434908], "BETA_INTERCEPTS": [0.0909339937130691, 0.15934908172512985, 0.14090346558341932, 0.0874313754405788, 0.12764208829535384, 0.16684521264029478, 0.2224932557519612, 0.17695271150734787, 0.21019375363558337, 0.08716936932597127, 0.1336906559126855, 0.20973853610439594, 0.15080833147783596, 0.14648534415297923, 0.14984655491595586, 0.110537697420092, 0.17482465641796435, 0.12619046011972584, 0.1647262699056331, 0.21555096854713704, 0.14377434718511678, 0.24829878480348588, 0.1892414331867255, 0.13387981001991417, 0.13184909826792304, 0.14018526342268908, 0.14661205866940122, 0.12405630739766456, 0.1708853272245163, 0.12083263910858046, 0.22682830516334695, 0.22726318123971645, 0.22862860647497482, 0.14018468286560404, 0.15135048973036935, 0.1697137890161659, 0.12073008155368109, 0.15871040433133266, 0.15150244306880184, 0.20317395740311867, 0.10065229276353373, 0.09157731666281237, 0.11147735108794629, 0.1302431516220282, 0.1279698798877931, 0.1390724799874019, 0.11496817083316735, 0.12430599998655567, 0.14262011441012512, 0.11751381777354367, 0.13140679079992296], "POLICY_START_DATE": "2020-01-01", "FILTER_LEN": 600, "CONV_LAMBDAS": [25.821346282958984, 63.09748077392578, 129.2216033935547, 263.843994140625, 541.9346923828125], "UNEMPLOYMENT_BIAS": [3.5119175910949707, 4.282369136810303, 3.986527681350708, 3.6686928272247314, 3.9100186824798584, 3.4929118156433105, 3.675372838973999, 2.5732550621032715, 4.664016246795654, 4.185905456542969, 3.3383982181549072, 3.7195560932159424, 2.001909017562866, 4.549866676330566, 1.8593614101409912, 2.590764045715332, 2.4346847534179688, 3.053150177001953, 4.179820537567139, 2.471991539001465, 2.9124209880828857, 3.440737009048462, 3.735088586807251, 3.5467445850372314, 4.472385883331299, 2.4136078357696533, 2.3584237098693848, 2.3704957962036133, 4.62847900390625, 3.3034982681274414, 3.9258124828338623, 4.347591400146484, 4.131165027618408, 3.0527312755584717, 1.4074636697769165, 3.600991725921631, 2.959519147872925, 3.2165157794952393, 4.6254425048828125, 2.6547231674194336, 3.0399279594421387, 1.9551920890808105, 3.3496644496917725, 3.6921191215515137, 2.134323835372925, 2.384887218475342, 2.899077892303467, 3.781184196472168, 4.1459269523620605, 2.786363363265991, 3.8226664066314697], "GROUPED_CONVOLUTIONAL_FILTER_WEIGHTS": [[[-1.901889681816101]], [[-0.08077853918075562]], [[1.4144915342330933]], [[0.3929142951965332]], [[0.6342880725860596]], [[-1.6564565896987915]], [[-0.3802086412906647]], [[0.36752089858055115]], [[0.4217044413089752]], [[1.1198031902313232]], [[-1.046669363975525]], [[-0.07799068838357925]], [[0.6732246279716492]], [[0.3407585620880127]], [[1.071414589881897]], [[-0.7924716472625732]], [[0.1633792668581009]], [[0.2110223025083542]], [[0.40027397871017456]], [[0.6751421093940735]], [[-1.6876804828643799]], [[-0.7492924332618713]], [[0.3909163773059845]], [[1.0827584266662598]], [[1.1337357759475708]], [[-1.5065480470657349]], [[-0.0642865002155304]], [[0.7843117117881775]], [[0.530100405216217]], [[0.5309940576553345]], [[-1.082763433456421]], [[-1.0362331867218018]], [[-0.4243374168872833]], [[1.4865437746047974]], [[0.7242207527160645]], [[-1.0253455638885498]], [[-0.6497411727905273]], [[0.8111323714256287]], [[0.8184112906455994]], [[0.6544090509414673]], [[-0.29480451345443726]], [[-0.4543237090110779]], [[0.287342369556427]], [[0.4041725993156433]], [[0.5543569326400757]], [[-2.1371238231658936]], [[-0.1897762268781662]], [[0.8363333344459534]], [[0.8349214196205139]], [[0.5546529293060303]], [[-1.4078224897384644]], [[0.5912363529205322]], [[0.3368542492389679]], [[0.3794427514076233]], [[0.7470704317092896]], [[-1.755499005317688]], [[0.22202935814857483]], [[0.8202835917472839]], [[1.8272844552993774]], [[0.3919675648212433]], [[-1.1428909301757812]], [[-0.3743534982204437]], [[0.5592593550682068]], [[0.8467505574226379]], [[0.5471926331520081]], [[-1.9714702367782593]], [[0.1530560851097107]], [[0.774747908115387]], [[0.5974246859550476]], [[0.9857589602470398]], [[-1.7161123752593994]], [[-0.4370271563529968]], [[0.698621392250061]], [[1.4538406133651733]], [[0.8691503405570984]], [[-1.296758770942688]], [[-0.6292474865913391]], [[1.0411992073059082]], [[0.30314600467681885]], [[0.9983989000320435]], [[-1.2630544900894165]], [[0.23019498586654663]], [[0.2373904138803482]], [[1.331425666809082]], [[0.150259330868721]], [[-0.8504732251167297]], [[0.6622940897941589]], [[0.5465282797813416]], [[0.7123767733573914]], [[0.15938030183315277]], [[-1.281031847000122]], [[0.0045504262670874596]], [[-0.05478357523679733]], [[1.0525448322296143]], [[0.8609755039215088]], [[-1.2701823711395264]], [[0.5731114149093628]], [[0.5735536217689514]], [[0.7000077366828918]], [[-0.22957637906074524]], [[-0.5030510425567627]], [[-0.3726767599582672]], [[-0.4692918360233307]], [[0.5759422779083252]], [[0.9531714916229248]], [[-2.0351366996765137]], [[-0.1874692738056183]], [[0.8145033717155457]], [[1.3156871795654297]], [[0.7774094343185425]], [[-2.792673349380493]], [[0.39610281586647034]], [[0.3213077783584595]], [[1.8418775796890259]], [[0.7475778460502625]], [[-1.3939405679702759]], [[-0.3827483355998993]], [[0.5608564615249634]], [[0.5392832159996033]], [[0.5631366968154907]], [[-0.6964008808135986]], [[0.14801554381847382]], [[0.7639405727386475]], [[0.7006720900535583]], [[0.49279215931892395]], [[-1.1485683917999268]], [[-0.2746788263320923]], [[0.5459840893745422]], [[0.22966395318508148]], [[1.299496054649353]], [[-1.0945466756820679]], [[-0.17553900182247162]], [[0.5441683530807495]], [[0.7957929372787476]], [[0.514713704586029]], [[-0.7799649834632874]], [[0.02248663455247879]], [[0.8131185173988342]], [[0.3884039521217346]], [[0.08299171924591064]], [[-1.7700772285461426]], [[0.8857756853103638]], [[0.7097683548927307]], [[1.981702208518982]], [[1.1918725967407227]], [[-1.2323380708694458]], [[0.10537387430667877]], [[0.1766868680715561]], [[1.4164831638336182]], [[0.2644912600517273]], [[-2.1216647624969482]], [[-0.4793476164340973]], [[0.6591413617134094]], [[0.9412893652915955]], [[1.2232507467269897]], [[-0.3526034355163574]], [[-0.6040355563163757]], [[-0.21794788539409637]], [[1.168945550918579]], [[0.21402457356452942]], [[-1.2752033472061157]], [[-1.2677867412567139]], [[1.2441632747650146]], [[0.9615566730499268]], [[0.6335717439651489]], [[-1.6490784883499146]], [[0.36297187209129333]], [[1.1771068572998047]], [[-0.23101595044136047]], [[1.0022574663162231]], [[-1.161965012550354]], [[-0.5977122783660889]], [[0.2598387598991394]], [[1.116729736328125]], [[0.9714420437812805]], [[-1.7226946353912354]], [[0.22184915840625763]], [[0.055495575070381165]], [[0.8876731395721436]], [[0.9247969388961792]], [[-1.7801975011825562]], [[-0.19933591783046722]], [[-0.11980611830949783]], [[1.2782689332962036]], [[0.995508074760437]], [[-1.7894506454467773]], [[-0.15543267130851746]], [[0.8876304030418396]], [[0.7717365622520447]], [[0.6845047473907471]], [[-1.0635145902633667]], [[-0.8110199570655823]], [[0.9920629858970642]], [[0.49560484290122986]], [[0.9562953114509583]], [[-1.5166046619415283]], [[0.30030688643455505]], [[0.04454826936125755]], [[0.78827303647995]], [[1.272210955619812]], [[-0.9968503713607788]], [[-0.4069610834121704]], [[0.312969833612442]], [[0.7169331908226013]], [[0.8396252989768982]], [[-1.6951179504394531]], [[-0.5261324048042297]], [[0.38432061672210693]], [[0.8093203902244568]], [[1.0225615501403809]], [[-1.295654058456421]], [[0.2363331913948059]], [[0.5378234386444092]], [[0.16080768406391144]], [[1.2743374109268188]], [[-1.4232946634292603]], [[-0.49122142791748047]], [[0.9750567078590393]], [[1.0828173160552979]], [[0.3078964650630951]], [[-1.9650530815124512]], [[0.4780175983905792]], [[0.7385866045951843]], [[0.5153039693832397]], [[0.4933176338672638]], [[-1.8579919338226318]], [[-0.12178093194961548]], [[1.2622787952423096]], [[0.9969248175621033]], [[-0.07392748445272446]], [[-0.7316087484359741]], [[-0.3099755346775055]], [[0.25238192081451416]], [[0.2331857681274414]], [[1.2067222595214844]], [[-1.771887183189392]], [[-0.23588696122169495]], [[0.9529865384101868]], [[1.744586706161499]], [[-0.005386038683354855]], [[-1.2412620782852173]], [[0.05652638152241707]], [[0.2342098206281662]], [[0.9976509213447571]], [[0.6650826930999756]], [[-1.8844166994094849]], [[-0.584898829460144]], [[0.9205768704414368]], [[0.8158034682273865]], [[0.8987165689468384]], [[-1.2527848482131958]], [[-0.3507513403892517]], [[0.17370837926864624]], [[0.40597862005233765]], [[0.4912674129009247]]], "VALUE_OF_LIFE": 10000000, "INFERRED_WEIGHTAGE_ON_AGENT_HEALTH_INDEX": [0.504, 0.782, 0.553, 0.47600000000000003, 0.667, 0.675, 0.634, 0.5690000000000001, 0.664, 0.533, 0.664, 0.722, 0.581, 0.619, 0.561, 0.502, 0.562, 0.665, 0.605, 0.533, 0.6940000000000001, 0.521, 0.583, 0.722, 0.553, 0.664, 0.489, 0.552, 0.5710000000000001, 0.685, 0.5640000000000001, 0.548, 0.654, 0.776, 0.47700000000000004, 0.55, 0.652, 0.771, 0.615, 0.584, 0.549, 0.0, 0.589, 0.611, 0.63, 0.9570000000000001, 0.726, 0.742, 0.65, 0.63, 0.8180000000000001], "INFERRED_WEIGHTAGE_ON_PLANNER_HEALTH_INDEX": 0.618, "MAX_MARGINAL_AGENT_ECONOMIC_INDEX": [0.0027007972821593285, 0.00266409944742918, 0.0026729858946055174, 0.002704144222661853, 0.002672924194484949, 0.0026603161823004484, 0.0026488639414310455, 0.002661954378709197, 0.0026526174042373896, 0.002701293909922242, 0.002672262955456972, 0.0026598565746098757, 0.0026678747963160276, 0.002666909946128726, 0.0026689309161156416, 0.0026871697045862675, 0.0026625902391970158, 0.0026810637209564447, 0.002659715013578534, 0.002656470285728574, 0.0026677639689296484, 0.0026498690713196993, 0.0026571922935545444, 0.0026731702964752913, 0.002673214068636298, 0.002673575421795249, 0.0026705674827098846, 0.0026816315948963165, 0.0026645218022167683, 0.0026818178594112396, 0.002650046953931451, 0.0026514953933656216, 0.0026492432225495577, 0.00267205573618412, 0.002671735128387809, 0.0026622856967151165, 0.0026810429990291595, 0.00266544078476727, 0.002666149055585265, 0.00265689380466938, 0.0026938067749142647, 0.0027003486175090075, 0.0026850991416722536, 0.0026744981296360493, 0.0026793864089995623, 0.0026732103433459997, 0.0026832222938537598, 0.002675570547580719, 0.0026720156893134117, 0.0026815689634531736, 0.002677641808986664], "MAX_MARGINAL_PLANNER_ECONOMIC_INDEX": 0.0026248230133205652, "MAX_MARGINAL_AGENT_HEALTH_INDEX": [-4.436271046870388e-05, -5.738440449931659e-06, -7.638804163434543e-06, -0.0005625157500617206, -1.5833411453058943e-05, -6.401191058102995e-05, -7.971396553330123e-05, -2.2055299268686213e-05, -4.200150215183385e-05, -9.944952762452886e-05, -2.0352546926005743e-05, -6.004966508044163e-06, -8.744227670831606e-06, -2.6989604521077126e-05, -2.6765421353047714e-05, -5.498965492733987e-06, -8.219576557166874e-06, -1.4528109204547945e-05, -8.674593118485063e-05, -1.3361927813093644e-05, -1.7542264686198905e-05, -7.293660019058734e-05, -6.324909918475896e-05, -6.2686217461305205e-06, -1.635521766729653e-05, -7.918497431091964e-06, -5.139545010024449e-06, -4.14312398788752e-06, -1.7089167158701457e-05, -8.56433416629443e-06, -0.00015608352259732783, -1.5192298633337487e-05, -0.0003511043905746192, -5.2028467507625464e-06, -3.207768941138056e-06, -1.3492110156221315e-05, -8.460933713649865e-06, -6.257203494897112e-06, -1.856983726611361e-05, -5.7068617024924606e-05, -1.6644649804220535e-05, -0.0012808742467314005, -1.4916945474396925e-05, -8.881687790562864e-06, -2.135385102519649e-06, -1.631529812584631e-05, -8.702596460352652e-06, -4.017509490950033e-05, -2.4137204945873236e-06, -1.4244758858694695e-05, -4.605298045134987e-07], "MAX_MARGINAL_PLANNER_HEALTH_INDEX": -5.780740320915356e-05, "MIN_MARGINAL_AGENT_ECONOMIC_INDEX": [0.0022221149411052465, 0.0022009077947586775, 0.0021548697259277105, 0.0023341337218880653, 0.002027936512604356, 0.002310860436409712, 0.002221526112407446, 0.002225955482572317, 0.002394687384366989, 0.002233371837064624, 0.0022848339285701513, 0.0019597774371504784, 0.002278445288538933, 0.002098029013723135, 0.001976805040612817, 0.002196172485128045, 0.0023043553810566664, 0.002373333554714918, 0.002149231033399701, 0.0025107816327363253, 0.002322846557945013, 0.001999278087168932, 0.0019083049846813083, 0.0023514768108725548, 0.0022292062640190125, 0.0021491488441824913, 0.0022895471192896366, 0.0024780749808996916, 0.0012919234577566385, 0.002255012048408389, 0.0019703619182109833, 0.0024111049715429544, 0.002159699099138379, 0.0022480941843241453, 0.002113606547936797, 0.0021621964406222105, 0.0020883914548903704, 0.0021869719494134188, 0.0021581463515758514, 0.0020404686219990253, 0.0022332703229039907, 0.0021509407088160515, 0.0021281521767377853, 0.0022470334079116583, 0.0023183010052889585, 0.002366920467466116, 0.0022127979900687933, 0.0021783323027193546, 0.0021956635173410177, 0.0021287244744598866, 0.0024499106220901012], "MIN_MARGINAL_PLANNER_ECONOMIC_INDEX": 0.0021031172946095467, "MIN_MARGINAL_AGENT_HEALTH_INDEX": [-0.001362533774226904, -0.0050289263017475605, -0.004565446637570858, -0.0008101587882265449, -0.004238229710608721, -0.0050532142631709576, -0.005696878302842379, -0.005175487138330936, -0.0057133762165904045, -0.0009362332057207823, -0.00429536821320653, -0.005645037163048983, -0.004657427314668894, -0.004782678093761206, -0.004603340290486813, -0.0031664215493947268, -0.005100488197058439, -0.004098874982446432, -0.005084875971078873, -0.005556523334234953, -0.004602721892297268, -0.005808698944747448, -0.005405310541391373, -0.004369677044451237, -0.004335425328463316, -0.004391636233776808, -0.004618392791599035, -0.0039019824471324682, -0.005255650728940964, -0.0038622445426881313, -0.005716586951166391, -0.005828011780977249, -0.005753120873123407, -0.0045198858715593815, -0.004552662372589111, -0.005163327790796757, -0.0037102752830833197, -0.004919365048408508, -0.004902612883597612, -0.005473235156387091, -0.0025076500605791807, -0.0012808742467314005, -0.003436420112848282, -0.004272157326340675, -0.003988100681453943, -0.0043014297261834145, -0.0035374178551137447, -0.004017393570393324, -0.004670434165745974, -0.003639807226136327, -0.004271885845810175], "MIN_MARGINAL_PLANNER_HEALTH_INDEX": -0.004264675546437502}