{"settings": {"LAST_DATE_IN_TRAIN_SET": "2020-11-30", "LAST_DATE_IN_VAL_SET": "2022-12-31", "FILTER_SIZE_UNEMPLOYMENT": 600, "SIMILARITY_REGULARIZATION_UNEMPLOYMENT": 0.5, "SIMILARITY_REGULARIZATION_SIR": 1.0, "env": {"economic_reward_crra_eta": 2, "start_date": "2020-03-22", "infection_too_sick_to_work_rate": 0.1, "pop_between_age_18_65": 0.6, "risk_free_interest_rate": 0.03}}, "BETA_DELAY": 19, "BETA_SLOPES": [-0.002083149146316841, -0.01371560729632028, -0.011424436209217176, -0.00021417674846646492, -0.006933490155728566, -0.016302651313909445, -0.021976940880546216, -0.015027611667733825, -0.02049632436729215, -0.0012684443956520169, -0.01048973104445181, -0.017194032124246396, -0.012501268771611864, -0.01143836972759926, -0.013060538603737563, -0.0067212150885846535, -0.01688288807282084, -0.00732788326384196, -0.01555251108305955, -0.018558939137308463, -0.010197800016497182, -0.026008323704885424, -0.01839844459165451, -0.00901908210276596, -0.009912989484092105, -0.012184418132402267, -0.010865738701655978, -0.00824883961890689, -0.015658776412508412, -0.007343924746645179, -0.025687336392182365, -0.018997538481654343, -0.02173458408903677, -0.009723754643385055, -0.01522632535061064, -0.014219802862404556, -0.009837136107620213, -0.013702791710576777, -0.01233515106776793, -0.017495098568829186, -0.0038581898438220952, 0.0, -0.005059806903521021, -0.008279652819068657, -0.00976148524190814, -0.013599986086457131, -0.006700989222300901, -0.00854383474889656, -0.01016606020999418, -0.007783745678307378, -0.00854767718434908], "BETA_INTERCEPTS": [0.0909339937130691, 0.15934908172512985, 0.14090346558341932, 0.0874313754405788, 0.12764208829535384, 0.16684521264029478, 0.2224932557519612, 0.17695271150734787, 0.21019375363558337, 0.08716936932597127, 0.1336906559126855, 0.20973853610439594, 0.15080833147783596, 0.14648534415297923, 0.14984655491595586, 0.110537697420092, 0.17482465641796435, 0.12619046011972584, 0.1647262699056331, 0.21555096854713704, 0.14377434718511678, 0.24829878480348588, 0.1892414331867255, 0.13387981001991417, 0.13184909826792304, 0.14018526342268908, 0.14661205866940122, 0.12405630739766456, 0.1708853272245163, 0.12083263910858046, 0.22682830516334695, 0.22726318123971645, 0.22862860647497482, 0.14018468286560404, 0.15135048973036935, 0.1697137890161659, 0.12073008155368109, 0.15871040433133266, 0.15150244306880184, 0.20317395740311867, 0.10065229276353373, 0.09157731666281237, 0.11147735108794629, 0.1302431516220282, 0.1279698798877931, 0.1390724799874019, 0.11496817083316735, 0.12430599998655567, 0.14262011441012512, 0.11751381777354367, 0.13140679079992296], "POLICY_START_DATE": "2020-01-01", "FILTER_LEN": 600, "CONV_LAMBDAS": [25.683475494384766, 62.89936065673828, 129.19430541992188, 264.16082763671875, 541.6008911132812], "UNEMPLOYMENT_BIAS": [2.8933370113372803, 4.280643939971924, 3.9029014110565186, 3.3829634189605713, 3.875107526779175, 2.152251720428467, 4.088919162750244, 3.4795684814453125, 4.568923473358154, 4.142911911010742, 2.8215513229370117, 3.9053823947906494, 2.1885647773742676, 4.100428104400635, 1.984494686126709, 2.365920066833496, 2.3572723865509033, 2.821204900741577, 4.3387627601623535, 2.250481128692627, 3.1218204498291016, 3.747684955596924, 1.716478943824768, 2.5939807891845703, 4.397400856018066, 3.380544424057007, 2.8071212768554688, 2.32358455657959, 4.7156147956848145, 2.7569046020507812, 4.0839762687683105, 4.444569110870361, 3.3699951171875, 3.425443649291992, 1.3656566143035889, 3.732060432434082, 2.7563297748565674, 2.6313717365264893, 4.25657844543457, 2.768681526184082, 3.1532270908355713, 1.9795784950256348, 3.495054244995117, 3.1050772666931152, 1.9798152446746826, 2.551187038421631, 3.1511809825897217, 3.1546099185943604, 4.373567581176758, 2.6880507469177246, 3.9085099697113037], "GROUPED_CONVOLUTIONAL_FILTER_WEIGHTS": [[[-1.2857840061187744]], [[-0.7245294451713562]], [[0.8206278085708618]], [[1.5119982957839966]], [[0.39363500475883484]], [[-1.58387291431427]], [[-0.5685873627662659]], [[0.6540961265563965]], [[0.189234659075737]], [[1.185864806175232]], [[-1.0257842540740967]], [[0.3129971921443939]], [[0.3235643804073334]], [[-0.15207608044147491]], [[1.5754884481430054]], [[-0.5325122475624084]], [[-0.19666802883148193]], [[0.24487479031085968]], [[0.5499745607376099]], [[0.7058917880058289]], [[-1.3433613777160645]], [[-0.8400835394859314]], [[0.025379728525877]], [[1.3921152353286743]], [[1.077446699142456]], [[-0.9563829898834229]], [[-0.4007634222507477]], [[0.1605910062789917]], [[0.8807704448699951]], [[0.9602248072624207]], [[-1.844343900680542]], [[-0.8371709585189819]], [[0.3578096330165863]], [[0.7963326573371887]], [[0.7702656388282776]], [[-0.8470650315284729]], [[-1.0383219718933105]], [[1.0683659315109253]], [[1.2373485565185547]], [[0.07802468538284302]], [[-0.0792008563876152]], [[-0.30756229162216187]], [[0.011346682906150818]], [[0.03310967981815338]], [[0.9633104205131531]], [[-1.448933720588684]], [[-0.40575331449508667]], [[0.4883112609386444]], [[0.4797329604625702]], [[1.0524784326553345]], [[-1.026121973991394]], [[-0.1663811355829239]], [[0.7803628444671631]], [[0.3891160488128662]], [[0.8190708160400391]], [[-2.1647708415985107]], [[0.30090799927711487]], [[1.9465237855911255]], [[0.6231443881988525]], [[0.7348270416259766]], [[-1.2790367603302002]], [[0.1380254179239273]], [[0.35360774397850037]], [[0.23258884251117706]], [[0.9611965417861938]], [[-1.6215429306030273]], [[0.11474296450614929]], [[0.41665884852409363]], [[-0.020637309178709984]], [[1.793053388595581]], [[-1.928796410560608]], [[-0.3170849680900574]], [[0.886774480342865]], [[1.1459143161773682]], [[0.9627730250358582]], [[-1.0351624488830566]], [[-0.6561830639839172]], [[0.3024810552597046]], [[0.949887752532959]], [[0.9566618800163269]], [[-1.0169483423233032]], [[-0.17787426710128784]], [[0.9848957657814026]], [[0.42854493856430054]], [[0.5982627868652344]], [[-0.9842764139175415]], [[0.7114698886871338]], [[0.9004525542259216]], [[-0.06835631281137466]], [[0.6421800255775452]], [[-0.8403321504592896]], [[-0.22669760882854462]], [[0.11040205508470535]], [[0.5254454016685486]], [[1.1656310558319092]], [[-1.12944495677948]], [[0.4142727553844452]], [[1.0540180206298828]], [[-0.3627623915672302]], [[0.44682660698890686]], [[-0.5985218286514282]], [[-0.25973033905029297]], [[-0.28052428364753723]], [[0.1866767555475235]], [[1.0966335535049438]], [[-1.6130417585372925]], [[-0.6878293752670288]], [[1.4303275346755981]], [[0.5409848690032959]], [[1.1011483669281006]], [[-1.3499826192855835]], [[-0.731801450252533]], [[0.005830455105751753]], [[1.95509672164917]], [[1.4605343341827393]], [[-1.4301224946975708]], [[-0.3890221416950226]], [[0.3003349006175995]], [[0.5071139335632324]], [[0.9646463394165039]], [[-0.6017301082611084]], [[0.6091240048408508]], [[0.14559043943881989]], [[0.28274205327033997]], [[1.06235933303833]], [[-1.2825098037719727]], [[-0.29027557373046875]], [[0.7433037757873535]], [[0.8969152569770813]], [[0.3435876965522766]], [[-1.1425799131393433]], [[-0.15998949110507965]], [[0.6688874959945679]], [[0.8727642297744751]], [[0.25873804092407227]], [[-0.847705066204071]], [[0.15655240416526794]], [[0.6362470388412476]], [[0.3522414267063141]], [[0.19181467592716217]], [[-1.475132703781128]], [[0.8423198461532593]], [[1.253128170967102]], [[1.0160984992980957]], [[1.5877366065979004]], [[-0.8881716132164001]], [[-0.3945554792881012]], [[0.19052822887897491]], [[1.5339069366455078]], [[0.4153430163860321]], [[-2.3717193603515625]], [[-0.40492019057273865]], [[0.6784246563911438]], [[1.2819294929504395]], [[0.890333354473114]], [[-0.041119594126939774]], [[-1.1298927068710327]], [[0.3749512732028961]], [[0.6369176506996155]], [[0.4215526580810547]], [[-1.8461668491363525]], [[-0.7417815923690796]], [[0.749248206615448]], [[1.2675666809082031]], [[0.7199286222457886]], [[-1.2150017023086548]], [[0.12695135176181793]], [[0.5279977917671204]], [[1.1086996793746948]], [[0.20415030419826508]], [[-1.1087907552719116]], [[-0.4914211630821228]], [[0.19518806040287018]], [[0.6755378842353821]], [[1.3498843908309937]], [[-2.139573812484741]], [[0.21505172550678253]], [[0.9365242719650269]], [[-0.12927745282649994]], [[1.2759944200515747]], [[-1.46394681930542]], [[-0.5709152221679688]], [[0.04487943276762962]], [[0.8736362457275391]], [[1.3915786743164062]], [[-1.2826164960861206]], [[-0.3774110674858093]], [[0.3549272418022156]], [[1.080209732055664]], [[0.8944011926651001]], [[-0.9790341854095459]], [[-1.2622747421264648]], [[0.7877687215805054]], [[1.592025637626648]], [[0.42295247316360474]], [[-1.7859584093093872]], [[-0.14990639686584473]], [[1.1519523859024048]], [[0.37040212750434875]], [[1.135380506515503]], [[-1.4579238891601562]], [[-0.11651493608951569]], [[0.6182477474212646]], [[0.3310808539390564]], [[0.9040240049362183]], [[-1.6555653810501099]], [[-0.5436066389083862]], [[0.36648812890052795]], [[0.7078014016151428]], [[1.1183393001556396]], [[-1.4955010414123535]], [[0.4387166202068329]], [[0.406809538602829]], [[0.5722202658653259]], [[0.9231769442558289]], [[-1.322229266166687]], [[-0.27765852212905884]], [[0.5552675724029541]], [[0.6835880875587463]], [[0.9426479935646057]], [[-1.828692078590393]], [[0.030919989570975304]], [[1.2562599182128906]], [[0.21598127484321594]], [[0.6189603209495544]], [[-2.0305137634277344]], [[0.5565453767776489]], [[0.724902331829071]], [[0.5611019730567932]], [[0.361996591091156]], [[-0.987788736820221]], [[-0.4807167947292328]], [[0.6730207800865173]], [[0.5200575590133667]], [[0.7433198094367981]], [[-1.5143218040466309]], [[0.01176431030035019]], [[0.6028795838356018]], [[0.6284982562065125]], [[1.1189465522766113]], [[-1.240687608718872]], [[-0.21018752455711365]], [[0.5492728352546692]], [[1.2088721990585327]], [[0.33249980211257935]], [[-1.3867074251174927]], [[-0.8383540511131287]], [[0.7255614399909973]], [[0.7663785815238953]], [[1.0804529190063477]], [[-1.1784343719482422]], [[-0.5842750072479248]], [[0.27527913451194763]], [[0.7293714284896851]], [[0.22195547819137573]]], "VALUE_OF_LIFE": 10000000, "INFERRED_WEIGHTAGE_ON_AGENT_HEALTH_INDEX": [0.547, 0.643, 0.527, 0.47400000000000003, 0.61, 0.616, 0.663, 0.5710000000000001, 0.654, 0.579, 0.647, 0.786, 0.626, 0.59, 0.621, 0.5750000000000001, 0.56, 0.638, 0.599, 0.631, 0.6890000000000001, 0.605, 0.862, 0.742, 0.534, 0.676, 0.494, 0.5750000000000001, 0.658, 0.669, 0.588, 0.504, 0.586, 0.715, 0.622, 0.544, 0.5710000000000001, 0.734, 0.607, 0.5730000000000001, 0.489, 0.444, 0.499, 0.588, 0.67, 0.9560000000000001, 0.709, 0.642, 0.501, 0.64, 0.788], "INFERRED_WEIGHTAGE_ON_PLANNER_HEALTH_INDEX": 0.602, "MAX_MARGINAL_AGENT_ECONOMIC_INDEX": [1.3331577777862549, 1.4795050621032715, 1.4184789657592773, 1.7275272607803345, 1.3645583391189575, 1.5365993976593018, 1.5655804872512817, 1.5619713068008423, 1.7918148040771484, 1.426053762435913, 1.4309040307998657, 1.2382450103759766, 1.6321690082550049, 1.342960238456726, 1.316022276878357, 1.4143840074539185, 1.5124244689941406, 1.5656380653381348, 1.5191490650177002, 2.2309560775756836, 1.7017241716384888, 1.2711113691329956, 1.2479091882705688, 1.6800401210784912, 1.4801181554794312, 1.497719645500183, 1.6487122774124146, 2.0307867527008057, 1.1433005332946777, 1.4214320182800293, 1.314179539680481, 1.8752766847610474, 1.360768437385559, 1.4722522497177124, 1.3197169303894043, 1.418619990348816, 1.3714683055877686, 1.3875373601913452, 1.3283932209014893, 1.4054956436157227, 1.3609564304351807, 1.3747447729110718, 1.4350109100341797, 1.5001639127731323, 1.4866595268249512, 1.6901006698608398, 1.5776184797286987, 1.4218814373016357, 1.4538195133209229, 1.3523356914520264, 2.1612775325775146], "MAX_MARGINAL_PLANNER_ECONOMIC_INDEX": 1.335004448890686, "MAX_MARGINAL_AGENT_HEALTH_INDEX": [1.005487084388733, 1.0266335010528564, 1.0022481679916382, 1.0123714208602905, 1.0031183958053589, 1.0065912008285522, 1.0253978967666626, 1.0064224004745483, 1.0136213302612305, 1.013187050819397, 1.006635069847107, 1.001929759979248, 1.002985954284668, 1.0069057941436768, 1.0071181058883667, 1.0012747049331665, 1.0029054880142212, 1.0039488077163696, 1.0253615379333496, 1.0035635232925415, 1.0049210786819458, 1.0184550285339355, 1.0157743692398071, 1.0014064311981201, 1.004613995552063, 1.0022600889205933, 1.0103858709335327, 1.000967025756836, 1.0044816732406616, 1.0019335746765137, 1.0457854270935059, 1.0056867599487305, 1.1087137460708618, 1.00149405002594, 1.0008718967437744, 1.00369131565094, 1.0023729801177979, 1.0019702911376953, 1.0047825574874878, 1.0163966417312622, 1.0058656930923462, 1.0130507946014404, 1.0529279708862305, 1.0030728578567505, 1.0007466077804565, 1.0048778057098389, 1.0022480487823486, 1.0175549983978271, 1.0006588697433472, 1.0039176940917969, 1.0001322031021118], "MAX_MARGINAL_PLANNER_HEALTH_INDEX": 1.0143810510635376, "MIN_MARGINAL_AGENT_ECONOMIC_INDEX": [-2.8778884410858154, -4.147029876708984, -3.5886995792388916, -6.593924045562744, -2.9853575229644775, -4.514437675476074, -4.604526519775391, -4.671225070953369, -6.9177727699279785, -3.705501079559326, -3.6673014163970947, -1.9092426300048828, -5.5880937576293945, -2.7086055278778076, -2.5040125846862793, -3.588690996170044, -4.436666011810303, -4.999521255493164, -4.340675354003906, -10.990768432617188, -6.254360675811768, -2.023977279663086, -1.8405805826187134, -5.91619348526001, -4.073567867279053, -4.275412559509277, -5.821197986602783, -9.323294639587402, -0.9322207570075989, -3.566401720046997, -2.37199068069458, -7.55496072769165, -2.839467763900757, -3.9736135005950928, -2.6776506900787354, -3.4289395809173584, -3.138549327850342, -3.2623231410980225, -2.675575017929077, -3.356245279312134, -3.098984956741333, -3.2290148735046387, -3.7469398975372314, -4.320562362670898, -4.257625102996826, -5.997559070587158, -5.1254682540893555, -3.516634225845337, -3.929535388946533, -2.953312635421753, -10.801986694335938], "MIN_MARGINAL_PLANNER_ECONOMIC_INDEX": -3.664172887802124, "MIN_MARGINAL_AGENT_HEALTH_INDEX": [0.645742654800415, 0.31222739815711975, 0.7195113301277161, 0.5560733079910278, 0.7224522829055786, 0.7264619469642639, 0.7453126907348633, 0.7263175845146179, 0.7335357069969177, 0.5866698622703552, 0.7209166884422302, 0.7129010558128357, 0.7131914496421814, 0.7266958355903625, 0.7266696095466614, 0.7079432606697083, 0.7207099795341492, 0.7185846567153931, 0.7451392412185669, 0.7233109474182129, 0.7247418165206909, 0.7383691668510437, 0.7356829047203064, 0.7209022641181946, 0.7221190929412842, 0.7410545945167542, 0.5806261301040649, 0.717415452003479, 0.7238211631774902, 0.7199374437332153, 0.7657011151313782, 0.7255919575691223, 0.8286315202713013, 0.7209069728851318, 0.7181841135025024, 0.7235679030418396, 0.7193112373352051, 0.7176042199134827, 0.7246508002281189, 0.7363121509552002, 0.6582149863243103, 0.305292010307312, 0.4175145924091339, 0.7084088325500488, 0.6887248158454895, 0.7210306525230408, 0.7157784104347229, 0.7183356881141663, 0.7203063368797302, 0.7132706046104431, 0.7088539004325867], "MIN_MARGINAL_PLANNER_HEALTH_INDEX": 0.7242546677589417}