{"settings": {"LAST_DATE_IN_TRAIN_SET": "2020-11-30", "LAST_DATE_IN_VAL_SET": "2022-12-31", "FILTER_SIZE_UNEMPLOYMENT": 600, "SIMILARITY_REGULARIZATION_UNEMPLOYMENT": 0.5, "SIMILARITY_REGULARIZATION_SIR": 1.0, "env": {"economic_reward_crra_eta": 2, "start_date": "2020-03-22", "infection_too_sick_to_work_rate": 0.1, "pop_between_age_18_65": 0.6, "risk_free_interest_rate": 0.03}}, "BETA_DELAY": 19, "BETA_SLOPES": [-0.002083149146316841, -0.01371560729632028, -0.011424436209217176, -0.00021417674846646492, -0.006933490155728566, -0.016302651313909445, -0.021976940880546216, -0.015027611667733825, -0.02049632436729215, -0.0012684443956520169, -0.01048973104445181, -0.017194032124246396, -0.012501268771611864, -0.01143836972759926, -0.013060538603737563, -0.0067212150885846535, -0.01688288807282084, -0.00732788326384196, -0.01555251108305955, -0.018558939137308463, -0.010197800016497182, -0.026008323704885424, -0.01839844459165451, -0.00901908210276596, -0.009912989484092105, -0.012184418132402267, -0.010865738701655978, -0.00824883961890689, -0.015658776412508412, -0.007343924746645179, -0.025687336392182365, -0.018997538481654343, -0.02173458408903677, -0.009723754643385055, -0.01522632535061064, -0.014219802862404556, -0.009837136107620213, -0.013702791710576777, -0.01233515106776793, -0.017495098568829186, -0.0038581898438220952, 0.0, -0.005059806903521021, -0.008279652819068657, -0.00976148524190814, -0.013599986086457131, -0.006700989222300901, -0.00854383474889656, -0.01016606020999418, -0.007783745678307378, -0.00854767718434908], "BETA_INTERCEPTS": [0.0909339937130691, 0.15934908172512985, 0.14090346558341932, 0.0874313754405788, 0.12764208829535384, 0.16684521264029478, 0.2224932557519612, 0.17695271150734787, 0.21019375363558337, 0.08716936932597127, 0.1336906559126855, 0.20973853610439594, 0.15080833147783596, 0.14648534415297923, 0.14984655491595586, 0.110537697420092, 0.17482465641796435, 0.12619046011972584, 0.1647262699056331, 0.21555096854713704, 0.14377434718511678, 0.24829878480348588, 0.1892414331867255, 0.13387981001991417, 0.13184909826792304, 0.14018526342268908, 0.14661205866940122, 0.12405630739766456, 0.1708853272245163, 0.12083263910858046, 0.22682830516334695, 0.22726318123971645, 0.22862860647497482, 0.14018468286560404, 0.15135048973036935, 0.1697137890161659, 0.12073008155368109, 0.15871040433133266, 0.15150244306880184, 0.20317395740311867, 0.10065229276353373, 0.09157731666281237, 0.11147735108794629, 0.1302431516220282, 0.1279698798877931, 0.1390724799874019, 0.11496817083316735, 0.12430599998655567, 0.14262011441012512, 0.11751381777354367, 0.13140679079992296], "POLICY_START_DATE": "2020-01-01", "FILTER_LEN": 600, "CONV_LAMBDAS": [26.609344482421875, 62.99880599975586, 129.01490783691406, 264.12664794921875, 541.26416015625], "UNEMPLOYMENT_BIAS": [3.3863840103149414, 4.104321479797363, 4.078169345855713, 3.455808401107788, 4.402828216552734, 3.148669719696045, 3.672686815261841, 2.878100872039795, 4.463229656219482, 3.9411089420318604, 3.609842538833618, 3.4668052196502686, 1.971990942955017, 3.8973402976989746, 3.1327240467071533, 2.9310693740844727, 2.151325225830078, 2.611541748046875, 4.2721686363220215, 2.8199925422668457, 3.260354995727539, 3.7521183490753174, 3.4080989360809326, 2.690765619277954, 4.5718841552734375, 3.1170694828033447, 2.556710958480835, 2.3178396224975586, 4.694268226623535, 2.7362101078033447, 3.5851166248321533, 4.657500743865967, 3.293381452560425, 3.3891730308532715, 1.3161526918411255, 2.9468393325805664, 3.411325693130493, 2.9243335723876953, 3.8524553775787354, 2.2710728645324707, 3.1282596588134766, 2.0154945850372314, 3.723623752593994, 3.941396951675415, 1.9702363014221191, 2.1575887203216553, 3.33860445022583, 3.966296911239624, 4.445300102233887, 2.640035390853882, 3.966958522796631], "GROUPED_CONVOLUTIONAL_FILTER_WEIGHTS": [[[-1.7703747749328613]], [[0.2638211250305176]], [[0.4788280427455902]], [[0.9576830267906189]], [[0.6405186057090759]], [[-1.5110244750976562]], [[-0.5490343570709229]], [[0.4689210057258606]], [[0.29010435938835144]], [[1.2467938661575317]], [[-0.7143635153770447]], [[-0.32079899311065674]], [[0.3182753026485443]], [[1.1087573766708374]], [[0.6604828238487244]], [[-0.8143424391746521]], [[0.15241733193397522]], [[0.173325315117836]], [[0.4420722723007202]], [[0.7369033694267273]], [[-1.333972454071045]], [[-0.7785382270812988]], [[0.34423989057540894]], [[1.0218985080718994]], [[1.0612972974777222]], [[-1.6788978576660156]], [[0.29580503702163696]], [[0.4434107542037964]], [[0.3637039065361023]], [[0.8544823527336121]], [[-1.5546597242355347]], [[-0.5285717248916626]], [[0.05434787645936012]], [[0.019018137827515602]], [[1.5385093688964844]], [[-1.647122859954834]], [[0.2594616413116455]], [[0.3137349486351013]], [[0.7778000235557556]], [[0.7039239406585693]], [[-0.15489642322063446]], [[-0.5428003072738647]], [[0.09475026279687881]], [[0.6614763736724854]], [[0.5088319778442383]], [[-1.8064470291137695]], [[-0.15519681572914124]], [[0.050086863338947296]], [[1.3793816566467285]], [[0.5782362818717957]], [[-1.379846453666687]], [[0.1598665565252304]], [[1.0042110681533813]], [[0.4403282105922699]], [[0.3749539256095886]], [[-1.2734768390655518]], [[0.40735408663749695]], [[0.4716980755329132]], [[0.5206191539764404]], [[1.6062307357788086]], [[-1.3589941263198853]], [[0.14373105764389038]], [[0.20316113531589508]], [[0.648769736289978]], [[0.7761714458465576]], [[-0.9112271070480347]], [[-0.6557568907737732]], [[-0.18525724112987518]], [[1.8308815956115723]], [[0.8434919714927673]], [[-1.5666990280151367]], [[0.12620748579502106]], [[0.45223674178123474]], [[0.9584535956382751]], [[0.8606764674186707]], [[-1.38990318775177]], [[-0.30379536747932434]], [[0.7243509888648987]], [[0.7112897634506226]], [[0.6196704506874084]], [[-1.042387843132019]], [[0.3466569185256958]], [[0.18514114618301392]], [[0.6103025674819946]], [[0.8007778525352478]], [[-0.5760676860809326]], [[0.655480682849884]], [[0.4377743899822235]], [[-0.009750254452228546]], [[0.8802118301391602]], [[-1.1588400602340698]], [[-0.06265236437320709]], [[-0.06132824718952179]], [[1.1395734548568726]], [[0.7706811428070068]], [[-1.253318428993225]], [[0.41125407814979553]], [[0.9332000017166138]], [[0.5056495666503906]], [[-0.28936195373535156]], [[-0.483418732881546]], [[-0.5121426582336426]], [[-0.3818431496620178]], [[0.9711351990699768]], [[0.5507964491844177]], [[-1.906284213066101]], [[0.08526432514190674]], [[0.11387079209089279]], [[1.7552231550216675]], [[0.6635214686393738]], [[-1.6777594089508057]], [[-0.12496737390756607]], [[0.5059741735458374]], [[0.569852352142334]], [[1.7681931257247925]], [[-1.6489460468292236]], [[-0.18453039228916168]], [[0.48356500267982483]], [[0.1815866082906723]], [[1.0708221197128296]], [[-0.879866361618042]], [[0.09980496019124985]], [[0.8289176225662231]], [[1.241575837135315]], [[0.025295082479715347]], [[-1.135230302810669]], [[-0.09520725160837173]], [[0.45114749670028687]], [[0.4691447913646698]], [[0.869190514087677]], [[-1.0615969896316528]], [[0.0711209699511528]], [[0.3264008164405823]], [[0.6333552002906799]], [[0.6385412216186523]], [[-0.9117992520332336]], [[0.31485894322395325]], [[0.49928438663482666]], [[0.39413219690322876]], [[0.19877788424491882]], [[-0.6873841881752014]], [[-0.01212778314948082]], [[1.2417329549789429]], [[1.2940412759780884]], [[1.5704569816589355]], [[-1.1547435522079468]], [[0.1743973195552826]], [[0.12686969339847565]], [[0.745344340801239]], [[0.9552727341651917]], [[-1.4174445867538452]], [[-0.8929243087768555]], [[0.7582183480262756]], [[0.3520011305809021]], [[1.7704834938049316]], [[-0.6474495530128479]], [[-0.23904478549957275]], [[0.041368518024683]], [[0.3200785219669342]], [[0.6216269731521606]], [[-2.099193811416626]], [[-0.4899412989616394]], [[0.6063248515129089]], [[1.5904037952423096]], [[0.5158967971801758]], [[-1.5294214487075806]], [[0.2901313304901123]], [[0.8212607502937317]], [[0.7223178148269653]], [[0.35868462920188904]], [[-1.099989891052246]], [[-0.4470168650150299]], [[0.07798241078853607]], [[0.7886667847633362]], [[1.3331050872802734]], [[-1.780661702156067]], [[-0.015970299020409584]], [[0.4163833260536194]], [[0.566055178642273]], [[1.2296174764633179]], [[-1.9182965755462646]], [[-0.10892240703105927]], [[0.6307981610298157]], [[0.3347413241863251]], [[1.1733925342559814]], [[-1.6424689292907715]], [[0.10945115238428116]], [[0.2892886698246002]], [[0.7803172469139099]], [[1.0014511346817017]], [[-1.2309845685958862]], [[-0.14134293794631958]], [[-0.0794646218419075]], [[0.5775070786476135]], [[1.5252938270568848]], [[-2.4257113933563232]], [[0.13584239780902863]], [[0.8936166167259216]], [[1.3185256719589233]], [[0.6205073595046997]], [[-1.2746261358261108]], [[-0.4884234070777893]], [[0.5878121852874756]], [[1.0461735725402832]], [[0.4493905007839203]], [[-1.7283074855804443]], [[-0.44333747029304504]], [[0.3898957073688507]], [[0.7108149528503418]], [[1.0676921606063843]], [[-1.7351815700531006]], [[0.26484888792037964]], [[0.6296824812889099]], [[1.187350869178772]], [[0.3334430158138275]], [[-0.7460396885871887]], [[-0.284984290599823]], [[-0.0938737541437149]], [[1.3191313743591309]], [[0.5166197419166565]], [[-1.9471858739852905]], [[0.2671862840652466]], [[0.8661755919456482]], [[0.7673089504241943]], [[0.3404611349105835]], [[-1.588548183441162]], [[-0.03313539922237396]], [[1.0537489652633667]], [[0.43832921981811523]], [[0.5064778923988342]], [[-0.684259295463562]], [[-0.38626718521118164]], [[0.3877312242984772]], [[0.36080431938171387]], [[0.9377642869949341]], [[-1.7365658283233643]], [[0.05216125026345253]], [[0.9884901642799377]], [[0.9272306561470032]], [[0.4778694808483124]], [[-1.3421911001205444]], [[-0.3997076451778412]], [[1.4041991233825684]], [[0.28223916888237]], [[0.6624426245689392]], [[-2.014322280883789]], [[-0.3655650019645691]], [[0.6275709867477417]], [[1.2361323833465576]], [[0.7023184299468994]], [[-1.565228819847107]], [[0.15544362366199493]], [[-0.16367004811763763]], [[0.6291331052780151]], [[0.3502550423145294]]], "VALUE_OF_LIFE": 10000000, "INFERRED_WEIGHTAGE_ON_AGENT_HEALTH_INDEX": [0.489, 0.753, 0.539, 0.45, 0.623, 0.649, 0.587, 0.528, 0.625, 0.498, 0.642, 0.687, 0.556, 0.581, 0.536, 0.52, 0.54, 0.627, 0.5730000000000001, 0.496, 0.654, 0.47600000000000003, 0.545, 0.686, 0.537, 0.647, 0.47000000000000003, 0.553, 0.541, 0.656, 0.528, 0.498, 0.61, 0.743, 0.489, 0.515, 0.649, 0.737, 0.581, 0.54, 0.536, 0.5660000000000001, 0.558, 0.578, 0.633, 0.965, 0.7000000000000001, 0.7030000000000001, 0.619, 0.603, 0.8180000000000001], "INFERRED_WEIGHTAGE_ON_PLANNER_HEALTH_INDEX": 0.579, "MAX_MARGINAL_AGENT_ECONOMIC_INDEX": [0.0025997620541602373, 0.0025627710856497288, 0.002569116884842515, 0.002604130422696471, 0.0025713229551911354, 0.002559992717579007, 0.0025507831014692783, 0.0025596979539841413, 0.00255252025090158, 0.002602542284876108, 0.0025694393552839756, 0.002556927502155304, 0.0025654202327132225, 0.0025657485239207745, 0.0025659373495727777, 0.00258312514051795, 0.0025609133299440145, 0.0025757986586540937, 0.0025592725723981857, 0.0025543970987200737, 0.002565748291090131, 0.0025501891504973173, 0.0025581244844943285, 0.0025707462336868048, 0.002569756004959345, 0.0025698489043861628, 0.0025671017356216908, 0.0025764673482626677, 0.002561243949458003, 0.002577509032562375, 0.0025523302610963583, 0.002550598466768861, 0.0025512101128697395, 0.0025682691484689713, 0.002568677067756653, 0.0025614730548113585, 0.002577521139755845, 0.0025634504854679108, 0.0025645378045737743, 0.0025563533417880535, 0.0025903284549713135, 0.0026000679936259985, 0.0025805311743170023, 0.0025709429755806923, 0.0025751886423677206, 0.0025706246960908175, 0.0025791393127292395, 0.002572814002633095, 0.0025674225762486458, 0.002578668063506484, 0.002572587225586176], "MAX_MARGINAL_PLANNER_ECONOMIC_INDEX": 0.002453232416883111, "MAX_MARGINAL_AGENT_HEALTH_INDEX": [-2.183698416047264e-05, -2.8210638447490055e-06, -3.77370156456891e-06, -0.0002768627309706062, -7.879110853536986e-06, -3.137706880806945e-05, -3.9312970329774544e-05, -1.093641094485065e-05, -2.0639266949729063e-05, -4.887334580416791e-05, -1.0086777365359012e-05, -2.948236897282186e-06, -4.310394160711439e-06, -1.3154486623534467e-05, -1.3500016393663827e-05, -2.728334948187694e-06, -4.033792720292695e-06, -7.109439138730522e-06, -4.28547864430584e-05, -6.630688403674867e-06, -8.705543223186396e-06, -3.617387483245693e-05, -3.101192123722285e-05, -3.0449352834693855e-06, -8.08104141469812e-06, -3.954297881136881e-06, -2.543674327171175e-06, -2.0414988739503315e-06, -8.438511940767057e-06, -4.181577878625831e-06, -7.65095537644811e-05, -7.535320492024766e-06, -0.00017057429067790508, -2.5814763375819894e-06, -1.5795782246641465e-06, -6.577062777068932e-06, -4.206655376037816e-06, -3.0700543902639765e-06, -9.030962246470153e-06, -2.795687942125369e-05, -8.2220522017451e-06, -0.0006326940492726862, -7.406520126096439e-06, -4.400159014039673e-06, -1.0501563565412653e-06, -8.014686500246171e-06, -4.325826921558473e-06, -1.9880591935361736e-05, -1.1969410707024508e-06, -7.007355634414125e-06, -2.277252804105956e-07], "MAX_MARGINAL_PLANNER_HEALTH_INDEX": -2.8512773496913724e-05, "MIN_MARGINAL_AGENT_ECONOMIC_INDEX": [-8.368707494810224e-05, -9.863234299700707e-05, -9.4062794232741e-05, 1.5215802022794378e-06, -0.00017739771283231676, -2.674955248949118e-05, -9.491929085925221e-05, -4.041602005599998e-05, 6.152333662612364e-05, -8.408620487898588e-05, 4.16434631915763e-05, -0.0003457442217040807, -2.655032221809961e-05, -0.00023775073350407183, -0.00014407026174012572, -2.67206814896781e-05, -4.123750841245055e-05, 9.818634680414107e-06, -0.00010651807679096237, 0.00019593989418353885, 4.8359521315433085e-05, -0.00021952269889879972, -0.00037429542862810194, -3.0294326279545203e-05, -9.005554602481425e-06, -3.8207410398172215e-05, 2.5976396500482224e-06, 0.0001392161357216537, -0.0007585714338347316, -9.926491475198418e-05, -0.00031872629188001156, 9.162251080852002e-05, -0.0001462052168790251, 9.331139153800905e-06, -0.0001831354747992009, -0.00015859163249842823, -0.00011401050869608298, -0.0001324021868640557, -0.00022365618497133255, -0.00017051291069947183, -1.6857049558893777e-05, -0.00013232461060397327, -5.340866118785925e-05, -5.044961653766222e-05, 1.9397997675696388e-05, 2.4691385988262482e-05, -3.148569885524921e-05, -7.613602792844176e-05, -3.187384572811425e-05, -0.0001278686977457255, 0.00013107854465488344], "MIN_MARGINAL_PLANNER_ECONOMIC_INDEX": -0.0004119744407944381, "MIN_MARGINAL_AGENT_HEALTH_INDEX": [-0.0006706687854602933, -0.0024722618982195854, -0.002255411818623543, -0.00039850783650763333, -0.0021090535447001457, -0.0024769639130681753, -0.0028095594607293606, -0.0025663343258202076, -0.002807514974847436, -0.000460016424767673, -0.002128796186298132, -0.002771525178104639, -0.002295841695740819, -0.0023310352116823196, -0.00232182489708066, -0.001571103697642684, -0.00250308308750391, -0.002005817834287882, -0.0025120610371232033, -0.00275735673494637, -0.002284148707985878, -0.0028809006325900555, -0.0026502995751798153, -0.0021225365344434977, -0.0021421140991151333, -0.002193070948123932, -0.0022857440635561943, -0.0019226765725761652, -0.0025952046271413565, -0.0018857534741982818, -0.002802175935357809, -0.002890672069042921, -0.0027949954383075237, -0.0022426156792789698, -0.0022418342996388674, -0.00251698843203485, -0.0018446953035891056, -0.0024136523716151714, -0.002384259831160307, -0.002681237645447254, -0.0012387256138026714, -0.0006326897419057786, -0.001706243259832263, -0.0021165076177567244, -0.0019612982869148254, -0.002113023307174444, -0.001758354133926332, -0.0019880016334354877, -0.0023160255514085293, -0.0017905127024278045, -0.0021123813930898905], "MIN_MARGINAL_PLANNER_HEALTH_INDEX": -0.0021029238123446703}