{"settings": {"LAST_DATE_IN_TRAIN_SET": "2020-11-30", "LAST_DATE_IN_VAL_SET": "2022-12-31", "FILTER_SIZE_UNEMPLOYMENT": 600, "SIMILARITY_REGULARIZATION_UNEMPLOYMENT": 0.5, "SIMILARITY_REGULARIZATION_SIR": 1.0, "env": {"economic_reward_crra_eta": 2, "start_date": "2020-03-22", "infection_too_sick_to_work_rate": 0.1, "pop_between_age_18_65": 0.6, "risk_free_interest_rate": 0.03}}, "BETA_DELAY": 19, "BETA_SLOPES": [-0.002083149146316841, -0.01371560729632028, -0.011424436209217176, -0.00021417674846646492, -0.006933490155728566, -0.016302651313909445, -0.021976940880546216, -0.015027611667733825, -0.02049632436729215, -0.0012684443956520169, -0.01048973104445181, -0.017194032124246396, -0.012501268771611864, -0.01143836972759926, -0.013060538603737563, -0.0067212150885846535, -0.01688288807282084, -0.00732788326384196, -0.01555251108305955, -0.018558939137308463, -0.010197800016497182, -0.026008323704885424, -0.01839844459165451, -0.00901908210276596, -0.009912989484092105, -0.012184418132402267, -0.010865738701655978, -0.00824883961890689, -0.015658776412508412, -0.007343924746645179, -0.025687336392182365, -0.018997538481654343, -0.02173458408903677, -0.009723754643385055, -0.01522632535061064, -0.014219802862404556, -0.009837136107620213, -0.013702791710576777, -0.01233515106776793, -0.017495098568829186, -0.0038581898438220952, 0.0, -0.005059806903521021, -0.008279652819068657, -0.00976148524190814, -0.013599986086457131, -0.006700989222300901, -0.00854383474889656, -0.01016606020999418, -0.007783745678307378, -0.00854767718434908], "BETA_INTERCEPTS": [0.0909339937130691, 0.15934908172512985, 0.14090346558341932, 0.0874313754405788, 0.12764208829535384, 0.16684521264029478, 0.2224932557519612, 0.17695271150734787, 0.21019375363558337, 0.08716936932597127, 0.1336906559126855, 0.20973853610439594, 0.15080833147783596, 0.14648534415297923, 0.14984655491595586, 0.110537697420092, 0.17482465641796435, 0.12619046011972584, 0.1647262699056331, 0.21555096854713704, 0.14377434718511678, 0.24829878480348588, 0.1892414331867255, 0.13387981001991417, 0.13184909826792304, 0.14018526342268908, 0.14661205866940122, 0.12405630739766456, 0.1708853272245163, 0.12083263910858046, 0.22682830516334695, 0.22726318123971645, 0.22862860647497482, 0.14018468286560404, 0.15135048973036935, 0.1697137890161659, 0.12073008155368109, 0.15871040433133266, 0.15150244306880184, 0.20317395740311867, 0.10065229276353373, 0.09157731666281237, 0.11147735108794629, 0.1302431516220282, 0.1279698798877931, 0.1390724799874019, 0.11496817083316735, 0.12430599998655567, 0.14262011441012512, 0.11751381777354367, 0.13140679079992296], "POLICY_START_DATE": "2020-01-01", "FILTER_LEN": 600, "CONV_LAMBDAS": [27.866634368896484, 62.602508544921875, 129.2971954345703, 264.1806640625, 541.8985595703125], "UNEMPLOYMENT_BIAS": [3.0911777019500732, 4.107889175415039, 3.8351495265960693, 3.556086301803589, 4.158999443054199, 3.259984016418457, 3.658487319946289, 3.039844512939453, 4.533249378204346, 4.1736907958984375, 3.2195565700531006, 3.7866628170013428, 2.0052378177642822, 4.091324806213379, 3.446722984313965, 2.334115505218506, 2.8473856449127197, 3.0125784873962402, 4.259228706359863, 2.5557384490966797, 3.7400002479553223, 3.7776994705200195, 3.5969398021698, 3.5275676250457764, 4.515460014343262, 2.4458954334259033, 3.1876046657562256, 2.2485601902008057, 4.67651891708374, 2.576284408569336, 4.302016258239746, 4.384908199310303, 3.751884698867798, 3.4214699268341064, 1.8517736196517944, 3.262648344039917, 2.8534908294677734, 2.9585318565368652, 4.382449150085449, 3.600231409072876, 2.2961864471435547, 1.933777928352356, 3.6853437423706055, 3.619182586669922, 1.922373652458191, 0.967464804649353, 2.7251477241516113, 3.918773889541626, 4.552666664123535, 3.410639762878418, 3.9018590450286865], "GROUPED_CONVOLUTIONAL_FILTER_WEIGHTS": [[[-1.1013867855072021]], [[-0.4100210964679718]], [[0.7556028366088867]], [[0.5919978618621826]], [[1.008354663848877]], [[-0.8136102557182312]], [[-0.9846178293228149]], [[0.09263310581445694]], [[0.7397067546844482]], [[1.1504632234573364]], [[-0.7246361970901489]], [[-0.3582801818847656]], [[0.327853262424469]], [[1.1025069952011108]], [[0.7475734353065491]], [[-0.6199105978012085]], [[-0.10671743005514145]], [[0.6562851071357727]], [[-0.1594250500202179]], [[0.9839109778404236]], [[-2.224233865737915]], [[-0.04316793382167816]], [[0.013494478538632393]], [[1.3299914598464966]], [[0.9575539827346802]], [[-1.6885623931884766]], [[0.23686107993125916]], [[0.7188926935195923]], [[0.15422534942626953]], [[0.8826743960380554]], [[-1.4539151191711426]], [[-1.0884108543395996]], [[0.7531334161758423]], [[-0.13037528097629547]], [[1.4551610946655273]], [[-1.8305100202560425]], [[0.85713791847229]], [[-0.03666841611266136]], [[0.5454235076904297]], [[0.9031113386154175]], [[-0.23059600591659546]], [[-0.5515092611312866]], [[0.16107796132564545]], [[0.792722761631012]], [[0.3602364659309387]], [[-1.1321220397949219]], [[-0.4624345004558563]], [[0.011781428009271622]], [[0.9709965586662292]], [[0.9333102107048035]], [[-1.3022480010986328]], [[0.38179633021354675]], [[0.12060951441526413]], [[1.3846256732940674]], [[0.14351701736450195]], [[-0.9898875951766968]], [[-0.02189517393708229]], [[0.49401479959487915]], [[1.5708332061767578]], [[0.7595413327217102]], [[-1.1826545000076294]], [[-0.35408279299736023]], [[0.683428943157196]], [[0.7082124352455139]], [[0.6005130410194397]], [[-1.0030806064605713]], [[-0.6960074305534363]], [[0.21591491997241974]], [[1.569520354270935]], [[0.8058294653892517]], [[-2.1189229488372803]], [[0.37445130944252014]], [[0.8805979490280151]], [[0.6816387176513672]], [[0.7771443128585815]], [[-1.2190062999725342]], [[-0.49703046679496765]], [[0.3658304512500763]], [[0.8686816096305847]], [[0.9963177442550659]], [[-1.3047627210617065]], [[0.41407743096351624]], [[0.18703536689281464]], [[1.4295531511306763]], [[-0.054593801498413086]], [[-1.013815999031067]], [[0.4395613670349121]], [[1.1092820167541504]], [[0.7364540696144104]], [[-0.07784587889909744]], [[-0.8041419982910156]], [[-0.6378259658813477]], [[0.5066865682601929]], [[0.7924044728279114]], [[0.8832895755767822]], [[-1.2160232067108154]], [[0.18327385187149048]], [[1.1282700300216675]], [[0.6438128352165222]], [[-0.38861557841300964]], [[-0.6702204346656799]], [[-0.4181549847126007]], [[0.16765859723091125]], [[0.23583351075649261]], [[0.7295888066291809]], [[-1.3799943923950195]], [[-0.3755311369895935]], [[0.8330469727516174]], [[0.8194098472595215]], [[1.0758966207504272]], [[-2.357081651687622]], [[0.20696181058883667]], [[0.3345285952091217]], [[1.457844853401184]], [[1.1165878772735596]], [[-1.715164303779602]], [[-0.4976007640361786]], [[1.0609694719314575]], [[0.6315510869026184]], [[0.2930838465690613]], [[-0.7388006448745728]], [[0.08847247064113617]], [[1.2429108619689941]], [[0.06807337701320648]], [[0.7533273100852966]], [[-1.188056230545044]], [[-0.13839630782604218]], [[0.34795117378234863]], [[0.5133779048919678]], [[1.1441442966461182]], [[-1.4607759714126587]], [[0.21542023122310638]], [[1.0954476594924927]], [[0.1585198938846588]], [[0.4315853416919708]], [[-0.8880693316459656]], [[0.2967572510242462]], [[0.5847996473312378]], [[0.3098771572113037]], [[0.25339946150779724]], [[-0.3602883219718933]], [[-0.24695177376270294]], [[1.6578054428100586]], [[0.5383118391036987]], [[1.9830163717269897]], [[-1.0077106952667236]], [[-0.14709429442882538]], [[0.548796534538269]], [[0.28126925230026245]], [[1.237747311592102]], [[-1.9552844762802124]], [[-0.5407288074493408]], [[0.5905018448829651]], [[1.658780813217163]], [[0.5896812081336975]], [[-0.5473009943962097]], [[-0.49648571014404297]], [[0.2278740108013153]], [[0.415769100189209]], [[0.562061607837677]], [[-1.9100264310836792]], [[-0.8419789671897888]], [[1.0305891036987305]], [[1.3590819835662842]], [[0.478704571723938]], [[-0.9288247227668762]], [[0.02236383594572544]], [[0.5440007448196411]], [[0.7117970585823059]], [[0.5332155823707581]], [[-1.21103036403656]], [[-0.43979567289352417]], [[0.40248939394950867]], [[0.9116171002388]], [[0.8599526882171631]], [[-1.7831144332885742]], [[-0.3810957670211792]], [[0.9188755750656128]], [[0.8690321445465088]], [[0.7488238215446472]], [[-1.7645554542541504]], [[-0.14204169809818268]], [[0.1110912635922432]], [[0.5593669414520264]], [[1.4904545545578003]], [[-1.5888068675994873]], [[0.14910107851028442]], [[0.6027645468711853]], [[0.06434096395969391]], [[1.384661316871643]], [[-1.6031410694122314]], [[-0.4831414222717285]], [[0.9422512650489807]], [[0.6925241351127625]], [[0.8751994371414185]], [[-1.081595540046692]], [[-0.41627779603004456]], [[0.40212851762771606]], [[1.553559422492981]], [[0.43268197774887085]], [[-0.9752174019813538]], [[-0.629594624042511]], [[0.16032738983631134]], [[1.0692007541656494]], [[0.9433546662330627]], [[-1.7169541120529175]], [[-0.46318477392196655]], [[0.41638192534446716]], [[0.6924031972885132]], [[1.1145577430725098]], [[-1.8742072582244873]], [[0.18227426707744598]], [[1.4782902002334595]], [[0.2058822363615036]], [[0.7060801982879639]], [[-1.3075945377349854]], [[0.33078739047050476]], [[-0.010590513236820698]], [[0.5417973399162292]], [[1.0701985359191895]], [[-1.7090415954589844]], [[0.14446893334388733]], [[1.026119589805603]], [[0.31641942262649536]], [[0.654488205909729]], [[-1.3844953775405884]], [[-0.265992134809494]], [[0.6769670248031616]], [[1.0284141302108765]], [[0.5678473711013794]], [[-0.634310245513916]], [[-0.04212240129709244]], [[-0.20586265623569489]], [[0.1994773894548416]], [[1.4563556909561157]], [[-1.5320699214935303]], [[-0.25379395484924316]], [[1.6166759729385376]], [[0.1777612566947937]], [[0.8413938879966736]], [[-1.595249891281128]], [[-0.05338370427489281]], [[0.8556256890296936]], [[1.4023387432098389]], [[-0.04197215661406517]], [[-1.7055633068084717]], [[-0.6294209361076355]], [[0.9853774905204773]], [[0.9646568298339844]], [[0.5680950880050659]], [[-0.7397734522819519]], [[-0.13267137110233307]], [[-0.1467152237892151]], [[-0.1761622577905655]], [[1.0026719570159912]]], "VALUE_OF_LIFE": 10000000, "INFERRED_WEIGHTAGE_ON_AGENT_HEALTH_INDEX": [0.489, 0.78, 0.54, 0.463, 0.667, 0.666, 0.633, 0.5650000000000001, 0.655, 0.525, 0.651, 0.721, 0.5660000000000001, 0.617, 0.55, 0.46900000000000003, 0.536, 0.66, 0.6, 0.47600000000000003, 0.682, 0.52, 0.581, 0.717, 0.536, 0.652, 0.458, 0.465, 0.5680000000000001, 0.678, 0.559, 0.547, 0.654, 0.773, 0.442, 0.546, 0.637, 0.771, 0.611, 0.584, 0.535, 0.0, 0.585, 0.604, 0.593, 0.9580000000000001, 0.72, 0.742, 0.641, 0.621, 0.779], "INFERRED_WEIGHTAGE_ON_PLANNER_HEALTH_INDEX": 0.615, "MAX_MARGINAL_AGENT_ECONOMIC_INDEX": [0.0030029332265257835, 0.002970439847558737, 0.0029780722688883543, 0.003005571197718382, 0.0029770226683467627, 0.0029665350448340178, 0.0029555559158325195, 0.0029668384231626987, 0.002959833713248372, 0.003003886202350259, 0.0029773670248687267, 0.002966005355119705, 0.0029731926042586565, 0.002973176771774888, 0.002972743473947048, 0.002990481909364462, 0.00296825566329062, 0.002985225059092045, 0.00296617834828794, 0.0029631059151142836, 0.002972525777295232, 0.0029573116917163134, 0.002964286832138896, 0.00297781964763999, 0.0029779018368571997, 0.002978338161483407, 0.0029750163666903973, 0.002985396422445774, 0.002970676403492689, 0.0029856550972908735, 0.0029577272944152355, 0.002958424389362335, 0.0029560632538050413, 0.002977247815579176, 0.002976298565044999, 0.002968591870740056, 0.002984790364280343, 0.0029712975956499577, 0.0029714887496083975, 0.0029631294310092926, 0.002996480092406273, 0.0030021690763533115, 0.0029883075039833784, 0.0029791148845106363, 0.0029837912879884243, 0.0029791255947202444, 0.002986961044371128, 0.0029801083728671074, 0.0029767383821308613, 0.002985346131026745, 0.0029821188654750586], "MAX_MARGINAL_PLANNER_ECONOMIC_INDEX": 0.002920703496783972, "MAX_MARGINAL_AGENT_HEALTH_INDEX": [-5.114559462526813e-05, -6.644635050179204e-06, -8.848935067362618e-06, -0.0006520918686874211, -1.847491876105778e-05, -7.404644566122442e-05, -9.25668646232225e-05, -2.5831610400928184e-05, -4.867200550506823e-05, -0.0001154938800027594, -2.3591184799443e-05, -6.983734238019679e-06, -1.0157790711673442e-05, -3.109046883764677e-05, -3.1973944714991376e-05, -6.358767677738797e-06, -9.617565410735551e-06, -1.686355062702205e-05, -0.00010090855357702821, -1.5543972040177323e-05, -2.068038156721741e-05, -8.523654832970351e-05, -7.328733772737905e-05, -7.2790635385899805e-06, -1.901299401652068e-05, -9.203275112668052e-06, -6.058247890905477e-06, -4.802328021469293e-06, -1.986804636544548e-05, -9.820712875807658e-06, -0.00018254498718306422, -1.7659194782027043e-05, -0.0004050545976497233, -6.083445896365447e-06, -3.754924591703457e-06, -1.5577692465740256e-05, -9.809667062654626e-06, -7.2350248956354335e-06, -2.1475099856615998e-05, -6.741545075783506e-05, -1.9082008293480612e-05, -0.0014872943283990026, -1.7431906599085778e-05, -1.0303364433639217e-05, -2.471280140525778e-06, -1.8491189621272497e-05, -1.007776336336974e-05, -4.678284312831238e-05, -2.824579723892384e-06, -1.6731355572119355e-05, -5.357113082027354e-07], "MAX_MARGINAL_PLANNER_HEALTH_INDEX": -6.717309588566422e-05, "MIN_MARGINAL_AGENT_ECONOMIC_INDEX": [0.0025687767192721367, 0.0026024808175861835, 0.0025790699291974306, 0.00273117795586586, 0.0025033876299858093, 0.002695824019610882, 0.0026384631637483835, 0.0026675118133425713, 0.0027977381832897663, 0.0026032384485006332, 0.00271437200717628, 0.0023952883202582598, 0.00269819563254714, 0.0024780037347227335, 0.002585044829174876, 0.0025768226478248835, 0.002759909722954035, 0.0027970816008746624, 0.0025959245394915342, 0.0029129059985280037, 0.002807741053402424, 0.0024664169177412987, 0.0023407465778291225, 0.002782623516395688, 0.0026572553906589746, 0.002592806238681078, 0.002787579782307148, 0.002856007544323802, 0.0018155663274228573, 0.002581768436357379, 0.002492996398359537, 0.0028130325954407454, 0.00257312529720366, 0.002698282478377223, 0.0026128110475838184, 0.0025918965693563223, 0.002500390401110053, 0.0025646595750004053, 0.002575848251581192, 0.002584327943623066, 0.00258109113201499, 0.0025792974047362804, 0.002643425017595291, 0.002618890255689621, 0.0027090071234852076, 0.0026477896608412266, 0.002608441049233079, 0.0026015685871243477, 0.0027023463044315577, 0.0026356871239840984, 0.002832070691511035], "MIN_MARGINAL_PLANNER_ECONOMIC_INDEX": 0.002521783346310258, "MIN_MARGINAL_AGENT_HEALTH_INDEX": [-0.0015708596911281347, -0.005823082756251097, -0.0052887024357914925, -0.0009391704224981368, -0.004945313557982445, -0.005845360457897186, -0.006615429185330868, -0.006061634048819542, -0.006620743311941624, -0.0010872771963477135, -0.004978874232620001, -0.006565133575350046, -0.005410332232713699, -0.005509372800588608, -0.00549913477152586, -0.0036615110002458096, -0.005967979785054922, -0.004757775459438562, -0.005915053188800812, -0.006463920697569847, -0.0054260967299342155, -0.006788269151002169, -0.006263183895498514, -0.005074018612504005, -0.005039938725531101, -0.00510417902842164, -0.005443932488560677, -0.004522815812379122, -0.006110279820859432, -0.004428829066455364, -0.0066857417114079, -0.006774357985705137, -0.006637140642851591, -0.005284888669848442, -0.005329223349690437, -0.005961454473435879, -0.004301720764487982, -0.005688115023076534, -0.005669629666954279, -0.006465561222285032, -0.002874861005693674, -0.0014872943283990026, -0.0040158056654036045, -0.004955989774316549, -0.004615426994860172, -0.0048750960268080235, -0.00409639673307538, -0.004678160883486271, -0.005465425085276365, -0.004275183659046888, -0.004969263449311256], "MIN_MARGINAL_PLANNER_HEALTH_INDEX": -0.004955618642270565}