{"settings": {"LAST_DATE_IN_TRAIN_SET": "2020-11-30", "LAST_DATE_IN_VAL_SET": "2022-12-31", "FILTER_SIZE_UNEMPLOYMENT": 600, "SIMILARITY_REGULARIZATION_UNEMPLOYMENT": 0.5, "SIMILARITY_REGULARIZATION_SIR": 1.0, "env": {"economic_reward_crra_eta": 2, "start_date": "2020-03-22", "infection_too_sick_to_work_rate": 0.1, "pop_between_age_18_65": 0.6, "risk_free_interest_rate": 0.03}}, "BETA_DELAY": 19, "BETA_SLOPES": [-0.002083149146316841, -0.01371560729632028, -0.011424436209217176, -0.00021417674846646492, -0.006933490155728566, -0.016302651313909445, -0.021976940880546216, -0.015027611667733825, -0.02049632436729215, -0.0012684443956520169, -0.01048973104445181, -0.017194032124246396, -0.012501268771611864, -0.01143836972759926, -0.013060538603737563, -0.0067212150885846535, -0.01688288807282084, -0.00732788326384196, -0.01555251108305955, -0.018558939137308463, -0.010197800016497182, -0.026008323704885424, -0.01839844459165451, -0.00901908210276596, -0.009912989484092105, -0.012184418132402267, -0.010865738701655978, -0.00824883961890689, -0.015658776412508412, -0.007343924746645179, -0.025687336392182365, -0.018997538481654343, -0.02173458408903677, -0.009723754643385055, -0.01522632535061064, -0.014219802862404556, -0.009837136107620213, -0.013702791710576777, -0.01233515106776793, -0.017495098568829186, -0.0038581898438220952, 0.0, -0.005059806903521021, -0.008279652819068657, -0.00976148524190814, -0.013599986086457131, -0.006700989222300901, -0.00854383474889656, -0.01016606020999418, -0.007783745678307378, -0.00854767718434908], "BETA_INTERCEPTS": [0.0909339937130691, 0.15934908172512985, 0.14090346558341932, 0.0874313754405788, 0.12764208829535384, 0.16684521264029478, 0.2224932557519612, 0.17695271150734787, 0.21019375363558337, 0.08716936932597127, 0.1336906559126855, 0.20973853610439594, 0.15080833147783596, 0.14648534415297923, 0.14984655491595586, 0.110537697420092, 0.17482465641796435, 0.12619046011972584, 0.1647262699056331, 0.21555096854713704, 0.14377434718511678, 0.24829878480348588, 0.1892414331867255, 0.13387981001991417, 0.13184909826792304, 0.14018526342268908, 0.14661205866940122, 0.12405630739766456, 0.1708853272245163, 0.12083263910858046, 0.22682830516334695, 0.22726318123971645, 0.22862860647497482, 0.14018468286560404, 0.15135048973036935, 0.1697137890161659, 0.12073008155368109, 0.15871040433133266, 0.15150244306880184, 0.20317395740311867, 0.10065229276353373, 0.09157731666281237, 0.11147735108794629, 0.1302431516220282, 0.1279698798877931, 0.1390724799874019, 0.11496817083316735, 0.12430599998655567, 0.14262011441012512, 0.11751381777354367, 0.13140679079992296], "POLICY_START_DATE": "2020-01-01", "FILTER_LEN": 600, "CONV_LAMBDAS": [27.606163024902344, 63.03140640258789, 129.2623291015625, 264.1109313964844, 541.7522583007812], "UNEMPLOYMENT_BIAS": [2.302300214767456, 4.196135997772217, 4.061817646026611, 3.481807231903076, 4.141315937042236, 3.2424092292785645, 3.8400912284851074, 3.4298551082611084, 4.570800304412842, 3.203464984893799, 3.175257444381714, 3.8975460529327393, 2.033662796020508, 3.8569657802581787, 3.215707540512085, 2.7717010974884033, 2.38726544380188, 2.8127057552337646, 4.423931121826172, 2.1732544898986816, 3.6727170944213867, 3.132904291152954, 3.5885305404663086, 3.1682612895965576, 4.662565231323242, 3.2096681594848633, 2.4994828701019287, 2.324209213256836, 4.695400714874268, 3.448836088180542, 3.9123122692108154, 4.460674285888672, 2.684610366821289, 2.584697723388672, 1.3636841773986816, 3.778055191040039, 3.602207660675049, 2.6944973468780518, 4.118503093719482, 3.7145981788635254, 2.7467355728149414, 1.9159168004989624, 3.5859320163726807, 3.088015079498291, 1.7808347940444946, 2.5950236320495605, 2.6945276260375977, 3.4710607528686523, 4.465839862823486, 2.2828991413116455, 3.95127272605896], "GROUPED_CONVOLUTIONAL_FILTER_WEIGHTS": [[[-1.7788927555084229]], [[0.222718745470047]], [[0.1558660864830017]], [[0.8704807758331299]], [[1.2724454402923584]], [[-1.297767162322998]], [[-0.7987473011016846]], [[0.15382274985313416]], [[1.2743017673492432]], [[0.6608095765113831]], [[-0.5215616822242737]], [[0.09481055289506912]], [[-0.1867956519126892]], [[0.5835349559783936]], [[1.228536605834961]], [[-0.6302623748779297]], [[-0.21078439056873322]], [[0.3781774342060089]], [[0.6619179844856262]], [[0.5270745158195496]], [[-1.7388108968734741]], [[-0.2959674000740051]], [[-0.06817438453435898]], [[1.1069567203521729]], [[1.1989495754241943]], [[-1.7065141201019287]], [[0.1032252237200737]], [[0.5207140445709229]], [[1.0112298727035522]], [[0.3248741924762726]], [[-1.7168747186660767]], [[-0.8278260827064514]], [[0.3650152385234833]], [[0.520687997341156]], [[1.0472609996795654]], [[-0.979987382888794]], [[-0.16547231376171112]], [[0.6414449214935303]], [[0.22662869095802307]], [[0.9117588996887207]], [[0.059283796697854996]], [[-0.4691911041736603]], [[-0.23099209368228912]], [[0.6571364998817444]], [[0.6271078586578369]], [[-1.0656001567840576]], [[-0.910208523273468]], [[0.4196341335773468]], [[0.518277645111084]], [[1.4048129320144653]], [[-0.9774329662322998]], [[-0.6610510945320129]], [[1.1146960258483887]], [[1.3732233047485352]], [[-0.11577367037534714]], [[-2.3806564807891846]], [[0.7831028699874878]], [[1.561641812324524]], [[1.1820818185806274]], [[0.3863631784915924]], [[-1.1107467412948608]], [[-0.3312855660915375]], [[0.4442194104194641]], [[0.9807887673377991]], [[0.47925207018852234]], [[-1.280768871307373]], [[-0.5143093466758728]], [[0.688703715801239]], [[0.19070035219192505]], [[1.7118974924087524]], [[-1.6476072072982788]], [[-0.10770970582962036]], [[0.8270772695541382]], [[1.043876051902771]], [[0.6495785117149353]], [[-1.2468936443328857]], [[-0.42223507165908813]], [[0.7048252820968628]], [[0.521295428276062]], [[0.8840025067329407]], [[-1.0861024856567383]], [[-0.4077479839324951]], [[1.1951181888580322]], [[0.9589598178863525]], [[0.12930725514888763]], [[-0.6507949829101562]], [[-0.19593891501426697]], [[1.131232738494873]], [[1.332853078842163]], [[-0.38050833344459534]], [[-1.4097473621368408]], [[-0.10489144921302795]], [[0.5235980153083801]], [[0.7262189388275146]], [[0.7880656719207764]], [[-0.8536719083786011]], [[0.020135540515184402]], [[0.930448591709137]], [[0.5241666436195374]], [[-0.09740655869245529]], [[-0.757415235042572]], [[-0.40183690190315247]], [[0.14258281886577606]], [[0.4364723861217499]], [[0.5987201929092407]], [[-1.6767324209213257]], [[-0.36410820484161377]], [[0.33862578868865967]], [[1.8210562467575073]], [[0.755381166934967]], [[-1.9271140098571777]], [[-0.14359797537326813]], [[0.7603277564048767]], [[0.7761931419372559]], [[1.4633768796920776]], [[-1.5808151960372925]], [[-0.48743775486946106]], [[0.5430236458778381]], [[1.148905873298645]], [[0.21632252633571625]], [[-0.6190653443336487]], [[0.37236452102661133]], [[0.6556002497673035]], [[0.42812779545783997]], [[0.6408012509346008]], [[-0.8258453011512756]], [[-0.44595175981521606]], [[0.17061004042625427]], [[1.4550577402114868]], [[0.2723926603794098]], [[-1.089038372039795]], [[0.04932991415262222]], [[0.11845821887254715]], [[1.1547539234161377]], [[0.3659219741821289]], [[-0.7490833401679993]], [[0.04540190473198891]], [[0.665720522403717]], [[0.4683167636394501]], [[0.11098530143499374]], [[-0.19740131497383118]], [[-0.12850099802017212]], [[0.988768994808197]], [[1.4750689268112183]], [[1.517989158630371]], [[-1.090644359588623]], [[-0.3216097354888916]], [[1.0193171501159668]], [[0.5279805064201355]], [[0.613204300403595]], [[-1.6803258657455444]], [[-0.4916419982910156]], [[-0.010548469610512257]], [[1.6769965887069702]], [[0.9564169645309448]], [[-0.7595735788345337]], [[-0.3730563521385193]], [[0.41295504570007324]], [[0.10711365938186646]], [[0.6826556921005249]], [[-2.6075944900512695]], [[-0.49522846937179565]], [[1.3631523847579956]], [[0.849616527557373]], [[0.9007003903388977]], [[-1.5315793752670288]], [[0.07816362380981445]], [[0.8678517937660217]], [[1.075188398361206]], [[0.31169018149375916]], [[-1.1092664003372192]], [[-0.5521371364593506]], [[0.2231474369764328]], [[0.8334885835647583]], [[1.239310383796692]], [[-1.089016318321228]], [[-0.6458700299263]], [[0.5448933243751526]], [[1.0464770793914795]], [[0.6831298470497131]], [[-1.8339976072311401]], [[-0.5941546559333801]], [[0.9813253879547119]], [[1.1569653749465942]], [[0.38132378458976746]], [[-1.6155506372451782]], [[-0.24219216406345367]], [[0.6225667595863342]], [[0.963215172290802]], [[0.8397151231765747]], [[-1.2945016622543335]], [[-0.6057924032211304]], [[0.7022546529769897]], [[0.552125096321106]], [[1.203417181968689]], [[-1.8006222248077393]], [[0.4140535891056061]], [[0.5145753026008606]], [[0.49245238304138184]], [[1.0441018342971802]], [[-1.2177177667617798]], [[-0.5926152467727661]], [[0.7521700263023376]], [[0.6081737279891968]], [[0.8597708344459534]], [[-1.5248961448669434]], [[-0.6207302808761597]], [[0.2793010175228119]], [[0.7653340101242065]], [[1.182953119277954]], [[-1.5575573444366455]], [[0.05645986273884773]], [[0.8875246047973633]], [[0.81382817029953]], [[0.5794991850852966]], [[-1.4403401613235474]], [[-0.044313687831163406]], [[0.437857061624527]], [[0.6680284738540649]], [[0.9818428158760071]], [[-1.4515175819396973]], [[0.14815577864646912]], [[0.7812049388885498]], [[0.14661283791065216]], [[0.9436842203140259]], [[-1.8559341430664062]], [[0.5212749242782593]], [[0.6167891025543213]], [[0.7041580677032471]], [[0.303327739238739]], [[-0.8236890435218811]], [[0.028773564845323563]], [[-0.05893402919173241]], [[0.05783695727586746]], [[1.4976155757904053]], [[-1.0204970836639404]], [[-0.5362530946731567]], [[1.194949746131897]], [[0.2807500660419464]], [[1.1019272804260254]], [[-1.5521310567855835]], [[-0.2795654535293579]], [[1.4481440782546997]], [[0.461852490901947]], [[0.47714516520500183]], [[-2.065218210220337]], [[-0.47512051463127136]], [[0.6143391132354736]], [[1.4107202291488647]], [[0.7394160628318787]], [[-1.3214117288589478]], [[-0.3221597671508789]], [[0.3317679464817047]], [[0.3347010314464569]], [[0.448828786611557]]], "VALUE_OF_LIFE": 10000000, "INFERRED_WEIGHTAGE_ON_AGENT_HEALTH_INDEX": [0.449, 0.5650000000000001, 0.422, 0.366, 0.543, 0.512, 0.578, 0.47200000000000003, 0.552, 0.489, 0.551, 0.755, 0.517, 0.508, 0.532, 0.454, 0.456, 0.539, 0.507, 0.514, 0.595, 0.545, 0.8200000000000001, 0.647, 0.425, 0.5730000000000001, 0.389, 0.447, 0.602, 0.5740000000000001, 0.506, 0.405, 0.526, 0.63, 0.514, 0.453, 0.468, 0.663, 0.527, 0.505, 0.397, 0.331, 0.41300000000000003, 0.489, 0.562, 0.932, 0.611, 0.5640000000000001, 0.403, 0.549, 0.685], "INFERRED_WEIGHTAGE_ON_PLANNER_HEALTH_INDEX": 0.518, "MAX_MARGINAL_AGENT_ECONOMIC_INDEX": [1.0535602569580078, 1.0878713130950928, 1.067226767539978, 1.1116664409637451, 1.0705496072769165, 1.1014947891235352, 1.1240806579589844, 1.108612298965454, 1.1548810005187988, 1.0693625211715698, 1.0726051330566406, 1.0352987051010132, 1.1029603481292725, 1.0660370588302612, 1.0581635236740112, 1.0675755739212036, 1.0855557918548584, 1.0855224132537842, 1.0992770195007324, 1.2166141271591187, 1.133405327796936, 1.055423378944397, 1.0451940298080444, 1.1222385168075562, 1.0790560245513916, 1.0859845876693726, 1.0986430644989014, 1.1685609817504883, 1.0230311155319214, 1.0691183805465698, 1.0656101703643799, 1.163576602935791, 1.078205943107605, 1.0812922716140747, 1.0545365810394287, 1.0792771577835083, 1.0637422800064087, 1.06538987159729, 1.0633713006973267, 1.079958438873291, 1.0593204498291016, 1.0649505853652954, 1.073957085609436, 1.080060601234436, 1.0745630264282227, 1.1143791675567627, 1.0960097312927246, 1.070774793624878, 1.0777225494384766, 1.0596076250076294, 1.1796189546585083], "MAX_MARGINAL_PLANNER_ECONOMIC_INDEX": 0.9950346350669861, "MAX_MARGINAL_AGENT_HEALTH_INDEX": [1.005487084388733, 1.0266335010528564, 1.0022481679916382, 1.0123714208602905, 1.0031183958053589, 1.0065912008285522, 1.0253978967666626, 1.0064224004745483, 1.0136213302612305, 1.013187050819397, 1.006635069847107, 1.001929759979248, 1.002985954284668, 1.0069057941436768, 1.0071181058883667, 1.0012747049331665, 1.0029054880142212, 1.0039488077163696, 1.0253615379333496, 1.0035635232925415, 1.0049210786819458, 1.0184550285339355, 1.0157743692398071, 1.0014064311981201, 1.004613995552063, 1.0022600889205933, 1.0103858709335327, 1.000967025756836, 1.0044816732406616, 1.0019335746765137, 1.0457854270935059, 1.0056867599487305, 1.1087137460708618, 1.00149405002594, 1.0008718967437744, 1.00369131565094, 1.0023729801177979, 1.0019702911376953, 1.0047825574874878, 1.0163966417312622, 1.0058656930923462, 1.0130507946014404, 1.0529279708862305, 1.0030728578567505, 1.0007466077804565, 1.0048778057098389, 1.0022480487823486, 1.0175549983978271, 1.0006588697433472, 1.0039176940917969, 1.0001322031021118], "MAX_MARGINAL_PLANNER_HEALTH_INDEX": 1.0143810510635376, "MIN_MARGINAL_AGENT_ECONOMIC_INDEX": [-1.2300249338150024, -1.8792444467544556, -1.5766233205795288, -3.117553472518921, -1.2722207307815552, -2.0393409729003906, -2.083573579788208, -2.1114654541015625, -3.278529644012451, -1.6472488641738892, -1.615243673324585, -0.71929532289505, -2.5956552028656006, -1.1188217401504517, -1.0166164636611938, -1.5847766399383545, -2.0065178871154785, -2.2914533615112305, -1.9517990350723267, -5.331839561462402, -2.959901809692383, -0.7683274745941162, -0.6715533137321472, -2.759575605392456, -1.8115490674972534, -1.9256110191345215, -2.7187576293945312, -4.496590614318848, -0.21206018328666687, -1.5596846342086792, -0.9427394866943359, -3.5764520168304443, -1.1923446655273438, -1.7603005170822144, -1.1208282709121704, -1.486696720123291, -1.3525867462158203, -1.4102749824523926, -1.115732192993164, -1.4605399370193481, -1.3390334844589233, -1.4113856554031372, -1.6665875911712646, -1.9439122676849365, -1.9173252582550049, -2.7856764793395996, -2.369856834411621, -1.5294971466064453, -1.7555447816848755, -1.256932258605957, -5.273169994354248], "MIN_MARGINAL_PLANNER_ECONOMIC_INDEX": -1.664099097251892, "MIN_MARGINAL_AGENT_HEALTH_INDEX": [0.645742654800415, 0.31222739815711975, 0.7195113301277161, 0.5560733079910278, 0.7224522829055786, 0.7264619469642639, 0.7453126907348633, 0.7263175845146179, 0.7335357069969177, 0.5866698622703552, 0.7209166884422302, 0.7129010558128357, 0.7131914496421814, 0.7266958355903625, 0.7266696095466614, 0.7079432606697083, 0.7207099795341492, 0.7185846567153931, 0.7451392412185669, 0.7233109474182129, 0.7247418165206909, 0.7383691668510437, 0.7356829047203064, 0.7209022641181946, 0.7221190929412842, 0.7410545945167542, 0.5806261301040649, 0.717415452003479, 0.7238211631774902, 0.7199374437332153, 0.7657011151313782, 0.7255919575691223, 0.8286315202713013, 0.7209069728851318, 0.7181841135025024, 0.7235679030418396, 0.7193112373352051, 0.7176042199134827, 0.7246508002281189, 0.7363121509552002, 0.6582149863243103, 0.305292010307312, 0.4175145924091339, 0.7084088325500488, 0.6887248158454895, 0.7210306525230408, 0.7157784104347229, 0.7183356881141663, 0.7203063368797302, 0.7132706046104431, 0.7088539004325867], "MIN_MARGINAL_PLANNER_HEALTH_INDEX": 0.7242546677589417}