{"settings": {"LAST_DATE_IN_TRAIN_SET": "2020-11-30", "LAST_DATE_IN_VAL_SET": "2021-12-31", "FILTER_SIZE_UNEMPLOYMENT": 600, "SIMILARITY_REGULARIZATION_UNEMPLOYMENT": 0.5, "SIMILARITY_REGULARIZATION_SIR": 1.0, "env": {"economic_reward_crra_eta": 2, "start_date": "2020-03-22", "infection_too_sick_to_work_rate": 0.1, "pop_between_age_18_65": 0.6, "risk_free_interest_rate": 0.03}}, "BETA_DELAY": 21, "BETA_SLOPES": [-0.0028734967533037554, -0.011670398670180947, -0.011632466270272838, -0.0003441542034346497, -0.00823677887278724, -0.01470129499108795, -0.021808343499752882, -0.015371168255710799, -0.020174716687583805, -0.0018410243732486546, -0.010158922637305525, -0.01556673475294843, -0.01203030886223193, -0.011992568861988262, -0.013298918258938495, -0.0082401671988641, -0.01603768909968582, -0.007550530828915681, -0.015060280216776061, -0.01670710554954142, -0.01126616502799404, -0.02496864622053994, -0.01835718622622131, -0.010100278194920851, -0.01022131754232128, -0.012523214092679, -0.009555304329361794, -0.008920211433942763, -0.014707636770980033, -0.008275698977596637, -0.024989819233996277, -0.020220331956112413, -0.019949127476599878, -0.011153299920384713, -0.01616874378831669, -0.014893822352611547, -0.010471456568685826, -0.012862595009941493, -0.013815298337459174, -0.017091793665902574, -0.004349386719522645, 0.0, -0.004709576332649534, -0.00835330226641823, -0.008964119745682893, -0.014247194312896106, -0.00733415760308773, -0.007428489465475353, -0.01127436981668604, -0.008154204638180902, -0.008647325539790652], "BETA_INTERCEPTS": [0.09456808313380947, 0.1470052924857802, 0.141819941086593, 0.08795597143062468, 0.1362698026918441, 0.15706843134907925, 0.22065459922660147, 0.17878629211466773, 0.20748227504652572, 0.09037542592422813, 0.13171330442338233, 0.1967216129897882, 0.14779727824004016, 0.14922598349714297, 0.15068996510617447, 0.11607261185998832, 0.16980153987347194, 0.1274016979401764, 0.16153355621946458, 0.20135201295527344, 0.15032624971363323, 0.2411135323182272, 0.18836354719825438, 0.13970976223092454, 0.13317349172647377, 0.14145949549244477, 0.13898942087959335, 0.1270445111634818, 0.16503655792562003, 0.12590265501093298, 0.2222230778571742, 0.23598261340077664, 0.21550517084650883, 0.14899914529890046, 0.1548748951894861, 0.17346707730387265, 0.12330231160502357, 0.1534042926371489, 0.15957155642200102, 0.1996565421033903, 0.10300231537920287, 0.09101914853844795, 0.10946516882328272, 0.13047804020614062, 0.12410728135999045, 0.14271840260428714, 0.11820537084468755, 0.11780331796963406, 0.14879262048550318, 0.11892227544497963, 0.13194861936323074], "POLICY_START_DATE": "2020-01-01", "FILTER_LEN": 600, "CONV_LAMBDAS": [25.99382209777832, 63.286903381347656, 128.83973693847656, 264.1304016113281, 541.8994750976562], "UNEMPLOYMENT_BIAS": [2.6477503776550293, 4.325940132141113, 4.135741710662842, 3.537353515625, 4.232422351837158, 3.381305456161499, 3.1398842334747314, 3.5680549144744873, 4.821529865264893, 4.043539047241211, 2.9054203033447266, 3.784423351287842, 2.443985939025879, 3.800621509552002, 2.9823427200317383, 2.5862998962402344, 3.117011070251465, 3.061333179473877, 4.320423603057861, 2.560642957687378, 3.4780571460723877, 3.3208470344543457, 3.8642592430114746, 3.1224734783172607, 4.4377055168151855, 2.309785842895508, 2.7942280769348145, 2.329164981842041, 4.55495023727417, 1.6871930360794067, 3.9081876277923584, 4.33353328704834, 3.431034803390503, 2.8023507595062256, 1.9485160112380981, 3.8053808212280273, 2.583327293395996, 3.782947063446045, 4.248002529144287, 3.2934179306030273, 2.8780219554901123, 2.0458765029907227, 3.641690254211426, 4.0116143226623535, 2.3295750617980957, 2.1667017936706543, 2.9883573055267334, 3.94160795211792, 4.361823081970215, 1.6907414197921753, 3.802462339401245], "GROUPED_CONVOLUTIONAL_FILTER_WEIGHTS": [[[-1.6391104459762573]], [[-0.3475431799888611]], [[0.6459223031997681]], [[1.3766063451766968]], [[0.6118727922439575]], [[-1.5246763229370117]], [[-0.9627668261528015]], [[1.1531614065170288]], [[0.15571582317352295]], [[1.0432451963424683]], [[-0.8182010650634766]], [[-0.1775600016117096]], [[0.7062328457832336]], [[0.08946172147989273]], [[1.2234386205673218]], [[-0.7271404266357422]], [[-0.22017213702201843]], [[0.5978817343711853]], [[0.4290374219417572]], [[0.583654522895813]], [[-2.1089539527893066]], [[-0.3562163710594177]], [[0.7049460411071777]], [[0.3579418659210205]], [[1.4034634828567505]], [[-1.7960046529769897]], [[0.11321082711219788]], [[0.6464287638664246]], [[0.82468581199646]], [[0.3664688169956207]], [[-1.0604627132415771]], [[-1.097100019454956]], [[-0.2366914302110672]], [[0.9845322966575623]], [[1.1491364240646362]], [[-1.217893123626709]], [[-0.04342546686530113]], [[0.5292709469795227]], [[0.6012580394744873]], [[0.6201975345611572]], [[-0.15530623495578766]], [[-0.298592209815979]], [[0.02177799865603447]], [[0.2602861225605011]], [[0.723196268081665]], [[-1.5467922687530518]], [[-0.3349548578262329]], [[0.5240986347198486]], [[0.2903980016708374]], [[1.206717610359192]], [[-1.60165536403656]], [[0.26873883605003357]], [[0.8289405107498169]], [[0.5442915558815002]], [[0.5718612670898438]], [[-1.785974144935608]], [[0.9136565923690796]], [[0.6671614646911621]], [[1.037271499633789]], [[0.8908655643463135]], [[-1.3732473850250244]], [[-0.002350747585296631]], [[0.4080495536327362]], [[1.1373752355575562]], [[0.1754702776670456]], [[-1.5771033763885498]], [[0.03676149621605873]], [[-0.36204981803894043]], [[1.5330721139907837]], [[1.0691319704055786]], [[-1.806530237197876]], [[0.25367337465286255]], [[0.5947129130363464]], [[0.581675112247467]], [[1.1139822006225586]], [[-1.1931614875793457]], [[-0.6385645270347595]], [[0.614773690700531]], [[0.9744381904602051]], [[0.6789608001708984]], [[-1.339071273803711]], [[-0.03886311128735542]], [[1.406508445739746]], [[0.41609373688697815]], [[0.15541236102581024]], [[-0.6227244138717651]], [[0.4476178288459778]], [[0.5013864040374756]], [[0.8396536707878113]], [[0.11704910546541214]], [[-0.9092415571212769]], [[-0.223494753241539]], [[0.39577949047088623]], [[0.0664406418800354]], [[1.3920034170150757]], [[-0.2188064604997635]], [[0.16598203778266907]], [[0.29703307151794434]], [[0.09694815427064896]], [[0.4168587028980255]], [[-0.4592861533164978]], [[-0.700634777545929]], [[0.07675456255674362]], [[0.5557482838630676]], [[0.6394996643066406]], [[-2.0478663444519043]], [[0.3463510572910309]], [[0.5093476176261902]], [[0.18907056748867035]], [[1.746971845626831]], [[-2.1849358081817627]], [[-0.327035516500473]], [[0.563876211643219]], [[2.0335235595703125]], [[0.5714842081069946]], [[-1.4980789422988892]], [[-0.6021847724914551]], [[0.8475785255432129]], [[0.48670658469200134]], [[0.6121763586997986]], [[-0.4242492914199829]], [[-0.08163382112979889]], [[0.9548116326332092]], [[0.1572117954492569]], [[0.888455867767334]], [[-1.0427230596542358]], [[-0.2550203800201416]], [[-0.014118213206529617]], [[0.944363534450531]], [[1.0357508659362793]], [[-1.5568792819976807]], [[0.3049376904964447]], [[0.6021316051483154]], [[0.7652427554130554]], [[0.2849811911582947]], [[-0.8756935000419617]], [[0.2531603276729584]], [[0.42401665449142456]], [[0.6300601959228516]], [[0.05679025873541832]], [[-1.0229586362838745]], [[0.7085685729980469]], [[0.5877501368522644]], [[0.9765011072158813]], [[2.063279390335083]], [[-0.5897859930992126]], [[-0.42203080654144287]], [[-0.030740777030587196]], [[0.6341397166252136]], [[1.5280126333236694]], [[-2.5175626277923584]], [[-0.3045669496059418]], [[0.8077011108398438]], [[1.0213510990142822]], [[1.0622185468673706]], [[-0.413578599691391]], [[-0.3847988247871399]], [[-0.24872414767742157]], [[0.7079734206199646]], [[0.5484679937362671]], [[-1.994887113571167]], [[-0.27601510286331177]], [[0.5186415910720825]], [[0.9177258014678955]], [[0.9956658482551575]], [[-2.056185483932495]], [[0.4938426613807678]], [[0.7645747661590576]], [[1.247733473777771]], [[0.09966472536325455]], [[-1.2332673072814941]], [[-0.44392839074134827]], [[0.3164058327674866]], [[1.0884332656860352]], [[0.7249130010604858]], [[-1.646152377128601]], [[-0.29082539677619934]], [[0.330089807510376]], [[1.6126092672348022]], [[0.2856079339981079]], [[-1.3950897455215454]], [[-0.617871880531311]], [[-0.12088324129581451]], [[1.057626724243164]], [[1.4057056903839111]], [[-1.5596562623977661]], [[-0.09049645811319351]], [[0.6606504917144775]], [[0.7426985502243042]], [[0.6554426550865173]], [[-1.70431649684906]], [[-0.36360523104667664]], [[0.6976189017295837]], [[0.9158320426940918]], [[0.8346035480499268]], [[-2.110922336578369]], [[0.570529580116272]], [[0.0746975913643837]], [[1.5206060409545898]], [[0.5124903321266174]], [[-1.5889966487884521]], [[-0.21477104723453522]], [[0.434169739484787]], [[1.2152751684188843]], [[0.40942010283470154]], [[-1.731824517250061]], [[-0.4794713258743286]], [[0.33206287026405334]], [[0.9889347553253174]], [[0.8618585467338562]], [[-1.5144859552383423]], [[0.15813390910625458]], [[0.535500705242157]], [[1.1746829748153687]], [[0.4157786965370178]], [[-1.2049860954284668]], [[-0.09356670081615448]], [[0.2534613311290741]], [[1.1759151220321655]], [[0.4102354347705841]], [[-1.844495415687561]], [[0.20388874411582947]], [[1.0167686939239502]], [[0.5447462797164917]], [[0.32407188415527344]], [[-1.9964227676391602]], [[0.3547345697879791]], [[0.5457395911216736]], [[1.3886204957962036]], [[-0.0641828253865242]], [[-0.9623163938522339]], [[-0.49970000982284546]], [[0.35387134552001953]], [[1.1026724576950073]], [[0.49499765038490295]], [[-1.370273232460022]], [[0.29157304763793945]], [[0.6077328324317932]], [[0.413254976272583]], [[0.9721327424049377]], [[-1.314858317375183]], [[-0.06047612428665161]], [[0.5574600100517273]], [[0.9473252296447754]], [[0.5092318654060364]], [[-1.7509573698043823]], [[-0.6825884580612183]], [[0.3108089566230774]], [[1.1974711418151855]], [[1.2812503576278687]], [[-0.9806731939315796]], [[-0.6848652958869934]], [[0.2700471878051758]], [[0.5713176131248474]], [[0.4004390239715576]]], "VALUE_OF_LIFE": 10000000, "INFERRED_WEIGHTAGE_ON_AGENT_HEALTH_INDEX": [0.541, 0.649, 0.523, 0.47200000000000003, 0.62, 0.616, 0.67, 0.5740000000000001, 0.657, 0.58, 0.647, 0.799, 0.625, 0.594, 0.62, 0.562, 0.56, 0.641, 0.603, 0.633, 0.6920000000000001, 0.616, 0.865, 0.744, 0.53, 0.673, 0.493, 0.5680000000000001, 0.662, 0.67, 0.591, 0.511, 0.599, 0.719, 0.612, 0.547, 0.5650000000000001, 0.739, 0.61, 0.585, 0.485, 0.425, 0.501, 0.59, 0.663, 0.9580000000000001, 0.709, 0.65, 0.501, 0.64, 0.786], "INFERRED_WEIGHTAGE_ON_PLANNER_HEALTH_INDEX": 0.607, "MAX_MARGINAL_AGENT_ECONOMIC_INDEX": [0.9157705307006836, 0.8938297033309937, 0.895337700843811, 0.8084146976470947, 0.924480140209198, 0.8835486769676208, 0.8996478319168091, 0.882064163684845, 0.8341080546379089, 0.8938390016555786, 0.8951189517974854, 0.9370190501213074, 0.841099739074707, 0.9277397394180298, 0.9303176999092102, 0.8967664837837219, 0.8743672370910645, 0.8518797159194946, 0.888481616973877, 0.712394118309021, 0.8487899899482727, 0.9465001225471497, 0.9451943635940552, 0.8457756042480469, 0.8808579444885254, 0.8839762806892395, 0.8286854028701782, 0.7437739968299866, 0.9641795754432678, 0.896192193031311, 0.9402729272842407, 0.8068264722824097, 0.9354420900344849, 0.8874961137771606, 0.9243102073669434, 0.9110138416290283, 0.9123767614364624, 0.9063723683357239, 0.9313526749610901, 0.917168915271759, 0.9114484190940857, 0.9114691019058228, 0.8950228095054626, 0.8729759454727173, 0.8728276491165161, 0.8304785490036011, 0.8579992055892944, 0.8972328901290894, 0.8918372392654419, 0.9161100387573242, 0.6988691091537476], "MAX_MARGINAL_PLANNER_ECONOMIC_INDEX": 0.8278608322143555, "MAX_MARGINAL_AGENT_HEALTH_INDEX": [1.0042822360992432, 1.0192314386367798, 1.001761794090271, 1.0083448886871338, 1.0024350881576538, 1.005149245262146, 1.0198410749435425, 1.0050227642059326, 1.0106408596038818, 1.0099623203277588, 1.0051833391189575, 1.0014703273773193, 1.002331018447876, 1.0054004192352295, 1.0055603981018066, 1.0009961128234863, 1.0022740364074707, 1.0030803680419922, 1.0198169946670532, 1.0027873516082764, 1.003844141960144, 1.014417052268982, 1.012322187423706, 1.001098871231079, 1.0036046504974365, 1.001814842224121, 1.0069245100021362, 1.000755786895752, 1.0035009384155273, 1.001510739326477, 1.0357671976089478, 1.0044225454330444, 1.0849312543869019, 1.0011671781539917, 1.0006757974624634, 1.002884030342102, 1.0018539428710938, 1.0015336275100708, 1.0037306547164917, 1.0128138065338135, 1.004530429840088, 1.0089255571365356, 1.0291149616241455, 1.002398133277893, 1.0005829334259033, 1.0038107633590698, 1.001761794090271, 1.0136975049972534, 1.0005146265029907, 1.0030659437179565, 1.0001035928726196], "MAX_MARGINAL_PLANNER_HEALTH_INDEX": 1.0111759901046753, "MIN_MARGINAL_AGENT_ECONOMIC_INDEX": [-1.617690086364746, -2.2725212574005127, -1.9570389986038208, -3.513988733291626, -1.6709247827529907, -2.451550245285034, -2.52397084236145, -2.513390064239502, -3.799367904663086, -2.0260560512542725, -1.9913606643676758, -1.064416766166687, -2.999119520187378, -1.483924388885498, -1.374101996421814, -1.9778404235839844, -2.4002747535705566, -2.6699225902557373, -2.3531124591827393, -5.845292568206787, -3.4901959896087646, -1.1248539686203003, -1.0065184831619263, -3.1987316608428955, -2.1736042499542236, -2.3223257064819336, -3.097930669784546, -4.965628623962402, -0.5292996764183044, -1.9290026426315308, -1.3012137413024902, -4.033228874206543, -1.58614981174469, -2.1349148750305176, -1.5086157321929932, -1.8744183778762817, -1.7405911684036255, -1.7866188287734985, -1.5169090032577515, -1.879066824913025, -1.7218561172485352, -1.800154209136963, -2.0324487686157227, -2.3136799335479736, -2.2903709411621094, -3.1571145057678223, -2.797266721725464, -1.8705633878707886, -2.176356792449951, -1.6302180290222168, -5.815041542053223], "MIN_MARGINAL_PLANNER_ECONOMIC_INDEX": -2.0642664432525635, "MIN_MARGINAL_AGENT_HEALTH_INDEX": [0.4422057271003723, -0.09696647524833679, 0.560005784034729, 0.29542291164398193, 0.5639211535453796, 0.5674741864204407, 0.5822349786758423, 0.5673791766166687, 0.5730340480804443, 0.3435702919960022, 0.5587758421897888, 0.5498908162117004, 0.5495551228523254, 0.5675926208496094, 0.5673866868019104, 0.5426940321922302, 0.5613637566566467, 0.5572262406349182, 0.5819921493530273, 0.5649127960205078, 0.5660909414291382, 0.5768099427223206, 0.5747068524360657, 0.5628382563591003, 0.562233567237854, 0.5937064290046692, 0.335467129945755, 0.5577337741851807, 0.5649958848953247, 0.5609188675880432, 0.5981624722480774, 0.5668013691902161, 0.6473259925842285, 0.5627769827842712, 0.55901038646698, 0.5652180910110474, 0.5595972537994385, 0.557246208190918, 0.5660585165023804, 0.5752030611038208, 0.46135976910591125, -0.0968720093369484, 0.036356259137392044, 0.5420065522193909, 0.5130789279937744, 0.5603269934654236, 0.5541734099388123, 0.5461961030960083, 0.5624906420707703, 0.5489506721496582, 0.5450093150138855], "MIN_MARGINAL_PLANNER_HEALTH_INDEX": 0.5578879714012146}