{"settings": {"LAST_DATE_IN_TRAIN_SET": "2020-11-30", "LAST_DATE_IN_VAL_SET": "2022-12-31", "FILTER_SIZE_UNEMPLOYMENT": 600, "SIMILARITY_REGULARIZATION_UNEMPLOYMENT": 0.5, "SIMILARITY_REGULARIZATION_SIR": 1.0, "env": {"economic_reward_crra_eta": 2, "start_date": "2020-03-22", "infection_too_sick_to_work_rate": 0.1, "pop_between_age_18_65": 0.6, "risk_free_interest_rate": 0.03}}, "BETA_DELAY": 19, "BETA_SLOPES": [-0.002083149146316841, -0.01371560729632028, -0.011424436209217176, -0.00021417674846646492, -0.006933490155728566, -0.016302651313909445, -0.021976940880546216, -0.015027611667733825, -0.02049632436729215, -0.0012684443956520169, -0.01048973104445181, -0.017194032124246396, -0.012501268771611864, -0.01143836972759926, -0.013060538603737563, -0.0067212150885846535, -0.01688288807282084, -0.00732788326384196, -0.01555251108305955, -0.018558939137308463, -0.010197800016497182, -0.026008323704885424, -0.01839844459165451, -0.00901908210276596, -0.009912989484092105, -0.012184418132402267, -0.010865738701655978, -0.00824883961890689, -0.015658776412508412, -0.007343924746645179, -0.025687336392182365, -0.018997538481654343, -0.02173458408903677, -0.009723754643385055, -0.01522632535061064, -0.014219802862404556, -0.009837136107620213, -0.013702791710576777, -0.01233515106776793, -0.017495098568829186, -0.0038581898438220952, 0.0, -0.005059806903521021, -0.008279652819068657, -0.00976148524190814, -0.013599986086457131, -0.006700989222300901, -0.00854383474889656, -0.01016606020999418, -0.007783745678307378, -0.00854767718434908], "BETA_INTERCEPTS": [0.0909339937130691, 0.15934908172512985, 0.14090346558341932, 0.0874313754405788, 0.12764208829535384, 0.16684521264029478, 0.2224932557519612, 0.17695271150734787, 0.21019375363558337, 0.08716936932597127, 0.1336906559126855, 0.20973853610439594, 0.15080833147783596, 0.14648534415297923, 0.14984655491595586, 0.110537697420092, 0.17482465641796435, 0.12619046011972584, 0.1647262699056331, 0.21555096854713704, 0.14377434718511678, 0.24829878480348588, 0.1892414331867255, 0.13387981001991417, 0.13184909826792304, 0.14018526342268908, 0.14661205866940122, 0.12405630739766456, 0.1708853272245163, 0.12083263910858046, 0.22682830516334695, 0.22726318123971645, 0.22862860647497482, 0.14018468286560404, 0.15135048973036935, 0.1697137890161659, 0.12073008155368109, 0.15871040433133266, 0.15150244306880184, 0.20317395740311867, 0.10065229276353373, 0.09157731666281237, 0.11147735108794629, 0.1302431516220282, 0.1279698798877931, 0.1390724799874019, 0.11496817083316735, 0.12430599998655567, 0.14262011441012512, 0.11751381777354367, 0.13140679079992296], "POLICY_START_DATE": "2020-01-01", "FILTER_LEN": 600, "CONV_LAMBDAS": [25.3111515045166, 62.89337158203125, 129.20132446289062, 263.79156494140625, 541.630126953125], "UNEMPLOYMENT_BIAS": [3.246778726577759, 4.464954376220703, 4.196925640106201, 3.4900386333465576, 4.38424825668335, 2.656730890274048, 3.984549045562744, 3.548496961593628, 4.775131702423096, 3.837007522583008, 3.3635668754577637, 1.8111552000045776, 2.4746601581573486, 4.227625370025635, 3.5461349487304688, 2.2510483264923096, 2.960003137588501, 2.4340333938598633, 4.242610931396484, 2.260899066925049, 3.4804813861846924, 3.795212984085083, 3.3779070377349854, 3.4257028102874756, 4.514679908752441, 2.7509407997131348, 2.910384178161621, 2.2727391719818115, 4.564707279205322, 3.3191397190093994, 4.13909387588501, 4.540371894836426, 4.12031364440918, 2.904465675354004, 1.38578200340271, 2.8718812465667725, 3.0286641120910645, 3.4915859699249268, 4.064851760864258, 1.9577497243881226, 3.1410255432128906, 2.0315723419189453, 3.0607221126556396, 3.643819570541382, 1.741981029510498, 1.8187509775161743, 2.8998899459838867, 2.9994349479675293, 3.8279356956481934, 3.3268580436706543, 3.857201099395752], "GROUPED_CONVOLUTIONAL_FILTER_WEIGHTS": [[[-1.560811996459961]], [[-0.22438132762908936]], [[0.6620588898658752]], [[1.3972532749176025]], [[0.3287557065486908]], [[-1.5027254819869995]], [[-0.7119199633598328]], [[0.3838798403739929]], [[1.1026813983917236]], [[0.5810227394104004]], [[-1.2035295963287354]], [[-0.019520968198776245]], [[0.5032334327697754]], [[1.0408828258514404]], [[0.5297431349754333]], [[-0.6461570262908936]], [[-0.1779090315103531]], [[0.22176191210746765]], [[0.8771820068359375]], [[0.42136356234550476]], [[-2.065720796585083]], [[-0.5732604265213013]], [[0.8270879983901978]], [[0.7236691117286682]], [[1.0533987283706665]], [[-1.8601100444793701]], [[0.2318810522556305]], [[0.5585415959358215]], [[0.3923758864402771]], [[0.9102648496627808]], [[-2.0857205390930176]], [[-1.0055665969848633]], [[1.0916486978530884]], [[0.13598878681659698]], [[0.9913921356201172]], [[-1.4913935661315918]], [[0.16187502443790436]], [[0.5229464173316956]], [[0.36128413677215576]], [[0.7936728000640869]], [[-0.2517443597316742]], [[-0.12747976183891296]], [[0.006402331404387951]], [[0.002169057261198759]], [[0.9087646007537842]], [[-1.19019615650177]], [[-0.41245535016059875]], [[-0.25886785984039307]], [[1.251202940940857]], [[0.891107439994812]], [[-1.2383983135223389]], [[0.1522676795721054]], [[0.6995014548301697]], [[0.5246179699897766]], [[0.5244076251983643]], [[-1.8386610746383667]], [[0.7413583993911743]], [[0.14101310074329376]], [[1.273774266242981]], [[1.469317078590393]], [[-1.0634355545043945]], [[-0.2989853024482727]], [[0.631786048412323]], [[0.5752623081207275]], [[0.5632767081260681]], [[-1.4347808361053467]], [[-1.0788379907608032]], [[1.271060824394226]], [[1.0304574966430664]], [[0.7828816771507263]], [[-1.9033087491989136]], [[0.10944168269634247]], [[0.6465320587158203]], [[1.4897111654281616]], [[0.23757308721542358]], [[-1.157270908355713]], [[-0.41631099581718445]], [[0.08949480950832367]], [[0.7494803667068481]], [[1.2294080257415771]], [[-1.5608609914779663]], [[0.37563809752464294]], [[0.743798553943634]], [[1.109288215637207]], [[-0.10785332322120667]], [[-1.3061555624008179]], [[0.5457026362419128]], [[0.9570206999778748]], [[0.7679626941680908]], [[0.10217681527137756]], [[-0.6478638052940369]], [[-0.8005131483078003]], [[0.5329691171646118]], [[0.7590769529342651]], [[0.913909912109375]], [[-1.1700001955032349]], [[0.4719511568546295]], [[0.3984963297843933]], [[1.0101847648620605]], [[-0.32609638571739197]], [[-0.5006613731384277]], [[-0.7315096259117126]], [[-0.016117339953780174]], [[0.9437530040740967]], [[0.3827087879180908]], [[-1.5924880504608154]], [[-0.8641436696052551]], [[1.0341246128082275]], [[1.8468908071517944]], [[0.3006081283092499]], [[-3.0256619453430176]], [[-0.1074214056134224]], [[1.3279529809951782]], [[1.4066197872161865]], [[0.7896687984466553]], [[-1.8629871606826782]], [[-0.10994556546211243]], [[0.2949978709220886]], [[1.2786089181900024]], [[0.07741145044565201]], [[-0.7764485478401184]], [[0.1295027881860733]], [[0.7039147615432739]], [[1.0120517015457153]], [[0.27891549468040466]], [[-1.1654192209243774]], [[-0.10790570825338364]], [[0.40577423572540283]], [[0.27704399824142456]], [[1.1658531427383423]], [[-1.4583196640014648]], [[0.48793309926986694]], [[0.09601383656263351]], [[1.0500346422195435]], [[0.24027813971042633]], [[-0.8866721391677856]], [[0.3180046081542969]], [[0.49127402901649475]], [[0.237077996134758]], [[0.3368024230003357]], [[-1.2208919525146484]], [[0.8021295070648193]], [[0.5152780413627625]], [[1.2794212102890015]], [[1.8461116552352905]], [[-1.1384333372116089]], [[-0.14706717431545258]], [[0.594222903251648]], [[0.8574261665344238]], [[0.5532617568969727]], [[-1.5195797681808472]], [[-0.610372006893158]], [[0.37694472074508667]], [[0.873324453830719]], [[1.33719801902771]], [[-0.8049858212471008]], [[-0.14595742523670197]], [[0.30700886249542236]], [[-0.2507994472980499]], [[0.9437544345855713]], [[-2.428224802017212]], [[0.007732594385743141]], [[0.8929049968719482]], [[0.5145183801651001]], [[0.9266948103904724]], [[-1.9524316787719727]], [[0.726420521736145]], [[0.65672767162323]], [[0.5221538543701172]], [[0.6327500939369202]], [[-1.1620373725891113]], [[-0.48763641715049744]], [[0.11969427764415741]], [[0.9100774526596069]], [[1.1984456777572632]], [[-1.6949893236160278]], [[-0.2677457630634308]], [[0.38213101029396057]], [[1.0617016553878784]], [[0.9180054068565369]], [[-1.737673044204712]], [[-0.2359091192483902]], [[0.17496070265769958]], [[0.6683835983276367]], [[1.302596926689148]], [[-1.554802417755127]], [[-0.031568095088005066]], [[0.1921626329421997]], [[1.3117527961730957]], [[0.5068061947822571]], [[-1.0845394134521484]], [[-0.36864322423934937]], [[0.026129981502890587]], [[0.8262065649032593]], [[1.2528096437454224]], [[-1.8634448051452637]], [[-0.8447405099868774]], [[1.4712038040161133]], [[1.4233216047286987]], [[0.49836817383766174]], [[-1.1315913200378418]], [[-0.670436441898346]], [[0.7338464260101318]], [[0.8182400465011597]], [[0.583706796169281]], [[-1.7258670330047607]], [[-0.46098244190216064]], [[0.29341280460357666]], [[0.8818168044090271]], [[0.9688035845756531]], [[-1.4819135665893555]], [[0.388062983751297]], [[-0.03142453357577324]], [[1.239701747894287]], [[0.7564818859100342]], [[-1.2515789270401]], [[-0.19523946940898895]], [[0.42775219678878784]], [[0.8426669836044312]], [[0.7127986550331116]], [[-1.674848198890686]], [[-0.1287468671798706]], [[0.9793632626533508]], [[0.7180522680282593]], [[0.4743284583091736]], [[-1.7583696842193604]], [[-0.1152108758687973]], [[0.7426064014434814]], [[1.4333171844482422]], [[-0.011893031187355518]], [[-0.6657013893127441]], [[-0.1356039196252823]], [[-0.23080988228321075]], [[0.5928135514259338]], [[1.12900972366333]], [[-1.4570891857147217]], [[-0.0579826682806015]], [[0.5970799326896667]], [[0.7255162000656128]], [[1.0914965867996216]], [[-1.0153440237045288]], [[-0.025647010654211044]], [[0.16862763464450836]], [[0.4578249454498291]], [[1.2225639820098877]], [[-1.820900797843933]], [[-0.39193764328956604]], [[0.9277329444885254]], [[0.6319310069084167]], [[0.7878341674804688]], [[-1.093053936958313]], [[-0.330718070268631]], [[-0.14014354348182678]], [[0.7492562532424927]], [[0.3665972948074341]]], "VALUE_OF_LIFE": 10000000, "INFERRED_WEIGHTAGE_ON_AGENT_HEALTH_INDEX": [0.449, 0.5650000000000001, 0.422, 0.366, 0.543, 0.512, 0.578, 0.47200000000000003, 0.552, 0.489, 0.551, 0.755, 0.517, 0.508, 0.532, 0.454, 0.456, 0.539, 0.507, 0.514, 0.595, 0.545, 0.8200000000000001, 0.647, 0.425, 0.5730000000000001, 0.389, 0.447, 0.602, 0.5740000000000001, 0.506, 0.405, 0.526, 0.63, 0.514, 0.453, 0.468, 0.663, 0.527, 0.505, 0.397, 0.331, 0.41300000000000003, 0.489, 0.562, 0.932, 0.611, 0.5640000000000001, 0.403, 0.549, 0.685], "INFERRED_WEIGHTAGE_ON_PLANNER_HEALTH_INDEX": 0.518, "MAX_MARGINAL_AGENT_ECONOMIC_INDEX": [1.0535602569580078, 1.0878713130950928, 1.067226767539978, 1.1116664409637451, 1.0705496072769165, 1.1014947891235352, 1.1240806579589844, 1.108612298965454, 1.1548810005187988, 1.0693625211715698, 1.0726051330566406, 1.0352987051010132, 1.1029603481292725, 1.0660370588302612, 1.0581635236740112, 1.0675755739212036, 1.0855557918548584, 1.0855224132537842, 1.0992770195007324, 1.2166141271591187, 1.133405327796936, 1.055423378944397, 1.0451940298080444, 1.1222385168075562, 1.0790560245513916, 1.0859845876693726, 1.0986430644989014, 1.1685609817504883, 1.0230311155319214, 1.0691183805465698, 1.0656101703643799, 1.163576602935791, 1.078205943107605, 1.0812922716140747, 1.0545365810394287, 1.0792771577835083, 1.0637422800064087, 1.06538987159729, 1.0633713006973267, 1.079958438873291, 1.0593204498291016, 1.0649505853652954, 1.073957085609436, 1.080060601234436, 1.0745630264282227, 1.1143791675567627, 1.0960097312927246, 1.070774793624878, 1.0777225494384766, 1.0596076250076294, 1.1796189546585083], "MAX_MARGINAL_PLANNER_ECONOMIC_INDEX": 0.9950346350669861, "MAX_MARGINAL_AGENT_HEALTH_INDEX": [1.005487084388733, 1.0266335010528564, 1.0022481679916382, 1.0123714208602905, 1.0031183958053589, 1.0065912008285522, 1.0253978967666626, 1.0064224004745483, 1.0136213302612305, 1.013187050819397, 1.006635069847107, 1.001929759979248, 1.002985954284668, 1.0069057941436768, 1.0071181058883667, 1.0012747049331665, 1.0029054880142212, 1.0039488077163696, 1.0253615379333496, 1.0035635232925415, 1.0049210786819458, 1.0184550285339355, 1.0157743692398071, 1.0014064311981201, 1.004613995552063, 1.0022600889205933, 1.0103858709335327, 1.000967025756836, 1.0044816732406616, 1.0019335746765137, 1.0457854270935059, 1.0056867599487305, 1.1087137460708618, 1.00149405002594, 1.0008718967437744, 1.00369131565094, 1.0023729801177979, 1.0019702911376953, 1.0047825574874878, 1.0163966417312622, 1.0058656930923462, 1.0130507946014404, 1.0529279708862305, 1.0030728578567505, 1.0007466077804565, 1.0048778057098389, 1.0022480487823486, 1.0175549983978271, 1.0006588697433472, 1.0039176940917969, 1.0001322031021118], "MAX_MARGINAL_PLANNER_HEALTH_INDEX": 1.0143810510635376, "MIN_MARGINAL_AGENT_ECONOMIC_INDEX": [-1.2300249338150024, -1.8792444467544556, -1.5766233205795288, -3.117553472518921, -1.2722207307815552, -2.0393409729003906, -2.083573579788208, -2.1114654541015625, -3.278529644012451, -1.6472488641738892, -1.615243673324585, -0.71929532289505, -2.5956552028656006, -1.1188217401504517, -1.0166164636611938, -1.5847766399383545, -2.0065178871154785, -2.2914533615112305, -1.9517990350723267, -5.331839561462402, -2.959901809692383, -0.7683274745941162, -0.6715533137321472, -2.759575605392456, -1.8115490674972534, -1.9256110191345215, -2.7187576293945312, -4.496590614318848, -0.21206018328666687, -1.5596846342086792, -0.9427394866943359, -3.5764520168304443, -1.1923446655273438, -1.7603005170822144, -1.1208282709121704, -1.486696720123291, -1.3525867462158203, -1.4102749824523926, -1.115732192993164, -1.4605399370193481, -1.3390334844589233, -1.4113856554031372, -1.6665875911712646, -1.9439122676849365, -1.9173252582550049, -2.7856764793395996, -2.369856834411621, -1.5294971466064453, -1.7555447816848755, -1.256932258605957, -5.273169994354248], "MIN_MARGINAL_PLANNER_ECONOMIC_INDEX": -1.664099097251892, "MIN_MARGINAL_AGENT_HEALTH_INDEX": [0.645742654800415, 0.31222739815711975, 0.7195113301277161, 0.5560733079910278, 0.7224522829055786, 0.7264619469642639, 0.7453126907348633, 0.7263175845146179, 0.7335357069969177, 0.5866698622703552, 0.7209166884422302, 0.7129010558128357, 0.7131914496421814, 0.7266958355903625, 0.7266696095466614, 0.7079432606697083, 0.7207099795341492, 0.7185846567153931, 0.7451392412185669, 0.7233109474182129, 0.7247418165206909, 0.7383691668510437, 0.7356829047203064, 0.7209022641181946, 0.7221190929412842, 0.7410545945167542, 0.5806261301040649, 0.717415452003479, 0.7238211631774902, 0.7199374437332153, 0.7657011151313782, 0.7255919575691223, 0.8286315202713013, 0.7209069728851318, 0.7181841135025024, 0.7235679030418396, 0.7193112373352051, 0.7176042199134827, 0.7246508002281189, 0.7363121509552002, 0.6582149863243103, 0.305292010307312, 0.4175145924091339, 0.7084088325500488, 0.6887248158454895, 0.7210306525230408, 0.7157784104347229, 0.7183356881141663, 0.7203063368797302, 0.7132706046104431, 0.7088539004325867], "MIN_MARGINAL_PLANNER_HEALTH_INDEX": 0.7242546677589417}