{"settings": {"LAST_DATE_IN_TRAIN_SET": "2020-11-30", "LAST_DATE_IN_VAL_SET": "2022-12-31", "FILTER_SIZE_UNEMPLOYMENT": 600, "SIMILARITY_REGULARIZATION_UNEMPLOYMENT": 0.5, "SIMILARITY_REGULARIZATION_SIR": 1.0, "env": {"economic_reward_crra_eta": 2, "start_date": "2020-03-22", "infection_too_sick_to_work_rate": 0.1, "pop_between_age_18_65": 0.6, "risk_free_interest_rate": 0.03}}, "BETA_DELAY": 19, "BETA_SLOPES": [-0.002083149146316841, -0.01371560729632028, -0.011424436209217176, -0.00021417674846646492, -0.006933490155728566, -0.016302651313909445, -0.021976940880546216, -0.015027611667733825, -0.02049632436729215, -0.0012684443956520169, -0.01048973104445181, -0.017194032124246396, -0.012501268771611864, -0.01143836972759926, -0.013060538603737563, -0.0067212150885846535, -0.01688288807282084, -0.00732788326384196, -0.01555251108305955, -0.018558939137308463, -0.010197800016497182, -0.026008323704885424, -0.01839844459165451, -0.00901908210276596, -0.009912989484092105, -0.012184418132402267, -0.010865738701655978, -0.00824883961890689, -0.015658776412508412, -0.007343924746645179, -0.025687336392182365, -0.018997538481654343, -0.02173458408903677, -0.009723754643385055, -0.01522632535061064, -0.014219802862404556, -0.009837136107620213, -0.013702791710576777, -0.01233515106776793, -0.017495098568829186, -0.0038581898438220952, 0.0, -0.005059806903521021, -0.008279652819068657, -0.00976148524190814, -0.013599986086457131, -0.006700989222300901, -0.00854383474889656, -0.01016606020999418, -0.007783745678307378, -0.00854767718434908], "BETA_INTERCEPTS": [0.0909339937130691, 0.15934908172512985, 0.14090346558341932, 0.0874313754405788, 0.12764208829535384, 0.16684521264029478, 0.2224932557519612, 0.17695271150734787, 0.21019375363558337, 0.08716936932597127, 0.1336906559126855, 0.20973853610439594, 0.15080833147783596, 0.14648534415297923, 0.14984655491595586, 0.110537697420092, 0.17482465641796435, 0.12619046011972584, 0.1647262699056331, 0.21555096854713704, 0.14377434718511678, 0.24829878480348588, 0.1892414331867255, 0.13387981001991417, 0.13184909826792304, 0.14018526342268908, 0.14661205866940122, 0.12405630739766456, 0.1708853272245163, 0.12083263910858046, 0.22682830516334695, 0.22726318123971645, 0.22862860647497482, 0.14018468286560404, 0.15135048973036935, 0.1697137890161659, 0.12073008155368109, 0.15871040433133266, 0.15150244306880184, 0.20317395740311867, 0.10065229276353373, 0.09157731666281237, 0.11147735108794629, 0.1302431516220282, 0.1279698798877931, 0.1390724799874019, 0.11496817083316735, 0.12430599998655567, 0.14262011441012512, 0.11751381777354367, 0.13140679079992296], "POLICY_START_DATE": "2020-01-01", "FILTER_LEN": 600, "CONV_LAMBDAS": [25.6795597076416, 63.27611541748047, 129.519287109375, 264.4393310546875, 541.5117797851562], "UNEMPLOYMENT_BIAS": [2.6918599605560303, 4.447470664978027, 3.7183618545532227, 3.6373956203460693, 4.145878791809082, 3.3141632080078125, 3.9788737297058105, 3.3152029514312744, 4.547322750091553, 3.9311180114746094, 3.2745611667633057, 3.7763397693634033, 2.7531561851501465, 4.206940650939941, 3.3364439010620117, 2.8677268028259277, 2.2155983448028564, 2.498838424682617, 4.380293846130371, 2.3506388664245605, 3.7778985500335693, 3.707268476486206, 4.087703227996826, 2.8275914192199707, 4.5204901695251465, 3.3383309841156006, 2.332961320877075, 2.382234573364258, 4.837297439575195, 3.0800750255584717, 3.24882435798645, 4.499233245849609, 4.105517864227295, 3.1613645553588867, 1.4823933839797974, 3.2707326412200928, 2.8196516036987305, 3.594358205795288, 3.5467872619628906, 3.124160051345825, 2.4934256076812744, 2.002714157104492, 3.8202567100524902, 3.2874033451080322, 1.7628862857818604, 1.4375414848327637, 3.2279117107391357, 2.838155508041382, 4.415710926055908, 3.3295469284057617, 3.971126079559326], "GROUPED_CONVOLUTIONAL_FILTER_WEIGHTS": [[[-1.0979300737380981]], [[-0.7212381362915039]], [[0.6451143622398376]], [[1.2849719524383545]], [[0.7245529890060425]], [[-1.9266794919967651]], [[-0.24144962430000305]], [[0.7265493869781494]], [[0.08135490864515305]], [[1.126117467880249]], [[-0.7032850980758667]], [[-0.18485157191753387]], [[0.14740940928459167]], [[0.7996954321861267]], [[1.0705920457839966]], [[-0.7128177285194397]], [[-0.28304094076156616]], [[0.467413991689682]], [[0.9647936820983887]], [[0.20050431787967682]], [[-2.2438015937805176]], [[0.028941791504621506]], [[0.21617184579372406]], [[0.5789918303489685]], [[1.406949758529663]], [[-1.1871012449264526]], [[-0.1324063539505005]], [[0.569068193435669]], [[0.3806554973125458]], [[0.7932025790214539]], [[-1.9388355016708374]], [[-1.0731250047683716]], [[0.3652740716934204]], [[1.6257907152175903]], [[0.20137867331504822]], [[-1.236446738243103]], [[-0.43952178955078125]], [[0.748511016368866]], [[1.0656657218933105]], [[0.2909005582332611]], [[0.030805405229330063]], [[-0.4942423403263092]], [[0.10548843443393707]], [[0.06413694471120834]], [[0.9379400610923767]], [[-1.3148903846740723]], [[-0.2794296443462372]], [[-0.09620161354541779]], [[0.7783529162406921]], [[1.148422360420227]], [[-1.7120729684829712]], [[0.19821476936340332]], [[0.9576057195663452]], [[1.001898169517517]], [[0.04879001900553703]], [[-1.6105445623397827]], [[0.29026007652282715]], [[0.9225395917892456]], [[0.7067711353302002]], [[1.2170288562774658]], [[-1.077338695526123]], [[-0.3357764482498169]], [[0.7602030038833618]], [[0.70576012134552]], [[0.32741937041282654]], [[-1.5609209537506104]], [[-0.5238181352615356]], [[0.8826282024383545]], [[0.5823419690132141]], [[1.216644048690796]], [[-1.6698857545852661]], [[-0.24040554463863373]], [[1.3879474401474]], [[0.2315891832113266]], [[0.9871318340301514]], [[-1.2348649501800537]], [[-0.510044515132904]], [[0.7214322090148926]], [[0.7677613496780396]], [[0.644414484500885]], [[-1.1197144985198975]], [[-0.09191259741783142]], [[0.6500553488731384]], [[1.0811798572540283]], [[0.27846696972846985]], [[-1.4590232372283936]], [[0.7566837668418884]], [[0.8857554793357849]], [[0.7740957736968994]], [[0.07220128923654556]], [[-1.4010783433914185]], [[-0.014258848503232002]], [[0.28107160329818726]], [[0.8613426089286804]], [[0.7804333567619324]], [[-0.9794284701347351]], [[0.13396604359149933]], [[1.0912033319473267]], [[0.06297188997268677]], [[0.12564557790756226]], [[-0.6304767727851868]], [[-0.6338443756103516]], [[0.2353585660457611]], [[0.5992762446403503]], [[0.4415072202682495]], [[-1.9211679697036743]], [[-0.4582916796207428]], [[0.8246098160743713]], [[1.861151099205017]], [[0.34645912051200867]], [[-1.3456904888153076]], [[-0.44099360704421997]], [[0.6136871576309204]], [[1.0902292728424072]], [[1.1551328897476196]], [[-1.2049270868301392]], [[-0.5927212238311768]], [[0.23115460574626923]], [[0.9353495836257935]], [[0.6304737329483032]], [[-0.7469468116760254]], [[0.06546071171760559]], [[0.963212788105011]], [[0.5876217484474182]], [[0.49322208762168884]], [[-0.9022713303565979]], [[-0.37700802087783813]], [[0.34337347745895386]], [[1.0523582696914673]], [[0.4453868865966797]], [[-0.9639387130737305]], [[-0.29362887144088745]], [[0.4674605131149292]], [[0.9104809165000916]], [[0.4924379885196686]], [[-0.8866052031517029]], [[0.2051752805709839]], [[0.6140738129615784]], [[0.4331687092781067]], [[0.10572535544633865]], [[-1.7194615602493286]], [[1.3591188192367554]], [[0.9496586918830872]], [[1.9897347688674927]], [[0.7502819299697876]], [[-1.2116061449050903]], [[-0.036075837910175323]], [[0.23594994843006134]], [[1.5127604007720947]], [[0.23681361973285675]], [[-2.5314300060272217]], [[-0.2739279866218567]], [[0.367908239364624]], [[1.435158133506775]], [[1.1270354986190796]], [[-0.2787727415561676]], [[-0.14000007510185242]], [[-0.45694565773010254]], [[0.34772709012031555]], [[0.830768346786499]], [[-1.8227229118347168]], [[-0.10676521807909012]], [[0.33065372705459595]], [[0.6427035331726074]], [[1.110062837600708]], [[-1.51729154586792]], [[0.646067202091217]], [[0.5965412855148315]], [[-0.062064580619335175]], [[1.0561562776565552]], [[-1.16697096824646]], [[-0.3796754777431488]], [[0.2463339865207672]], [[0.4869842827320099]], [[1.4006314277648926]], [[-1.541657567024231]], [[-0.5205962657928467]], [[0.7096263766288757]], [[0.816379725933075]], [[0.9055200815200806]], [[-1.2289336919784546]], [[-1.0016158819198608]], [[0.3657197058200836]], [[0.990604043006897]], [[1.1963125467300415]], [[-1.7087171077728271]], [[0.4744853079319]], [[0.2018871307373047]], [[0.3528223931789398]], [[1.1138677597045898]], [[-1.2645050287246704]], [[-0.6101619005203247]], [[0.2253534197807312]], [[1.1278032064437866]], [[1.1311594247817993]], [[-1.1269245147705078]], [[-0.435483455657959]], [[0.7743159532546997]], [[0.47273969650268555]], [[1.1982336044311523]], [[-0.9286965727806091]], [[-0.7398674488067627]], [[0.2170533835887909]], [[1.1826865673065186]], [[0.7739107012748718]], [[-1.6869244575500488]], [[-0.5107609033584595]], [[0.3367130160331726]], [[0.8220049142837524]], [[1.0215675830841064]], [[-1.5646753311157227]], [[-0.1378207504749298]], [[1.308362603187561]], [[0.4790988266468048]], [[0.5980685949325562]], [[-0.8928887844085693]], [[-0.49283671379089355]], [[0.3026537299156189]], [[1.0358566045761108]], [[0.7646211981773376]], [[-1.564016580581665]], [[-0.012736169621348381]], [[0.7910109162330627]], [[0.6308287978172302]], [[0.598078727722168]], [[-2.043041944503784]], [[0.2871842086315155]], [[0.7175285220146179]], [[0.794516384601593]], [[0.5264981389045715]], [[-0.7804214358329773]], [[-0.3905695676803589]], [[0.3124646544456482]], [[0.8815701007843018]], [[0.5713983178138733]], [[-1.6384673118591309]], [[-0.4589149057865143]], [[1.4986400604248047]], [[0.7188015580177307]], [[0.7783111333847046]], [[-1.0645831823349]], [[0.08644287288188934]], [[0.12476333230733871]], [[0.9204946160316467]], [[0.6862713694572449]], [[-1.5234899520874023]], [[-0.6112791895866394]], [[0.9113894701004028]], [[0.599250853061676]], [[0.8620361685752869]], [[-1.3332618474960327]], [[-0.3109666109085083]], [[0.32432565093040466]], [[0.22042308747768402]], [[0.5224992632865906]]], "VALUE_OF_LIFE": 10000000, "INFERRED_WEIGHTAGE_ON_AGENT_HEALTH_INDEX": [0.487, 0.752, 0.536, 0.451, 0.626, 0.648, 0.588, 0.528, 0.624, 0.497, 0.641, 0.6890000000000001, 0.555, 0.581, 0.535, 0.517, 0.538, 0.628, 0.5730000000000001, 0.494, 0.653, 0.47900000000000004, 0.545, 0.686, 0.535, 0.646, 0.46900000000000003, 0.552, 0.542, 0.656, 0.529, 0.498, 0.61, 0.742, 0.486, 0.515, 0.647, 0.736, 0.582, 0.54, 0.534, 0.5650000000000001, 0.557, 0.577, 0.631, 0.965, 0.6990000000000001, 0.705, 0.617, 0.602, 0.8160000000000001], "INFERRED_WEIGHTAGE_ON_PLANNER_HEALTH_INDEX": 0.579, "MAX_MARGINAL_AGENT_ECONOMIC_INDEX": [0.002593633718788624, 0.00255564134567976, 0.0025629315059632063, 0.0025976698379963636, 0.0025640150997787714, 0.0025534136220812798, 0.0025433471892029047, 0.002552794525399804, 0.002545913215726614, 0.002596301957964897, 0.0025630854070186615, 0.002549961442127824, 0.0025582537055015564, 0.002558534499257803, 0.002559039741754532, 0.0025767027400434017, 0.0025542438961565495, 0.00256915926001966, 0.0025524571537971497, 0.002548470627516508, 0.0025586646515876055, 0.0025436256546527147, 0.0025510916020721197, 0.002564268186688423, 0.002563271438702941, 0.002563072368502617, 0.0025607687421143055, 0.002569883596152067, 0.0025546331889927387, 0.0025706952437758446, 0.0025455427821725607, 0.00254433904774487, 0.002543817274272442, 0.0025619438383728266, 0.00256192684173584, 0.0025545922107994556, 0.0025715380907058716, 0.0025561926886439323, 0.0025582758244127035, 0.0025493160355836153, 0.002584257861599326, 0.002593578537926078, 0.002573966281488538, 0.002564802300184965, 0.0025689308531582355, 0.0025644591078162193, 0.0025726649910211563, 0.0025671906769275665, 0.0025609799195080996, 0.0025717425160109997, 0.00256605283357203], "MAX_MARGINAL_PLANNER_ECONOMIC_INDEX": 0.0024461557622998953, "MAX_MARGINAL_AGENT_HEALTH_INDEX": [-2.1586110960924998e-05, -2.840947672666516e-06, -3.752232032638858e-06, -0.00027798450901173055, -7.848578206903767e-06, -3.1494637369178236e-05, -3.95616953028366e-05, -1.1030470886908006e-05, -2.068725552817341e-05, -4.890302079729736e-05, -1.003432862489717e-05, -2.967008185805753e-06, -4.373378487798618e-06, -1.3238825886219274e-05, -1.3559841136157047e-05, -2.7274240892438684e-06, -4.041517513542203e-06, -7.100933544279542e-06, -4.297302439226769e-05, -6.58123235552921e-06, -8.793614142632578e-06, -3.617319816839881e-05, -3.141834167763591e-05, -3.0547171263606288e-06, -8.079821782303043e-06, -3.97305711885565e-06, -2.5356823698530206e-06, -2.0454197056096746e-06, -8.467349289276171e-06, -4.210466613585595e-06, -7.611052569700405e-05, -7.519485734519549e-06, -0.0001732203527353704, -2.5730305424076505e-06, -1.585368067935633e-06, -6.6202965172124095e-06, -4.165876816841774e-06, -3.1094257337827003e-06, -8.988533409137744e-06, -2.8403759642969817e-05, -8.136580618156586e-06, -0.0006330518517643213, -7.425266630889382e-06, -4.352218184067169e-06, -1.0471974292158848e-06, -7.921196811366826e-06, -4.32069009548286e-06, -1.9498778783599846e-05, -1.1972392712777946e-06, -7.099261893017683e-06, -2.2792193021814455e-07], "MAX_MARGINAL_PLANNER_HEALTH_INDEX": -2.8512773496913724e-05, "MIN_MARGINAL_AGENT_ECONOMIC_INDEX": [0.0005387435667216778, 0.0006383360014297068, 0.0005479902611114085, 0.0007338348659686744, 0.000492963707074523, 0.0006763513665646315, 0.0006876845727674663, 0.0006926599307917058, 0.0007315626135095954, 0.0005676894797943532, 0.000720772601198405, 0.0004060278588440269, 0.0007369282539002597, 0.0004894209560006857, 0.0005754453013651073, 0.0006521382019855082, 0.0006837678956799209, 0.0007410451653413475, 0.0006053377874195576, 0.0008437362848781049, 0.0007795316050760448, 0.0005036057555116713, 0.0004211178165860474, 0.0006828143377788365, 0.0006503836484625936, 0.0006836311076767743, 0.0006831169012002647, 0.0008289266843348742, 5.472682460094802e-05, 0.0006552010308951139, 0.00040144877857528627, 0.000753908243495971, 0.000556678045541048, 0.0006493637338280678, 0.0005367132253013551, 0.0005751358694396913, 0.0005058382521383464, 0.0006029580836184323, 0.000484137621242553, 0.0005307773244567215, 0.0005981659633107483, 0.0005671962862834334, 0.0006384186563082039, 0.0005966426688246429, 0.000672411872074008, 0.0006679727812297642, 0.0006778102833777666, 0.0005351941799744964, 0.0006300982786342502, 0.0006129106623120606, 0.0008108641486614943], "MIN_MARGINAL_PLANNER_ECONOMIC_INDEX": 0.0003322633565403521, "MIN_MARGINAL_AGENT_HEALTH_INDEX": [-0.0006629637791775167, -0.0024896860122680664, -0.0022425795905292034, -0.00040012289537116885, -0.002100884448736906, -0.0024862431455403566, -0.0028273356147110462, -0.0025884080678224564, -0.0028140435460954905, -0.00046029617078602314, -0.0021177264861762524, -0.0027891697827726603, -0.002329388866201043, -0.0023459785152226686, -0.002332112053409219, -0.0015705771511420608, -0.002507877768948674, -0.0020034138578921556, -0.0025189921725541353, -0.002736789407208562, -0.0023072590120136738, -0.002880847081542015, -0.002685031620785594, -0.002129355212673545, -0.0021417916286736727, -0.002203474985435605, -0.0022785631008446217, -0.0019263685680925846, -0.0026040729135274887, -0.0018987819785252213, -0.002787560224533081, -0.0028845961205661297, -0.0028383517637848854, -0.002235276857391, -0.002250049030408263, -0.0025335359387099743, -0.0018268129788339138, -0.002444606041535735, -0.0023730581160634756, -0.002724096644669771, -0.0012258500792086124, -0.0006330475443974137, -0.0017105613369494677, -0.0020934490021318197, -0.001955772750079632, -0.002088377485051751, -0.0017562669236212969, -0.0019498240435495973, -0.0023166011087596416, -0.0018139979802072048, -0.002114207250997424], "MIN_MARGINAL_PLANNER_HEALTH_INDEX": -0.0021029238123446703}